-1.991471887138224206e-02 5.287787842611793576e-02 -1.199725500438372228e-01 -4.744018256835845493e-02 -8.477858620389286393e-02 -9.783873725548852818e-02 -7.529754926935897097e-02 -3.706542550966854255e-02 -2.477580618463921802e-02 9.316016160805656865e-03 -1.939331654320924914e-02 4.445268009522226893e-02 -7.093146006443581952e-02 9.074818473382689765e-02 -1.134269776324977191e-01 4.091220244281654206e-02 -1.984684743188952494e-02 1.408555882698039885e-02 -8.630713473714389516e-02 -7.245564261962908481e-02 7.217869648212879574e-02 1.123827781726554065e-01 -4.477819724178171146e-02 4.615742776063538888e-02 9.033339655104918875e-02 9.470559924092336601e-02 -9.958938927125329799e-02 -1.106268520241082270e-01 -7.924069930450346189e-02 9.075420082305915570e-02 -9.639675988006797536e-02 -1.893416999878748397e-02 1.098934872361204684e-01 7.959668393524105268e-03 4.605050734811361179e-02 -4.427624855854489505e-02 4.476022264358006653e-02 8.031016125536949435e-02 -1.156108134373939611e-01 6.003463558679220102e-02 1.173266613375587297e-01 5.955975705116145491e-02 -5.269344190454275378e-02 6.942703882835724039e-02 -9.522575842136590807e-02 -1.250555371778276637e-02 9.806292074234293499e-02 -4.953260439031692552e-02 -5.093391873927630153e-02 -8.879314269161335538e-02 -1.153519301111286949e-01 4.292052790557382425e-02 -6.920925215998582902e-02 -5.626880175066570344e-02 -2.022441772718805431e-03 -1.071929891719007044e-01 1.778822531808313401e-02 -8.478514202260556409e-02 2.143332885678822519e-02 4.794200640502346844e-02 -9.543973708132179323e-02 -2.062656292330360130e-02 4.665603785465882725e-02 -2.059697531354336142e-02 -1.080111698529390707e-01 8.615137419722779244e-03 3.931071485274931221e-02 3.573386893994057179e-03 1.067027414377952066e-01 2.077320972047830283e-02 9.681645966909202539e-02 -8.700607100490298507e-02 -8.657367665981793858e-02 7.377390929028571076e-02 -2.455755912347193370e-02 -8.031499269193612123e-02 1.026020592950481203e-01 -3.653619366107842270e-02 6.019490475267733065e-02 5.423951648410835213e-02 9.199346188939436231e-02 2.968132969334613680e-02 6.022618416656091989e-02 -3.626439792531779838e-02 -5.521730597639373794e-02 9.501269236705603416e-02 -1.725811443088921815e-02 1.115616113156125411e-01 3.922595947642754100e-02 2.920697285018922229e-02 -9.246096649118995536e-02 1.078774220896970837e-01 -1.202108796481426989e-02 1.881350745291163196e-02 -2.204716733729251976e-02 -6.311352474167333804e-02 9.681108493494089418e-02 1.768307680134859061e-02 -1.193111215125218366e-01 2.811477926897373858e-02 -4.160522357469692567e-02 6.493944541826224270e-03 9.262610383458588781e-02 -3.425525759940005466e-02 9.804843622075179455e-02 2.960642779003264113e-02 -1.162029017168264844e-01 1.030649360985027019e-01 4.581526020406173627e-02 1.193574841083553106e-01 -7.863827799712114208e-02 -8.708742008906933396e-02 1.038229111289192541e-01 4.723635875757603575e-02 -1.041599585467049977e-01 6.131113262459192415e-02 6.093028523069912716e-02 1.015258885311559889e-01 5.076594207083320875e-02 -9.017496912668046538e-02 -1.152287678784490593e-01 -1.137093631493473755e-01 -1.132064428750092916e-01 -6.090934377526898563e-02 8.640670768389310807e-02 9.319455441996693512e-03 1.267727488458381124e-02 8.208741416630535581e-02 -9.019840437122132737e-02 -5.299591703732652037e-02 2.058222514998908625e-02 1.127029795967218750e-01 1.464725262137039907e-02 -1.155246505504936710e-01 7.215184144334790828e-02 -6.408617427815509193e-02 7.370524694850699721e-02 -2.691344542459878086e-02 8.725004509426287358e-02 5.930919425692429692e-02 1.349765615770054383e-02 -8.725074584143559242e-02 -1.056197545170692031e-01 -9.087757062222302784e-02 -1.093075491492571799e-01 -9.420140901453770421e-02 -6.582975873411486822e-02 5.111735529184238680e-02 1.433207569299418949e-02 -1.169865647618121840e-01 -1.027261728745231667e-01 1.121463192000652920e-01 1.634411086078610409e-02 -7.120962368136228571e-02 -5.944182130312238022e-02 5.851820497802229237e-02 -7.309692453376348542e-02 1.952614254558185380e-02 1.128047973811949489e-01 8.323891235760846885e-02 -6.243653780457932012e-02 -1.495268575504804520e-03 2.878937241153115001e-02 7.895541589204288502e-02 -8.237006528493977242e-02 -1.155417114774217047e-01 -1.031946855073866409e-01 -3.277173375112366061e-03 2.551907079679927026e-02 1.652434490075552209e-02 -4.383302176268141781e-02 1.172678770589877240e-01 1.913885261899125889e-02 -2.876611857034790110e-02 1.222757258829523797e-02 5.888026341756050219e-02 4.061589442876431533e-02 -5.641930616092574735e-02 -1.040796397371740178e-01 -3.117979250061449215e-02 3.113220168517547015e-02 -6.955823762043850111e-02 6.066133289731531764e-02 -1.040312444750124132e-01 -5.752437634115016574e-02 7.314109529840290280e-02 -7.357577217040134343e-02 3.347061141118562455e-02 5.920874189696084811e-03 1.019539128958441565e-01 -5.680877508309335744e-02 -1.041693382358342967e-01 5.641583118928067409e-02 6.532272709037922898e-02 9.787580460084577272e-02 1.036732966072409501e-01 -1.166516224858567125e-01 -6.375309933085906988e-02 2.802680568039783715e-02 1.077639169650279338e-01 1.080422686192991089e-01 1.359676516683752667e-02 9.974552394390587273e-02 3.397589014712101840e-02 -2.639814860610090186e-02 -3.362239896741656131e-03 2.503451590079358580e-02 1.189150116205500707e-02 1.022835424095488721e-01 1.004960245520654660e-01 -2.522985289834682454e-02 1.111830068257708415e-01 -7.825063999668854797e-02 -8.968091533448703523e-02 -8.758100206878448313e-02 1.358919762455210178e-03 -1.148340467341924798e-01 1.075128506922434224e-01 7.850771308097578838e-02 -1.163954446218906230e-01 -7.771289866198674567e-02 -4.030474215195913035e-02 -8.856075724537994243e-02 7.427776611037970045e-02 -3.726320335600956379e-02 1.056257957600081065e-01 1.968340318729921989e-02 9.091967625884256332e-02 8.273626689413324242e-02 9.729415649007580602e-02 -9.628736203966328788e-03 1.112323584488958406e-02 7.166486187648946071e-02 -5.142747558380457440e-02 -2.339154571217347267e-03 2.378647383501081292e-02 -1.162720138677994230e-01 2.243553796719291449e-02 -1.591767624253001556e-02 7.376652693236193659e-02 -4.434124725711048598e-02 9.429329004603631548e-02 1.868573166828851884e-02 -7.583755160940838791e-02 6.910301611812103006e-02 2.688748249078415364e-02 -1.070617747022992866e-01 -1.915351679972826515e-02 4.297652077570310314e-02 1.004644267146062031e-01 -1.199035140260742149e-01 1.144221957674542989e-01 -2.962072446101413070e-02 1.137080492059974191e-01 2.513186423377272716e-02 7.892299391536630737e-02 1.793076112994454463e-02 3.073828759376409647e-02 -5.146169239303345633e-02 2.084000175745989725e-02 6.000522328863838739e-02 8.599532074297017159e-02 6.121972523224322726e-02 4.753373962735271685e-02 8.747506321310394295e-02 -4.255656075918085035e-02 4.098930978902093347e-02 -1.179025526079620356e-02 -2.829533951243586032e-02 -2.140527601867545093e-02 -2.364489996731025667e-02 -4.382785297001354219e-02 2.926064830087235502e-02 -1.674065500289655117e-02 1.137124987025405487e-01 4.267221394423467706e-02 -7.234322677749338570e-02 -1.759175775647213447e-02 -3.759690245413847831e-02 7.143331295005597714e-02 9.119958925522361759e-02 9.692206939832925805e-02 3.905275497006294172e-02 -5.515001711285813513e-02 -5.943199163889846537e-02 8.517550624737657561e-02 6.651515114099199044e-03 7.251866016110353197e-02 1.739724412598550596e-02 5.595420606900267102e-02 4.562790591373391824e-03 6.501213852045312214e-02 1.652591776913173161e-02 -8.229629137924590609e-03 -3.775466209121237926e-02 -1.036297563799910004e-01 -2.929819696125603168e-02 -1.008897413524194320e-01 1.158761072953067850e-01 -7.641291568061669981e-02 7.484608745292953280e-02 8.999079478941554577e-02 4.521918057262638846e-02 1.667865905889018285e-02 -8.136685516425389009e-02 -7.948794536806483291e-03 -3.715870772274840195e-02 -6.599041012461970279e-02 2.220284850379122821e-02 -4.505523895153992764e-02 9.991333283240416696e-02 9.831252598837370016e-02 -5.829160949227291111e-02 -9.338608782143298370e-02 -7.368894431541291035e-02 -9.979903706734682967e-05 5.486056031390310062e-02 -7.003333478189004146e-02 -6.047194598946462052e-02 8.440124998472806062e-02 -2.019630761579344069e-02 2.800441611725668078e-02 -6.392012658257997804e-02 -9.552785773780861356e-02 3.805684072447149124e-03 -5.486163108052236059e-03 -8.335880541764081886e-02 2.923349561769972293e-02 1.056242851534514027e-02 3.699296327297862952e-02 -8.530907037008164662e-02 6.036667611245852272e-02 -6.670820644801855881e-02 4.644437847847918133e-03 6.847104677318854860e-02 -1.146406972819665193e-01 -4.215300966571523811e-02 8.950137033602664771e-02 8.273030582449669712e-02 9.225742222690486161e-03 8.798598579996311231e-02 1.079534379248703602e-01 7.833767943104191778e-02 8.498770652076928500e-02 -9.630158356311638301e-02 3.631303976183786197e-02 4.884407715663671712e-02 2.645779503519110620e-02 7.190766281664673354e-02 -1.117029072308077797e-01 6.485729629319517131e-02 5.561486417748645605e-02 -5.767238560839525741e-02 -5.830336828268479349e-02 3.175279618323068043e-02 -3.712860921814042925e-02 7.118128272174900628e-02 -1.292490431917026061e-02 6.785985954820125676e-02 1.177132280697217592e-01 -4.794039851186397694e-02 -8.567860121805614959e-02 9.631402472382571966e-02 9.974250932969580541e-03 1.139376890052197222e-01 3.278505600045533708e-02 1.185391259065149416e-01 1.105699299430840110e-02 6.342224137325103150e-03 -8.749730326267922409e-02 -3.463075896386853814e-02 -1.137075438488704127e-01 -8.150515691528420481e-02 5.895292624979905916e-02 -1.127040744170906827e-01 -3.202965666150135726e-02 8.696310068113058400e-02 4.624265220176501656e-02 4.582611409588044360e-02 -7.472716777072538341e-02 -1.394297262037839935e-02 1.957857776262988958e-02 1.175404098392892616e-01 -7.106250594405075227e-02 -6.054410357703483153e-02 -5.707845989450113788e-02 6.004137919151825153e-02 -1.032592141543373088e-02 -1.063369347813371973e-01 2.043897746457495890e-03 -6.912956048551777144e-02 7.166501874245043147e-02 -4.864046843825466093e-02 -1.133745571309191236e-01 2.242378787150905994e-02 8.252170294348531998e-02 -2.855613022506858778e-02 5.996599457427440050e-02 2.673954791310773071e-03 9.828433190925273122e-03 1.102642370548205797e-01 7.295061395967522566e-02 -1.122424640103422411e-01 5.025294029551080621e-02 -8.399644424758545558e-03 1.074117459348239434e-01 -6.685614376236280465e-02 -5.590271527575220445e-02 -1.004462484294571245e-01 -1.713148112069122486e-02 -9.383549663542360697e-02 3.210882254686028836e-02 7.271117696969708888e-02 4.723211906884283717e-02 6.389073145818491284e-02 -3.781101123755524485e-02 8.300435592664262563e-02 -1.709549400013378462e-02 7.776236889895649096e-02 3.035907806983048629e-02 -8.557846831914121821e-02 -1.011871440348124929e-01 -1.156001657008782491e-01 -1.039860005665544374e-01 -9.939884709976365418e-03 -9.279793853577827933e-02 -1.133319962763192079e-01 6.116675553371217489e-02 -2.523588468944654162e-02 5.926523894580601470e-02 -1.142284158085163370e-02 -1.197918071981733668e-02 -5.262598387720571202e-03 -6.239057625073429758e-03 7.275920210740069449e-02 -2.342579523414339837e-02 9.712467848246952862e-02 -1.111053484910313888e-01 6.572984225290048887e-02 -8.984606852694268508e-02 2.844325605890052344e-02 -1.175125772795443252e-01 9.270547818323260358e-03 -1.192756904112968752e-01 1.082865085176490660e-01 9.729648808866672716e-02 7.103206606614465013e-02 9.966583677954898857e-02 -8.506602452198469555e-02 -8.214478323107200775e-02 -7.496839850341584233e-02 2.939901655198107200e-02 9.739427904199243757e-02 1.175892428061776629e-01 5.066939010379581387e-02 5.563209819415085300e-02 9.823036909062105027e-02 -2.379030423093098090e-02 -6.003583674599117376e-02 -7.837675901109050769e-02 -9.133030791990504049e-02 7.502654112787887630e-02 -8.476983037986163261e-02 -5.656860414554383543e-02 7.658140287204739938e-02 -4.545905956938960102e-02 1.157801878303062748e-01 -5.600671148360754359e-02 8.076802793090753774e-03 -4.452791731539608444e-02 9.858547948172097231e-02 -3.202640547570373419e-02 -1.593784145444050726e-02 2.950246146806737024e-03 1.053327545687312017e-01 -1.125722384949238292e-01 5.205087927160539918e-02 9.384454903016134497e-02 -1.134510663558074839e-01 5.292299340602574231e-03 -4.176244517519392407e-02 8.627743700774059832e-02 1.404397222140427171e-02 4.565468835905947542e-02 -1.131516001163100638e-02 3.079416900512571553e-02 -5.037675559501779421e-02 -1.177563412880362065e-01 1.842142439690178102e-02 -4.525338860820891929e-02 4.144223640271157971e-03 9.993740473293546978e-02 -1.764605075966496628e-02 -6.062495121542749860e-02 -3.088949729302693792e-02 1.036466679927697254e-01 1.048484115141824768e-01 8.263918765577116243e-02 1.008495634333585189e-01 -6.530393041168393309e-02 -9.900426970713818720e-02 -6.544566329167469942e-02 -4.454961213262789710e-02 -7.805618967448521572e-02 2.570259887339051974e-02 -2.073926039972127933e-02 7.592436283853137846e-02 -7.556870441543264705e-02 4.845036714151448876e-02 -6.231465003620666882e-02 1.781258132180632558e-02 -3.624297666701066511e-02 -1.063285441241201418e-01 -6.508471896950979163e-02 3.938461328515041604e-02 -6.599775934724994020e-04 4.563836177682911721e-03 -7.806716397385859985e-02 1.697180437110151763e-02 1.192208220499703930e-01 7.604042610998926199e-02 2.264942971943467720e-02 1.142373763994171676e-01 9.637502032063710589e-02 2.294590406463492549e-02 -1.122176819245302853e-01 -9.754149700380461419e-02 -1.043107883898656552e-01 -1.158404431404592982e-02 -2.989564003971413586e-02 1.140840082248687770e-01 -7.968400963209242016e-02 1.134690220638372438e-01 6.419396852712314083e-02 7.781708150987948214e-02 3.182779602671934049e-02 4.049586484961570365e-02 -5.548239954913589123e-03 -1.168472743384626616e-01 -3.527853946996205303e-02 -1.902767641545968780e-03 5.522189066162502824e-02 -7.529197740933787908e-03 -1.022282013853639815e-02 -8.696094217305523622e-02 -1.173867038871650448e-01 6.198678251447908849e-02 -4.321131886135719247e-02 1.162520280464425515e-01 -6.714378572180255966e-02 -3.871007388439687280e-02 5.735072559871601250e-03 6.117394969452785713e-02 -8.674131863929041009e-03 -9.004258965319768271e-02 -4.499966916190811794e-02 1.084600728238710454e-03 4.172376192404822492e-02 6.483598951490210371e-02 -8.871941257095497524e-02 -1.145003684826283730e-01 4.579757330877468058e-03 7.439729055897989496e-02 -1.169750959128296741e-01 4.139276271689615316e-02 4.483397439767802806e-02 -1.218077913920698196e-02 9.954928481806421536e-02 3.464666034167829256e-02 -1.187424389636481947e-01 -3.737173076549860085e-03 8.623627346342399580e-02 7.929589680896145798e-02 3.579700730699469924e-02 4.168762173567158724e-02 1.883989914940811805e-02 -5.421125395995547713e-02 1.452719772865410097e-02 4.121514835618086958e-02 -3.541688874806188381e-02 8.539880814094266692e-02 -7.319100335791024758e-02 5.935699447966155673e-02 -5.049534091514941425e-02 6.571182893860366692e-02 -1.734304095934170731e-02 7.384761818693028057e-02 -3.515163295968230794e-02 -6.871362296890051735e-02 6.414828202122396794e-02 -4.592593256864373197e-02 5.597881625434258934e-02 5.867355673865570775e-02 -6.686479178203173779e-02 -6.861308716304437283e-02 -7.225249837750399862e-02 -8.579559893619728705e-02 -2.950017619023981297e-02 -1.136093076740108399e-01 -9.337911143178224960e-02 4.189536570321852893e-02 7.194636885537269988e-02 -1.006729134891873878e-01 -6.439144548340991481e-02 -7.016984116708455121e-02 1.001600551395913363e-01 5.071548435275680111e-02 1.293230665233943699e-02 -4.691568289905113931e-02 8.036497143163162660e-02 -1.552657016891520469e-02 1.016294916285060412e-01 4.945243304062396650e-02 -5.272486088331987397e-03 -8.970957510015391267e-02 1.142504521122594263e-01 -8.163992391741758947e-02 -7.137548994728097618e-02 -1.651637876151097750e-02 -2.299154261396466059e-02 -8.477964461656940787e-02 5.503654064666960166e-02 -7.470118394947536378e-02 3.453495463479908101e-02 6.103342813831166835e-02 -6.942422590000302263e-02 2.422901954583359108e-02 5.974281005900075603e-02 3.317249054888002369e-02 2.331055270719578631e-02 -4.908425144268070694e-02 5.558555309796212041e-02 1.068740255999879318e-01 -1.786526633722873569e-02 6.772363603953726607e-02 -1.065261504811403220e-01 8.046518459759180453e-02 -7.385999596268455480e-02 -2.517675146640643846e-02 -4.798054897791445561e-02 -1.007751254865481699e-01 9.711144070469829304e-02 -3.116299738710281986e-02 7.367385234273465811e-03 -1.412096184881986294e-03 -8.828132593369483749e-02 -7.045102586653606558e-02 -1.017146858322429126e-01 1.901207986868991284e-03 -5.722810756008309130e-02 -3.430521386812993012e-02 -9.406432111266316287e-02 6.901244151660171355e-02 -9.441986957068773667e-02 1.165701176911650705e-01 -7.748132053477983783e-02 1.737722698431584667e-02 -1.092371196986188508e-01 6.890790951740019543e-02 -7.449457252360883186e-02 6.696954817950406813e-03 5.761861035817716914e-02 -8.401644361985857734e-02 1.226092180487320382e-02 -6.801187000109293335e-02 6.220705183611471845e-02 5.349964645349128411e-02 -7.762823177350007542e-02 8.687197384009762158e-02 -1.152539761160773779e-01 8.645687938154764107e-02 1.413691467862521201e-02 -2.322708669459619402e-02 6.209926344536079168e-02 5.206296040619276533e-02 1.169582819540223584e-01 -5.325958833288413352e-02 -1.190895186217577756e-01 1.041366259955730789e-01 8.589530508909451467e-02 5.492421060462140958e-02 4.005307901169222196e-03 4.966949885970264877e-02 6.732709365041825156e-02 -3.002977355115374336e-02 6.487740607918981994e-02 6.014983660204209492e-02 2.717069077062234106e-02 -2.355217824771903279e-02 4.735392462344181763e-02 -1.192529141219538930e-01 6.597519521390346475e-02 9.513998458964326166e-02 -6.256423021499887827e-02 -9.101587576578486216e-02 -6.713184292950537257e-02 -4.749678449037640637e-02 9.192684205532020147e-02 1.035994325714267861e-02 -5.118920409445665287e-02 -8.679487444969283261e-02 -5.036532885490999090e-02 2.732906153790062853e-02 -4.220675282461280875e-02 -1.023355639416037577e-02 -1.341189431601252924e-02 7.875248657556288556e-02 -1.767644298330464658e-02 -3.703228291787943882e-02 4.199318515418526410e-02 -6.684430662395310363e-02 -7.861002257627092149e-03 -4.445623504223605860e-02 3.044534451908031958e-02 9.056651392675502121e-02 -1.255463996504915802e-02 6.826978051006155068e-02 -1.032823186522791037e-02 3.749503961211153591e-02 -8.835816599339949007e-02 -1.608443832776444704e-02 9.823487727718480111e-02 2.531496024742432849e-02 6.402590093690449513e-02 1.128145943014635666e-03 -4.666500412782020879e-04 8.229596164628397159e-02 -1.037263357581710982e-01 1.758534517192431035e-02 1.062630181039078137e-01 4.286411561357256206e-03 -7.332820571330772585e-02 8.350545418643426365e-02 -5.960660583459531647e-02 4.817424875580911259e-02 9.662625695255971925e-03 1.077207091872527112e-01 2.984080857664223041e-02 8.111471089145502744e-02 -1.180961097133144538e-01 1.174416134799931288e-01 -1.013485031202272374e-01 -4.268891673245529816e-02 1.070765749096236619e-01 -1.178546154309011856e-01 7.745520130126451464e-02 8.669079320803063649e-02 -1.444060458994260443e-02 -5.862115348657651048e-02 7.264548471199167023e-02 -5.313118936266916781e-03 -8.775873392263291994e-02 1.026837582780025793e-01 9.503279208159562397e-02 -2.029163995935515108e-03 8.560859916427013272e-02 -1.954127381661632801e-02 4.403157603991225688e-02 -2.448224654209861517e-02 1.378084188194489412e-03 -7.450759131985744410e-02 1.115973417866193140e-01 -4.938823482137887078e-02 -9.516970653206367758e-02 -8.536430394502844687e-02 -1.166178493938136856e-01 5.182696787097468283e-02 1.547959685780977979e-02 7.069880428434052733e-02 1.699181588192738568e-03 7.003704948099692684e-02 4.698341142524145586e-02 6.668363444620209468e-02 -2.244411144549929293e-02 3.546495196499549474e-02 -7.684936855368613984e-02 -4.276320878690303973e-02 -7.857489117124979994e-02 -2.192706599681702728e-02 -6.205950048825628618e-02 -2.233872140895409864e-02 1.140533621849549040e-01 -4.312336180271249264e-02 1.157978267939748784e-01 3.271347020543605155e-02
-2.997815558546135239e-02 8.579627978006318378e-02 2.870081744845770499e-02 -5.951206076859855143e-02 7.028536271445301464e-02 -1.609475790380086868e-02 -3.419731984069405983e-02 -4.073353523398057230e-02 4.736853014715344812e-02 -5.552397026250562029e-02 7.398672328929123410e-02 -4.913068934403652666e-02 1.058913206048572864e-02 -2.898841966751428134e-03 8.528553902288874000e-02 9.321274425489262105e-02 -7.574773383173596941e-02 2.048363014518025937e-02 9.556921104411289503e-02 -1.293186743173686815e-02 1.012483933161156813e-01 -5.304218629032697585e-02 2.611948180651096907e-02 4.378889034403568581e-02 -6.523062399588380744e-02 -1.166957969861479594e-01 -1.998624903103293771e-02 1.052356540456161615e-01 -3.767325364070242544e-02 6.713863091582397691e-02 -7.806328492142221298e-02 -3.793131928741141912e-02 -8.529654699885677593e-02 5.202499539513022464e-02 4.783382968723540185e-02 4.523935630774050809e-02 -5.918495172328808174e-02 4.616642918961813558e-02 -6.544859018017210039e-02 -1.808421217647847301e-02 -3.073869079975506680e-02 -3.472610121117067350e-02 -1.061628462620984592e-01 3.159519044782552188e-02 4.975598464360786455e-02 2.726128668068053540e-02 3.559506147914989760e-02 -7.921422858785813481e-02 -8.413276825467300157e-02 3.402010446211883865e-03 9.007985432508938684e-02 -7.585117402866670133e-02 -8.918611510017632193e-03 -1.705623983282329725e-02 -6.505953793160823562e-04 -8.123741508335713402e-02 -3.781424612764547333e-02 -5.714870301515515005e-02 8.268646637507495734e-02 7.207973898633640575e-02 -1.760660201564553939e-02 2.568371058936932960e-02 -8.508825353610721676e-02 2.307190612214071734e-03 -4.873269941114290182e-02 8.631622885660825140e-02 4.118361141753357213e-02 3.203376302938104603e-02 -9.005968798339697434e-02 -7.058908920267434328e-03 1.167774671008515452e-01 1.075918017774395996e-01 3.482055366250644268e-02 -8.358603095232633451e-02 3.339044369277718860e-02 1.575890701054261100e-02 -7.520198961299517926e-03 -1.727100732761516211e-02 2.382474135792722603e-02 8.399277324383169763e-02 6.026904968926496964e-02 1.904652967133593777e-02 1.019290035686467311e-01 -1.044624039740282700e-01 1.179231620956341653e-01 -1.072813097596825027e-01 -7.212106892674527425e-02 -1.853936120530537413e-02 -9.419786971555975386e-02 2.968089863944842199e-02 -1.084817846282718351e-01 -5.169026855833389056e-02 -1.053511965312789317e-01 4.884463946521946931e-02 4.042948022147568876e-02 -2.914065761985545899e-02 -7.483337759284290625e-02 5.928115896718683109e-02 -3.830897021628786037e-02 7.087228017735427987e-02 -2.903774596891131599e-03 6.160666644235063272e-03 -1.131621961220238698e-01 3.461568477096763075e-02 -3.584243941627981989e-02 -6.499079344990423002e-02 -1.586798970919185703e-02 -2.820781025497978711e-02 -7.250630379273537152e-03 1.150760050031535142e-01 -3.254926311162469055e-02 6.585843200064947500e-02 1.266422317197418712e-02 9.339146138579587642e-02 -3.481131572410271768e-02 -6.107551675523820861e-02 9.864461751767239495e-02 -1.095517766981363023e-01 1.081808227346405527e-01 1.353765976102205837e-02 -2.967282799509900204e-02 1.188125573613866559e-01 -1.059929649245684030e-01 4.009526344226910233e-03 -1.125367018906685140e-01 1.708217740469603063e-02 -7.668755784117226026e-02 3.143020808148730416e-02 1.154216821801395398e-01 8.997661229097142499e-02 -1.155930013899104936e-02 5.003060881241211399e-02 6.659250000076541443e-02 -1.237659796184731320e-03 6.848037642615628640e-03 -8.381174439067376469e-02 -3.134401785314248901e-02 -8.586689926253120164e-02 5.445450080269503834e-02 -5.516881343456833675e-03 -1.226907919037627248e-02 9.263951307968429361e-02 6.628505354774744118e-03 -2.181820033995361674e-02 -5.546591466896499956e-02 -1.027171115592552114e-01 -1.964732790592421674e-02 -1.138191642224199857e-01 -5.012305426741726910e-02 8.422823636151516302e-04 1.118239356047333599e-01 -9.374810059353969049e-02 4.152985301198927615e-02 -1.623093619200488558e-05 6.650357502618792216e-02 -8.553432051018977633e-02 -1.000313672553898581e-01 -2.418753471541108813e-02 7.127094047517601449e-02 -7.399782266162638344e-02 6.426652611534575121e-02 -5.032848070515162642e-02 -6.794604297316911290e-02 -1.159882586215184586e-01 -2.432182561862911152e-02 -2.854044208957143280e-02 3.824278468688752097e-02 -1.029795838871070679e-01 -8.337504310985474620e-02 -1.160217881037757942e-01 -9.268887445262236069e-02 3.642942624242170857e-02 -2.336235547801938928e-02 -4.295368459984419407e-02 1.389887861850538919e-02 1.184305111439639679e-01 8.027676336432712501e-02 4.790956377590013804e-02 1.003820613916938942e-01 -1.104651103960596348e-01 -1.031199740122739350e-01 -6.238490402866891937e-03 -3.619982089030143735e-02 1.049404949108277418e-01 -2.504409325159551170e-03 9.515786422404137745e-03 9.486248777549299849e-02 -1.280758900231428188e-02 9.048825342488445167e-02 -5.914038015080919086e-02 -5.428567100205394791e-02 -4.119326637897836874e-02 1.141542491542882343e-02 -6.716911823352450517e-02 4.114300105950560726e-02 -8.572961212727989166e-02 -9.741593412008653363e-02 8.884601908929062875e-02 -6.315151114632035212e-02 -2.735903735457707875e-02 1.717010225407974988e-02 6.192472788352804125e-03 -1.017542689338943457e-01 8.979022454352678095e-02 1.082725484204860866e-01 7.500175300192121752e-02 -5.188755961275016981e-02 6.683231068310285794e-03 -3.853998623577371829e-02 1.312015458904000620e-02 1.138568325391206004e-01 -4.519129974744445777e-02 4.051118542148873791e-02 -4.176787024584338592e-02 6.587454384361909887e-02 -4.180560801283084160e-02 9.355856194737000031e-02 6.040985302062404361e-02 6.303170290682655330e-02 -7.325033145617818042e-03 -6.941651940751070171e-02 -1.100459809016402640e-01 -4.276108800714131797e-02 -1.110929605214413390e-01 4.652529872973593106e-02 4.088400766468042180e-02 -1.668677214120599384e-02 6.426935463796151771e-02 8.642038737495277845e-03 -1.104336176074913745e-01 -8.764965168943703033e-02 -7.358006423641959282e-02 -3.944068772048404947e-02 -1.074448928550055804e-01 2.522802732008788684e-02 2.894646605740514023e-03 2.819064288411746166e-02 -1.623465725655742764e-02 8.344811237698504525e-02 -1.102582654580368249e-02 -1.163031552499389776e-01 8.953635562730385966e-02 3.748837145858371911e-02 7.752072975563303880e-02 1.084261663281244070e-01 -1.077810279559470730e-01 -6.358275261815650448e-02 -1.047975735704784472e-01 -1.880210735221178597e-02 8.731899492034847499e-02 -1.004102441483836483e-01 -6.453131307389170512e-03 -8.986965364590632221e-02 6.549254452010827565e-02 8.194131763100243049e-02 -1.096101748353219274e-01 -3.254221639105256414e-03 -6.254134940693857614e-02 1.085937076063822060e-01 1.065342306681110740e-01 2.734416057232821884e-02 1.136369753580470932e-01 -3.723327750809976577e-02 9.548417224024360883e-02 -1.569720638195772067e-02 -6.340448708459670013e-02 1.057987111683358350e-01 4.421233223597459405e-02 -1.044212195186089570e-01 8.890196563753585690e-02 4.833127071200310487e-02 2.518244951382761498e-02 5.576997580303932889e-02 -5.917462980005261386e-02 2.411734926589065298e-02 7.550860350279728350e-02 -1.070127215222400202e-01 -8.867743887857615359e-02 8.218699438953927516e-02 2.840300863869252290e-02 7.509074515453906251e-03 -6.041022504069634008e-02 -4.918114194012099261e-02 8.944467958067087165e-02 -1.880017563606976860e-02 -1.045367386608943572e-01 9.527641668181979773e-02 -7.118860012222774647e-02 7.829460851817393596e-02 9.162494953987374013e-02 -3.179821243598848768e-03 2.363152634511272998e-02 6.544189556500074056e-03 2.995711060451977659e-02 8.521001312336434763e-02 -5.228653238283345606e-02 9.210132196334422372e-02 1.624567922859582181e-02 -9.237527016794318258e-02 -6.551972034848208004e-02 2.303577254712330102e-02 -6.253290314287671126e-02 -8.846024147100946255e-02 -8.115654861027957190e-02 8.276940437657737126e-02 2.452407693425059931e-02 1.112561009252020505e-01 -3.703698880895388290e-02 2.295002355238792702e-02 2.375646935362074608e-02 2.776902892894769770e-02 -1.057974702754266166e-01 6.007612429792461017e-02 1.075702795650300414e-01 8.322973723101312338e-03 -7.378655497078358272e-02 6.070221959518612431e-02 -1.182434473613126896e-01 -4.121853512381259965e-02 1.002255234346543511e-01 2.120815989453042616e-02 8.524566813699246959e-02 2.512129256380504772e-02 7.741875660572902773e-02 9.107604562303606155e-02 -4.296327011413123009e-02 -9.049085482747715181e-02 5.311280260477699300e-02 -1.431669916050282154e-02 -8.958342980591793570e-02 2.155767554637341710e-02 -1.113436045032336064e-01 -7.195629206136314182e-02 6.919228552031253532e-02 -1.170967775963141083e-01 -4.719703878994342683e-02 -1.148697693388630175e-01 1.193963982547990577e-01 1.968719432243082323e-02 -4.958969316334640998e-02 1.029478708543477561e-01 1.708661651569076678e-03 -1.087386538742234066e-02 2.108916151108475301e-02 -5.660696538946329015e-02 -4.673080815661601051e-02 -3.080290158619621022e-02 -6.133248015081338433e-02 2.029134386799114065e-02 4.700307214375834541e-02 -1.027326671606397235e-01 1.130599967101112990e-01 6.073695740866916215e-02 7.347915910881799850e-02 6.039369697950972005e-02 -1.007853654549078493e-01 -4.392892074917498224e-03 -1.303849046360254504e-02 4.139343612598317401e-02 -1.230305788216273788e-02 4.903521561213830537e-02 4.359488102462949488e-02 4.731564690066150658e-02 2.846417821476873722e-02 -8.376462401288500836e-02 6.259258951338145249e-02 6.745099732654968872e-02 9.698471661931318266e-02 -6.389551377501456741e-02 -7.759706566263804839e-02 -2.613621045437701518e-02 -4.306448304116154702e-02 7.571446296135028731e-02 2.724621592042358875e-02 6.240042056393974024e-02 -1.736037607272859773e-02 -9.613426490025858695e-02 -9.239159710794089819e-02 -3.038228838307312218e-02 -7.347653579771827592e-02 7.697915966950516498e-02 2.391264202169202102e-02 4.532286216447958815e-02 -2.133609286968915497e-03 -9.883831650187654971e-02 -6.358136719531912173e-02 -9.215500586010713646e-03 -7.233803926705770215e-02 -1.138857034130831281e-01 5.505544758147662421e-02 5.398001933258858576e-02 -4.070598087319134140e-02 8.243859025527730533e-02 -1.717380577174237866e-02 8.752467474324823749e-02 3.769570190949347865e-02 1.944855778034162985e-02 -7.182540287157815340e-02 7.091186514814773467e-03 9.466378042261736070e-02 -4.680144579954814699e-02 8.902694619865281211e-02 9.809886548601315370e-02 -4.083730495634824154e-02 4.393784792077540247e-02 9.581302789583248658e-02 -1.018327483780071818e-01 9.086108716914489958e-02 -7.419855281556464455e-02 8.394453840430335378e-02 4.010850928780892999e-02 -3.735859309198706624e-02 -8.366986320172822844e-02 3.248903075722880951e-02 8.346913049153797948e-02 7.724384994336253030e-02 3.077750331135786777e-02 1.095123623412556924e-01 2.158155049818474835e-02 -7.252013168449936154e-02 -1.696062657204185087e-02 -3.918096031171984517e-02 1.180668028577474271e-01 -2.874324093185645634e-02 1.182482096795562931e-01 4.513020176019399976e-03 -7.865287164548989685e-02 -1.021022228996448233e-01 -3.112663349426696147e-02 -9.037947364446483056e-02 3.228449191004198471e-02 -2.065923702494186498e-02 1.178197518061080140e-01 1.031893496767962715e-01 -8.418335224565998143e-02 -2.522825699116788833e-02 -9.220869369027329121e-03 1.462770122926684846e-02 6.728724558942444922e-02 -3.073461822378303898e-03 -1.920154751754220290e-02 -5.712007086735944317e-02 9.859347338082202761e-02 -1.146548372321269937e-01 7.706925557255150938e-02 -7.476758408005956813e-02 4.458165580141132400e-02 -3.474974655848550587e-02 1.138110306948219019e-01 -9.053468893213920121e-02 -7.498322577186250504e-02 9.346619411147491507e-02 2.001751550597469231e-02 -4.578086768189289224e-02 -1.198165474852348755e-01 -6.537654280265926821e-02 -8.510312779890343016e-02 -7.117588215117826023e-02 9.511741363296111196e-02 8.954265078471371209e-02 4.806946503202794152e-02 -7.080557723469826925e-03 7.851264055974918610e-02 -1.001664699549029147e-03 -3.276271601162274172e-02 -5.385525533739389525e-02 1.019377952492092065e-01 -2.712258377848987545e-02 -1.708590376483132278e-03 -5.893485544453869185e-02 9.239196452113518365e-02 -2.801677036673118348e-02 -4.858206832466993585e-02 5.222279092674103618e-02 -7.419121363864621121e-02 -9.163376895671077049e-02 8.087946773124291000e-02 5.859262112868846017e-02 2.172493143530812576e-02 -6.170602200843103291e-02 2.957931484502016040e-02 3.320527697788150379e-02 -4.138333341304196999e-02 -1.038025576637898462e-01 9.132926341543839976e-02 -9.610384542177982659e-03 6.332945233594317047e-02 -5.906673097374247339e-02 2.193292374420405255e-02 -1.708916151628854518e-02 -2.829584578820650009e-02 -8.958878787673853206e-02 -6.137600082984579625e-02 -1.009580200900034447e-01 -4.731400686778114428e-02 5.800915205557327647e-02 2.760377399305172230e-02 4.137866374414220227e-02 -1.179880609139924152e-01 4.281047334031676255e-02 7.633657302928975597e-04 -6.458197188379699583e-02 -7.802483784433866809e-02 -7.560408826780083691e-02 8.262240121802363890e-02 1.158215494332204831e-01 9.929750996199157576e-02 -3.663133911052492142e-02 6.725389912592730224e-02 1.114910176834335576e-02 7.594617541342504885e-02 -3.905531714662596743e-03 2.158831159185689574e-02 6.894322740582276010e-02 -9.594368565524823145e-02 8.881708041729774461e-03 -3.216399679928297339e-02 2.503364248052933339e-02 1.101126037528801227e-01 -2.572249320072900192e-02 -2.568648049401205113e-02 6.975287846150371451e-02 3.481881578050233239e-02 -2.546783811470965109e-02 4.534921157526033975e-02 -2.303961382694903748e-02 -8.733284298045068672e-02 -1.184561551868773543e-02 -3.973934575265457292e-02 -6.768745678531970511e-02 1.021859523927455549e-01 4.551345577909385320e-02 2.371701374962126296e-02 5.919779330952121277e-02 1.007305482514594952e-02 4.812793742868062830e-02 1.033343566199628194e-01 8.702800668125326711e-02 -7.981395419843488603e-02 -5.684663425827019001e-02 -1.028135329339669030e-01 1.148814732380032677e-01 -6.326781632150985102e-02 3.854360542286369706e-02 -9.848863225740911442e-02 -6.941497389911549520e-02 6.778520444170876846e-04 -9.481111960081727019e-02 -2.667038335326614440e-02 9.117052833523403566e-03 -3.859099562757600799e-02 1.341605067037812682e-02 8.824397266191358336e-03 -2.625348030314260395e-02 4.710481994426471419e-02 4.283578895950176935e-02 4.495275584985355954e-02 1.475790211184982437e-02 -3.406082063689540307e-02 2.714696048808293294e-02 1.045767039859679393e-01 2.325324598703354395e-02 1.151016418462620372e-01 -1.415841110187092411e-02 5.750687100181120504e-02 -1.109750691240959652e-01 6.353439336011665328e-02 4.387579278434972085e-03 -1.187240320893352130e-01 -5.347197485217636270e-02 8.359735804754769850e-03 6.431109078751479080e-02 -1.072577770913939743e-01 1.177282652412472985e-02 7.223869339160543523e-02 3.589993317083492452e-02 1.035472835982985673e-01 -1.020644531964573221e-01 -5.356644897585921550e-02 1.006170010214813837e-01 6.360123559155431150e-02 2.393768267330367849e-02 7.991235452089689995e-02 9.505043797800047378e-02 1.134528846846779571e-01 1.196449217015534139e-01 -8.648415991581515083e-02 -1.030699092615121881e-01 -1.023680029535704028e-01 -1.164614901840127364e-01 1.132368175147022427e-01 -9.725594005026499955e-02 8.201683828460390457e-02 4.444151925784789459e-02 -2.986279804099656321e-03 -3.679322847394123075e-02 -3.512453110391879074e-02 -5.907866823667506928e-02 9.864431368767034858e-02 5.415421091876854165e-02 -1.137778097317752313e-01 -9.234899220692496802e-03 -5.248769459116527092e-02 -1.130481153173043540e-01 9.232365463423067298e-02 6.504128590912375274e-02 -4.086358098137737871e-02 7.117406100881065734e-02 -4.208680267128081520e-02 -4.610821348376478723e-02 1.027461788401742848e-01 1.144598788670040390e-01 5.653273132054270622e-03 1.084644402163019716e-01 9.311915854235150447e-02 4.327814782658090387e-03 -3.054028749660345210e-02 5.048509879670623479e-02 -1.064557808590704813e-02 2.525109482957108020e-02 1.176974872535871963e-01 6.573989998955243053e-02 -3.977366280148168787e-02 -9.864042700262928842e-02 -7.562265833318199126e-02 6.444450214040248204e-03 -1.989541965435408233e-02 7.215831795101751434e-02 1.039685611648036023e-01 -7.731246049167633805e-02 8.641602501029188588e-02 1.097747823184005156e-01 1.102729456439477118e-01 -1.109129789470966743e-01 -1.061799586540383006e-01 -1.186086256997546384e-01 -4.495652252268565741e-02 -1.066323809490948848e-01 -4.947300348706940021e-02 -3.455604335251523385e-02 1.088824844337412390e-01 -5.531778603173290176e-03 -5.322277381888071424e-02 7.212468122291398887e-04 3.440590191579254165e-02 -9.330103858381559589e-02 6.193479795194606341e-02 8.446698510895092604e-02 8.261996629666279457e-02 9.372163977890146658e-02 -2.835782477861732709e-02 -1.348675239203554754e-02 -9.562044577292011516e-02 -6.580633861650356242e-02 1.131169126255706370e-01 -5.169024744750350120e-02 9.777507413783934065e-02 9.373254873079464589e-02 1.014010793424944268e-01 -8.252410453420924719e-02 9.113331444033140327e-02 3.167878811115290572e-02 -6.944923717948742192e-02 -3.717218045278050664e-02 -8.161949073857202586e-02 -1.335644221292946188e-02 -9.989401107708947847e-02 -8.032356228474243909e-02 -7.267287684799936254e-02 4.584656197360900687e-02 1.771268859968469500e-02 8.959755216881570838e-02 -6.128782422739005586e-02 3.110590961253914544e-02 -1.117364963262970495e-01 3.887630658496565861e-03 8.717435561132388933e-02 1.161903705323800440e-01 -1.176304859138595504e-01 -5.931804430156437102e-02 -6.627607912139391044e-02 -1.085909773853374755e-01 -1.175586104971738377e-01 -2.353125061384381267e-03 -1.090842850391294250e-01 -5.320124859674352225e-02 3.359389658613895491e-02 -4.927391002538297760e-02 -5.528287172182765052e-02 2.173116533845609322e-02 -2.867182146968638712e-02 4.860552815073621025e-02 -9.302517000333437869e-04 3.197022379355460298e-02 -3.518535671960894284e-02 -5.110945292267791984e-02 -8.803029269973552950e-02 1.048992923517514109e-01 7.316060304379071177e-02 1.051268503575245872e-01 -7.550867408452743845e-02 1.039573830775741281e-01 1.045807698461119484e-01 -5.194931673512291626e-02 -5.408778037827288721e-02 1.234357768160940227e-02 -7.553058255154743161e-02 -1.389573344957620304e-02 -7.552376497495574825e-02 1.073702203089502150e-01 -1.482082202139453631e-03 1.113402641817594629e-01 3.478600140293083842e-02 -3.764214472227453423e-03 1.122468590306874014e-01 -8.563445238989692010e-02 3.175916991995916816e-02 3.885320828083141387e-02 -1.587844148334577321e-02 -1.057542659186501977e-01 -1.746575720152007682e-03 -8.367853555661414200e-03 7.361923458596725256e-02 -5.840136241128569827e-02 -2.605671288377553463e-02 -6.235867026686946202e-02 4.474641964136738537e-02 1.175720288009076964e-01 -7.741691115161714043e-02 7.714721765431134526e-02 -6.456274577240800339e-02 -1.060858047905359064e-01 -8.668403566903831736e-02 1.044367477301732794e-01 9.325010480549472680e-02 -5.057748108410159427e-02 1.074633758643856463e-01 8.398332845554054571e-02 -1.568284942279835059e-02 -7.668106832046522880e-03 3.116472518002144643e-02 -8.207235960868494717e-02 -1.164522991818977005e-01 -5.627711580662739244e-02 -1.162935283337373782e-01 4.187972259894179317e-02 1.235252059506636302e-02 -4.280444505533335942e-02 6.724856090874206660e-02 -8.501149650845350736e-02 -6.122864669714793429e-02 -4.984469711057190611e-02 -7.297633284024188094e-02 -9.889471589505519078e-02 8.879428326518579162e-02 -9.883472506283758063e-02 4.409048059719308799e-02 -9.110378955414638602e-02 -1.174322392453981956e-01 1.374437521797930439e-02 9.770617325288896704e-02 8.650960016085243454e-02 -3.877166781161998921e-02 -1.134818809617930691e-01 7.220624523120794391e-02 7.343638374951982906e-02 8.843714791266529818e-02 4.071518397012793833e-02 7.386692695561833388e-02 9.539958775267684543e-02 -1.108081188239705417e-02 1.387807289157849677e-02 1.471470918776335290e-03 4.607613708581251299e-02 4.389764823116995562e-02 4.875272607195946240e-03 7.883235554051309935e-02 1.387052829567941847e-03 7.796605497245565064e-02 -5.235717884562168800e-02 -7.716124008540281576e-02 1.127689368827313743e-01 5.806548610945841404e-02 -5.764999360694050834e-02 1.949648214988120021e-02
1.092629408491648246e-01 -1.006190621251010775e-01 -9.995179030518214214e-02 2.859235954077773978e-02 -6.612156507937014260e-02 6.364414961604195065e-02 1.635661030778523539e-02 3.988514165363885033e-02 -9.412466380929782050e-02 -9.977206765522636522e-02 3.002905639331751586e-02 -2.166449732783508331e-02 -9.905939427072436854e-02 -3.094465319611461318e-02 4.131465831764366547e-02 -7.449902395401943045e-02 9.497498604688897617e-02 1.079631333312209562e-01 1.107774101842881054e-01 5.521981385766244754e-02 -2.249077735480438378e-02 5.849980712429270202e-02 -5.088314897405962767e-02 -4.453986662622090587e-02 2.541512669228590537e-02 2.276331201790021685e-02 9.087863431579465412e-02 -5.889581864146153228e-02 6.388520764867722246e-02 1.058431840365363086e-01 -1.197520961621436897e-01 -5.738611679494839968e-03 3.768967896593503064e-02 8.239757134068539934e-02 -7.590254114975958366e-02 8.547821711696923508e-02 -3.255228483431329978e-02 9.414574302628136993e-02 -1.133491823706323925e-01 -9.950636661043904541e-02 1.155385117809870077e-01 2.628046218563917513e-02 -1.976823676459601997e-02 -7.938859567351426449e-02 3.597627674152559241e-02 -1.111259835937541129e-01 -4.521266076943088186e-02 -4.236499272262191085e-02 2.578605444349285625e-02 3.619950160216731105e-02 8.305310381675262699e-02 1.026194262234104149e-01 3.850985462666392523e-02 1.876174041804914983e-02 -2.430826952903798743e-02 1.119869982341140657e-01 -8.302099876023422143e-02 9.482083407567562516e-02 -4.535686370763804265e-02 1.163738151986495883e-02 4.369590202387557687e-02 -6.324728368172270743e-02 -7.974319558793480089e-02 2.035683223107834228e-03 7.004733014032119010e-02 4.617947092009813681e-02 -9.144639907847643134e-02 9.617813161721591730e-02 -4.862983908202792027e-03 1.072024030175154075e-01 1.282408949958377398e-02 -9.964756280151530754e-02 -7.140887143811144866e-02 8.501711349993185118e-02 4.942256802353259260e-02 9.478548483670182212e-02 -4.100495956936806019e-02 6.720335193030280152e-03 3.609555179618875731e-02 2.262980486079946285e-02 -6.444889547178053735e-02 -1.756287613242346612e-02 -6.045324862555804396e-02 8.294759093547490747e-02 1.168025867923398187e-01 -1.040230072482289658e-01 5.134272774407072637e-02 -4.077226747222216507e-02 3.010449079474389333e-02 -5.804888417235096187e-02 3.624182623403882086e-02 -3.092467572894490313e-02 -4.924298891112871557e-02 9.882316168747171115e-02 1.061997298142897950e-01 2.725200637443250806e-02 -6.852773260063377281e-02 1.054605290174782384e-01 6.010885121359776928e-02 6.026155375747344056e-02 -6.918687963636330207e-02 7.923756627895181537e-02 -6.237716300130957681e-02 3.158897886003844691e-02 5.057749677590070436e-02 5.817202312970440325e-02 -2.633647089610056946e-02 6.235809521186336246e-02 9.670461650921038932e-02 2.098080461701845589e-02 -9.830166823324833214e-02 -8.904576380585374484e-02 -9.473699360093114363e-02 -7.854540880250879265e-02 -8.965658633047558779e-02 6.679221361623061126e-02 -1.105412370757333645e-01 -6.202597983819262834e-02 9.097593632603170888e-02 1.136445266007104493e-01 2.530128185449154188e-02 1.142971834944932208e-01 -1.095716299884055694e-01 1.076574644102418210e-01 -4.528894021051989294e-02 7.175348168678230554e-02 7.455098482725636133e-02 8.639966197928275471e-02 -9.947805383399746515e-03 1.033546541197075952e-01 -5.810568373751042598e-02 1.042669182071003231e-01 2.858871198039852901e-02 1.165067795867593403e-01 -1.121654721689778200e-01 5.403999811984999679e-02 1.573301649129146829e-02 -1.818228624403298022e-03 -5.778764984382311898e-02 -4.156063563206996436e-02 -6.012907039166694168e-02 -6.737570152198540940e-02 7.191860100596131344e-02 5.748014155820130311e-04 -1.000344267127205450e-01 6.647620608657128782e-02 8.075778260095423100e-03 5.745306896313168155e-02 3.694486354349116319e-03 -2.401297824356837807e-02 1.166992277847108128e-01 -1.132217711609009581e-01 1.038633379115659894e-01 1.034051922623923092e-01 -2.617950923965006726e-02 -6.852843092800324498e-02 2.861119150397736788e-02 -7.728663948715933096e-02 7.276996663872201121e-02 -5.905587458934354744e-02 -5.020652279215730152e-02 9.981978960238968579e-02 9.670004003385815339e-02 8.491414015325216003e-03 8.708135533886773860e-02 -3.539218348678517534e-02 1.194922267739765565e-01 -1.591446254280551309e-02 -4.924511716836110775e-02 -1.100221838521998480e-01 1.175296689088180246e-01 -8.426968581162624927e-03 5.630040337208896961e-02 3.379382977100992003e-02 5.354241591984232329e-02 -1.077333830817320953e-01 1.008108972983312868e-01 1.024418922965379675e-01 1.247880651700730703e-02 1.113398132842922383e-01 -5.257067112231181283e-02 2.451519051277084582e-02 -2.484895438737025342e-02 3.072557562125477482e-02 -4.784825075430045038e-02 7.664601231744483378e-02 -1.032513651589899439e-01 -1.099493831280008854e-01 -1.081448676880045617e-01 -8.389079319176076521e-02 -2.511588628927431677e-02 1.092935974217219275e-01 -9.340909447297052193e-02 3.541271659594252830e-02 6.629162029523821831e-03 -3.522182256406583556e-02 -7.243218496315395605e-02 -6.705742035663941891e-02 -1.094828376654847363e-01 5.115935355835549148e-02 3.692164780710116556e-02 -1.349524974606662597e-02 5.254547714156246330e-02 -9.360576661312308699e-02 1.052926016085434513e-01 8.343041021745301045e-02 3.816855831981200153e-02 -2.908051952118435868e-02 -2.002398503646060646e-02 -4.283058682207810386e-03 1.044681048016321556e-01 8.726230918034463824e-02 -5.298276188025752287e-03 1.308443958676008823e-02 9.009692694703722027e-02 1.078234641053496257e-01 3.340434140837902910e-02 5.964487682154087644e-02 -3.561002247349376315e-02 1.003267965806831918e-01 8.082049196491949972e-02 1.249341149394306294e-02 8.823053030764169136e-02 8.396925154567974614e-02 7.401872558547403780e-02 -8.863372214462686416e-02 8.640617957234919544e-03 9.618794752965983963e-02 6.499963933291927343e-02 -1.902883223395397672e-02 1.146912944063917805e-01 -5.981444239847945321e-02 -3.993354507650455354e-02 1.090081217831013471e-01 7.409168356446951820e-02 9.608160108255883736e-02 -1.172184985416251518e-01 -2.885653607184125724e-02 -6.347473041363135837e-02 -4.897558754702127648e-02 5.711891913692179745e-02 5.378036276737777066e-02 -9.168141552225256286e-03 -3.233412931029749915e-02 2.032598712108618644e-02 8.089861112226315321e-03 1.213909416188688195e-02 2.771449706751785702e-02 -2.504441465578827186e-02 6.521243577971000405e-02 -5.971123599614720778e-02 3.738258429680785255e-02 1.104953155728043424e-01 -1.191468574885377468e-01 5.360665065463346424e-02 -9.384119185688549747e-02 1.050899799931806489e-02 3.045984400328030639e-02 -6.169268981500772298e-02 9.932253005918595390e-02 2.935500688598827179e-02 -6.439327406523362440e-02 6.483172502395379011e-02 -9.467830080063965870e-02 1.325407644752268910e-02 -9.721054324740203978e-02 1.943617744200468178e-02 -5.928477294715478463e-02 3.587203390913912271e-02 5.179846868596318932e-02 5.804547496478684732e-03 3.780513784874642291e-02 7.519052287801336609e-02 7.380294519432770151e-02 2.872367809292705743e-02 -1.173540909101403185e-02 -2.209200262863181274e-02 8.993942877704722005e-02 4.870361570744910495e-02 -7.561559463038360074e-02 1.577571519102319297e-02 9.811392775201366323e-02 -8.383440186041490882e-02 8.292424212736954070e-02 7.684859191568396697e-02 -1.581356885197171547e-04 -1.109798756434312306e-01 -8.459939870473548451e-02 1.014332867252810966e-01 -1.094028489523530129e-01 -3.060029606271372216e-02 2.856951233411300639e-02 -7.273247066063598387e-02 1.154591417376713558e-01 -8.256594406957862287e-02 9.523006838705855293e-03 2.832271784319470576e-02 -6.456241231927106750e-02 -8.085842589758071575e-03 -2.157953008096985537e-03 6.404697031837006116e-02 3.222738066572961024e-02 -7.787987264318493863e-03 4.006621036655402812e-02 -1.118941763467239114e-02 6.170781921938317538e-03 3.805632997400684725e-02 -7.651310833107319298e-02 6.913189228135371844e-02 2.468768100921536757e-02 1.152798924329586638e-01 -6.662803355251781245e-02 -8.096046200022355421e-03 9.495403262386717391e-02 2.434401832770913265e-02 5.423012300371560235e-02 -2.071916059167352997e-02 4.423430923951676697e-02 1.070532071634151539e-01 -7.195534422256269491e-02 7.376766333055689850e-02 1.126891229039751474e-01 -1.165035043768003764e-01 -6.834969921733738407e-02 -9.182953912484885517e-02 6.418164425794878336e-02 -1.005080193737440120e-01 1.196192540618178091e-01 -2.649311618896675602e-02 9.724866382392968744e-02 -7.474137516012771543e-02 -1.419067204265019033e-02 8.275483656148882594e-02 2.286474736158147780e-02 -9.082056794074297446e-03 3.035939221708222613e-03 1.773252645416337203e-02 -1.432339017945763460e-02 -7.354585014628547968e-02 -9.264821724979527273e-02 -8.370529743116447707e-02 -1.074021686752478638e-01 1.408233865527155904e-02 8.345304336864253769e-02 -3.381135865821341402e-02 -1.019253905674037119e-01 -1.782614112357210068e-02 2.448188123328032262e-02 -1.790316826184698562e-02 7.457309606576881245e-02 1.060526990848092432e-01 8.877858558440504533e-02 4.895987958717323840e-02 -7.128258052277930412e-03 4.384753029678031822e-02 -1.167796054664329009e-01 1.157947484404905358e-01 -7.870144036106496710e-02 9.750249503080363200e-02 7.370637639986546419e-02 7.203352425287704031e-02 -5.545534613158442649e-02 -6.740308661825805681e-02 -1.708783370061869866e-02 8.384906417535717416e-02 -1.190888580678714503e-02 1.045008273616948313e-01 -3.535696145958287795e-02 2.865411976722231913e-02 1.153677687253872319e-01 3.443100533779316907e-02 -1.090804281502550932e-01 -8.746298171589159121e-03 -3.965967750872069486e-02 7.723571645201904312e-03 -5.166090993284846999e-02 -9.065730474479932743e-02 4.038935730019241332e-02 4.352634117391351865e-02 8.811343199978122209e-02 -8.822844154494301205e-02 7.166887398672744380e-02 7.842449721723096512e-02 3.517198458027645525e-02 -7.081868501264787508e-02 -5.725902854259889985e-02 -1.956076379059783210e-02 1.003177746785552382e-02 -5.414890657867918455e-03 -7.809625909111342357e-03 8.156177044744017390e-02 8.882456767381624596e-02 7.602095145042400692e-02 9.067234047232791694e-02 1.704210286489754589e-02 1.113686720013796205e-01 2.557064358011224003e-02 2.494745785912352853e-02 -4.336854310209148355e-02 4.348900418808454571e-02 -1.075282347587133563e-01 -8.770885895713385894e-02 -8.874187978253637865e-02 3.724830893393657472e-02 -7.792017797487879593e-02 -3.812476241962867163e-02 -1.093652026000548894e-01 -6.390375357203745277e-02 1.114138379638305865e-01 2.193456603928251036e-03 -8.374211556685633162e-02 5.522047616271424930e-03 1.064422521386593767e-01 8.776464336152017820e-02 -2.590419145670715129e-02 -5.187179616638336321e-02 6.281516704625803027e-02 -6.228376204725892540e-02 -5.898423488223542704e-02 -9.981927499681692018e-02 8.739458274336645016e-02 -1.250426025113283990e-02 1.482870254639367946e-02 5.681062984644477676e-02 7.115732811148695047e-02 -1.259804664232468119e-02 -7.580938651780838589e-02 7.889588436679242922e-02 -1.125604896412186057e-01 1.072147847059085890e-01 1.847468315460037980e-02 9.009329722816486474e-02 2.605570487365407861e-02 -5.960169980344230678e-02 -4.892881836098295079e-02 7.901414167596765292e-03 1.108987710833024276e-01 -7.572105492235736701e-02 2.375610754346169085e-03 -3.749085517515733657e-02 6.473408278972456187e-02 7.268795674378175642e-02 -1.810562152746801601e-02 -7.101060000135939188e-02 -1.038985295210747145e-01 -7.232441653906523937e-02 -5.462379596894827161e-02 2.370934029821050726e-02 8.954003934586454716e-02 -8.922457467708327927e-02 1.099652980115750356e-01 4.396100252499515748e-02 5.807141656281125663e-02 1.158913886210377331e-01 -2.013581457164591304e-02 7.580031815016430308e-03 4.301110804697247381e-02 3.090034221597925956e-03 -4.821303728139945954e-02 -9.470767854479057724e-02 -5.161628502668526297e-02 6.452468358906188195e-02 3.378784906844306546e-02 7.231936876876621234e-02 4.108927672902384920e-03 -6.429599475687958199e-02 3.071086247565663063e-02 -4.703868239464724377e-02 -1.129131012139149709e-01 9.679948243605013269e-02 -1.911130348733157402e-02 -1.772861269806906559e-02 5.790041647964616622e-02 1.076300170333904793e-01 -1.025962732690887946e-01 -7.855173884825401853e-02 -4.263420260814944351e-02 -6.037818088075223855e-02 -1.081204473313682191e-03 7.787030659144403288e-02 8.495337958612220186e-02 2.299918609408838077e-02 -6.235830388054400264e-02 -7.524175481455552816e-02 5.841372297648936285e-02 -6.306862616554856360e-02 9.477813822371922159e-03 5.982738891052602481e-02 -6.522021489230736546e-02 -7.811971498254142998e-02 -1.104634352217956916e-01 -8.458347895201258348e-02 8.434533766727778104e-02 -9.488738118120994269e-02 -6.632518907344372994e-02 -1.121382720609654798e-01 4.232559250830686404e-02 -6.439124604846729882e-02 -2.073798772757656783e-02 -8.656771888230557765e-02 -2.946785097323843805e-02 -1.813500810249232820e-02 -6.488411553596862280e-03 -1.851796487073284481e-02 -9.533842467020056666e-02 6.541926399157055316e-02 -8.707055916242126270e-02 -1.816983016180510890e-02 -5.473053301133291859e-02 -4.775809366082248153e-02 4.138098542074380992e-02 4.268813715219477167e-03 -7.437910788481426339e-02 -7.407734439989488440e-03 -3.851019148888715216e-02 4.907932757955024705e-02 -6.573715141618824420e-02 8.279715296600284602e-02 6.295119573991286854e-03 1.486975015413949386e-04 -5.911540634695675728e-02 -7.532263926320065250e-02 -6.763424942976770105e-03 1.156378602780617493e-01 -8.810250296116149682e-02 -5.196901621726628118e-02 7.215388182802945360e-02 3.954645564258119084e-02 -5.309798191357510688e-02 -4.448457437397315695e-02 -1.921241894353702129e-02 2.466882293815106375e-02 5.264130413305811995e-02 8.575208002829537435e-02 4.346675291001833585e-02 -6.312430452679239357e-02 1.021729284807023908e-01 6.748689616218386811e-02 -4.622844469731736405e-02 -4.680824600590482998e-02 9.148039642293712137e-02 -8.974116470467236040e-02 3.203060021657413992e-02 -5.334894420637818768e-02 7.852807803343347937e-02 -3.251437258658680662e-02 5.600786267252017003e-02 -7.381970630070268380e-02 -4.452984590222544559e-03 7.286271034344651842e-02 -2.472282919863025286e-02 -8.122223043453842550e-02 3.575573343567536866e-02 6.079819341465417248e-02 -5.275376751045751655e-02 -1.167315330422361019e-02 9.610773897265567633e-02 8.927655148582042122e-02 4.972502634820374912e-02 2.181614387769761909e-02 7.617174489531014503e-02 9.783471506396135275e-02 -1.193981856796984403e-01 -2.466533610389717857e-02 1.473832409243558406e-02 5.614155270837037359e-02 -9.900653707558955408e-02 -2.405880295659251766e-02 -5.289091693203626376e-02 -1.835758725475608588e-02 -4.851281584107997036e-04 3.840365364625225597e-02 -9.033266471329959302e-04 2.891236814524572596e-02 1.978556685341342769e-02 -1.720022447067447169e-02 -1.188056724692962973e-01 -7.331606067369556001e-02 -4.315040297129069113e-02 -8.472524979481649288e-02 2.367933158554455519e-02 2.675987439830457282e-02 2.238230326308265905e-05 -4.299626361579250711e-02 3.678193248586905661e-02 -7.433196415702950088e-02 -1.185885644532892191e-01 5.638608448415075025e-02 -1.355907794305558078e-02 4.748199745196360344e-02 -7.558959608712575995e-02 -1.049712475238602782e-01 -2.925393917207488870e-02 4.703916250691855816e-02 -9.532359181096419776e-02 -7.299978391800182598e-02 -1.105136390243523226e-02 2.907580552647506811e-02 6.002981953655639469e-02 -9.366359489144240880e-02 2.990966571735387269e-02 -2.703347468532460440e-02 4.082168849947367950e-02 -7.114550936114361068e-02 6.700511407375459028e-03 -7.868098681057614230e-02 -1.155165585608699114e-01 -3.131940858250290005e-03 -7.579733362538565444e-02 3.320239920081299867e-02 8.777956641703915652e-03 6.598689119945896908e-02 -2.568962336779122280e-02 1.174685114007006925e-01 3.651527078897695566e-03 -5.082383715486790687e-03 5.986619298052070492e-02 1.744519039017969342e-02 -3.300832384799390340e-02 -2.581251489565880575e-03 -7.460679001467604432e-02 -2.553998056875313172e-02 -1.128091793942283538e-01 -8.993025517871316987e-03 -5.412621292714300814e-02 6.411806486067761490e-03 -1.129746908632529856e-01 1.322082396532187065e-02 -4.968050792919426195e-02 1.859776344325136943e-02 5.586476478272800472e-02 -1.431892156885494760e-02 3.915763749167172625e-02 -6.266161083114910046e-02 1.196637812607551921e-01 -6.170915481125579388e-02 1.057988194515659397e-01 -6.786725990615569137e-02 -5.845476947838046389e-04 7.708247157425660023e-02 5.198113123073619390e-02 4.933929890896054937e-02 -1.429426560582769401e-02 6.100200610923825484e-02 1.007888584835661128e-01 -1.407558112419890484e-02 6.711716197128181349e-03 -1.041514598360070432e-01 -2.621446231903375168e-02 -7.862744080020980797e-03 9.483305059285759842e-02 -9.346621433869410633e-02 5.547302476775198277e-02 1.091308045169267493e-02 2.556850332397042624e-02 -1.128520934089055211e-01 -8.478062885741290133e-02 -5.184402588811555523e-02 -1.188307084911345429e-01 4.059787147131282969e-02 8.886190774142357918e-02 1.127239422509779265e-02 1.035937140460890804e-02 2.777422286712896704e-02 -4.747643990020700144e-02 -3.198432440137399801e-02 1.798553454666396156e-02 7.421198009216267710e-02 -7.161680774203893485e-02 -4.139422659641060764e-02 5.830110009352729161e-02 -3.817914020823789945e-02 -1.085733771104267914e-01 -8.247433711769960873e-02 -7.347243368170876254e-02 -1.173032985317234989e-03 3.242999066192117641e-02 9.125279453245993544e-02 9.660877354133881600e-02 -4.628141556357720510e-02 6.081121755014057273e-02 -5.221727266584658134e-02 -3.154155125633377466e-02 -4.974562509764875184e-02 -2.071422331221567381e-02 -6.846823303958865514e-02 -4.344335844715463413e-02 -9.073924466637896258e-02 1.111243775029282788e-01 9.559222557078833615e-04 1.015441638212793152e-01 5.907843378562105396e-02 -1.015073095669939696e-02 6.110933407395160999e-02 3.072553886566220527e-02 -4.709797580355151725e-02 5.198235219185248779e-03 5.095492695538300643e-02 -4.672475245240638453e-02 -1.169945191472464147e-01 -5.561692100737526678e-02 7.121891414162018208e-02 1.031983413512403136e-01 3.007947717678122190e-02 -8.812620370070134435e-02 6.181688621938108419e-02 6.457283051362561199e-03 6.092857718909111542e-02 8.606680873680300214e-02 1.074099722644378252e-01 3.708900830947955973e-02 8.502197036223516080e-02 5.822113384717123030e-02 5.450428521688244210e-02 8.610978150407153087e-02 1.015207297808796705e-01 9.649824036596268972e-02 -2.501993722435663647e-02 -9.983489284830594779e-02 7.909769242995579042e-02 9.343572793832244372e-03 1.009827713738950528e-02 7.804207933594067836e-02 -1.123237957498142703e-01 9.071050049403761584e-02 -1.116878396789471178e-01 4.636669401081314201e-02 2.099627504409820600e-02 3.401980340006319214e-02 -3.022075494281853403e-02 -5.388911360397501127e-02 2.258059545302962268e-03 9.259754811593315371e-02 1.566952088773640450e-02 3.915573395143601143e-02 -1.406898457115979273e-02 1.133133809091484978e-01 5.820538856441034858e-02 -3.482339739581438720e-02 3.684744783927826339e-02 1.022793884921288643e-02 9.217349097088464727e-02 -5.398702774430119700e-02 -9.406380355863903919e-02 -7.409470758211916808e-02 -2.710890417477938852e-02 8.497435078423548616e-02 -5.499722067938002390e-02 3.032611277008406825e-02 2.965243225093400214e-02 -2.206868751649711247e-02 -1.079195688817315701e-01 5.876012952779824383e-02 -4.902587173826851441e-02 -2.437003282823037298e-02 -2.946250379267773001e-02 3.926463160106244410e-02 -9.928001116436062368e-02 1.197358091327546670e-02 -1.162987626376185968e-01 1.159293560494600306e-01 2.362253337312356094e-02 -2.781258528090560511e-02 -8.478049662540415587e-02 4.725079834483322805e-02 9.739402000957256278e-02 -4.365389943729197642e-02 6.395811471749512922e-02 -5.100045551011496425e-02 1.097340821698544189e-01 4.855578115075379064e-02 3.000374236639707926e-02 1.033763359560354589e-01 -5.542982705953955480e-02 1.016677791217825699e-01 4.273990418975578964e-02 6.512700172835086954e-02 1.719248074438831098e-02 8.013712259981597974e-02 4.758763183004702246e-02 -8.481391157354184474e-02 2.699067087073797611e-02 -5.296311945208034833e-02 9.981089353615202331e-02 -7.242425034956309626e-02
-5.142804111088732089e-02 -1.085628708072770565e-01 -1.258100542784684750e-02 1.382107564106682673e-02 1.765465981850286581e-02 9.729057119032152867e-02 -3.662065612785478375e-02 -1.259318889809873943e-02 8.429703900035939723e-02 1.843903277568595400e-02 3.695830437065608653e-02 -5.319376070536414869e-02 -3.006887609796227157e-03 2.902857301931333067e-02 -8.798543276514239619e-02 -1.121019080177917265e-01 -9.278135972860172831e-02 -5.409341678483267635e-03 -1.142335836886059497e-01 3.029014299293320001e-02 -9.658017168573972133e-02 -5.976923094810102088e-02 -1.764169299450757400e-02 -9.220158079050022604e-02 -5.506752148860805107e-02 -1.149408785194772908e-01 1.164109328665126619e-01 2.677766594913855158e-02 -2.919507867954021507e-02 -1.136331957334922038e-01 -2.643870039000378869e-02 -1.138592966725576749e-02 1.034407665034806634e-01 -5.315899875886639925e-02 2.754765385999177751e-02 3.964040509972641124e-02 -7.536936724887866035e-02 1.383203756743639490e-03 6.876018308638437437e-02 -9.682103173718074884e-02 2.544847156055091153e-02 -1.137456161547856226e-01 -1.183087862855818351e-01 -1.057131342863828760e-01 -4.463889804231263581e-03 1.021689860856554166e-01 -2.266622780663418713e-02 -1.019921665592301990e-01 8.672459387592690305e-02 4.631420512905659592e-03 -4.345539145981822116e-02 1.111277613083221372e-01 1.051828244405707824e-01 -5.759544673039383722e-02 -7.166595510870713004e-02 2.133808879345852616e-02 8.220437036197414393e-02 -3.918693846118682933e-02 2.074306115142277029e-02 -8.106120012508613581e-02 -7.329750354284594871e-02 6.272045183810295854e-02 -8.397636927550800046e-02 -5.618231014852140270e-02 4.547876716264065422e-02 -1.163785661680850070e-01 -1.122733430715430747e-01 -5.099377439423312397e-02 -3.921043667704821045e-02 -3.306813467279731689e-02 7.372573812324470510e-02 -1.113645677619259367e-01 -3.398514128992197181e-02 3.318675198403781001e-02 -8.567901371560256163e-02 8.585726748274574716e-02 3.493545798562386340e-02 -9.232957788479349837e-02 -7.005662160025266649e-02 5.891959937955951188e-02 -2.318240919979851211e-02 -3.727185372358374216e-03 9.298921873745460975e-02 -8.701354809018457814e-02 1.114494713726682240e-01 -1.097688763688208224e-01 -9.613433825882763961e-02 -6.642277657429355997e-02 7.358041974252338413e-02 -1.059052623131942483e-02 3.678027414271664575e-02 -7.816292699523905152e-02 -7.998673609763320980e-02 5.003601732909396249e-03 5.767047246725318099e-02 -9.006128348393177552e-03 8.870738042906706200e-02 3.849886432095367406e-02 -6.021837877153612267e-02 -6.362346700749482720e-02 -3.022878795190329926e-02 6.158785351109213879e-02 1.051050394343477357e-01 8.685743983651988964e-02 -5.721340975609877366e-02 -2.105305728514324237e-02 2.677058386807715240e-02 1.124026939579400586e-02 -2.657401310184823173e-02 -9.565901354849358496e-02 5.093875305534134590e-02 -9.884756065789587764e-02 8.785858304969268451e-02 8.722762567983230464e-02 5.002818996368946225e-02 -3.258102286155334371e-03 4.779517569909996766e-02 -2.520310557557638165e-02 7.139903623040366742e-02 6.874009974716346894e-02 -8.267313987033078626e-02 -4.372378791585652957e-02 -3.744403757136231803e-02 -3.259912832315381426e-02 1.599493360509568474e-02 -1.099950137951309359e-01 3.839273255133579532e-02 -7.160837782640774862e-02 -2.004898651845404833e-02 -1.178576243983200933e-02 -3.630557530856497184e-02 -2.801272556927698887e-02 -7.672654539653775418e-02 -1.036487862254221459e-01 1.230159574460437666e-02 2.300806694799625851e-02 -8.508005058678988486e-02 -6.457399000269020695e-02 -5.126948843102821507e-02 7.938032805706218831e-02 -8.317897412102104315e-02 1.251331381283554700e-02 1.635353224612617895e-02 -3.757917765391864673e-02 -3.585187456633112668e-02 1.101868842046085373e-01 1.280254787028498042e-02 3.665548821622913178e-02 -2.222372053340804232e-03 3.519599560122974036e-02 2.526018852169487072e-02 -8.515840969917704006e-02 -3.967667210769762476e-02 -9.495841569855972830e-03 -8.932280121446763144e-02 -3.286240233492043750e-02 -6.524600776969866067e-02 8.340062454489646782e-02 -3.804622079488832742e-02 -6.557056304009642456e-02 -2.203646331545226766e-02 4.393537142933925943e-02 -1.042507202492580359e-01 -7.662498873528245102e-02 4.663366534169485766e-02 6.054158515298235788e-02 2.826102710641628657e-02 9.100765452878292749e-02 -7.948795438137752634e-02 4.885145572834284633e-02 1.001424381792020424e-01 -8.382248181526602560e-02 -6.149664542491652119e-02 1.120429730179300920e-02 -3.741135912576060152e-02 4.575337938777457314e-02 -1.061837715779741925e-01 -8.141660584236964926e-02 5.189719355510916121e-02 1.129484876241465263e-01 1.030920903629617413e-01 9.625607842147529403e-02 -8.934160466313760540e-02 -8.497705966281515755e-02 -1.026564583644305612e-01 1.020965595474981891e-02 9.179668149656916576e-02 7.630056016053238244e-03 6.761166849502558973e-02 -7.477109114129722178e-02 8.714670243992039822e-02 -7.501805502591564478e-02 -1.068566097440344087e-01 -1.884215749725645650e-02 1.322506320202523900e-02 1.129780822851347011e-01 -9.797907997411403613e-02 -5.425965762490680966e-02 -9.477430342030812582e-02 -2.629448718297205945e-02 -5.063734003493526592e-02 3.192083872297579727e-03 -3.641839637982072220e-02 1.027747243800242460e-01 6.958747113192967348e-02 8.664272846735412981e-02 -8.891977297370498579e-02 1.801684007729134618e-02 -6.845219138763389277e-02 8.837725714581334824e-02 -1.163953387791782229e-01 -9.462138836878747350e-02 -2.974630186864425652e-02 -2.349746253763355941e-02 -5.346718008511616715e-02 -9.694488029761459680e-02 -9.150470277297753641e-02 -4.369325907663985931e-02 1.081902801786529256e-01 -7.022242444336224132e-02 5.934727705421338761e-02 -5.803472063820384191e-02 -1.110623386534116408e-01 -1.161474697999051037e-01 -8.335057651651764377e-02 -9.099793680541881646e-03 6.141626340907321846e-02 5.491558366683693682e-02 -3.542653380407118080e-02 -5.006573096900723829e-03 7.537770081015965351e-02 8.121669753095497879e-02 -4.321999189968347976e-02 -1.189763955822942809e-01 -1.087365976257041594e-01 5.707377062495616604e-02 -5.456825254259807523e-02 -4.443405075203465948e-03 -7.391249615252537541e-02 8.330709985972664655e-02 8.106263127727469930e-04 6.518442173342742230e-03 -5.086089885941882938e-02 2.879815359341508785e-03 -1.195287251081951913e-01 -5.344919031762958295e-02 -3.629688395077537710e-02 -5.185178729063136260e-02 -9.937146538141972130e-02 5.227490216174024429e-03 6.923499200964364220e-02 1.062236245459612372e-01 -6.504498920007623086e-04 2.250092600530642639e-02 -5.019361492548705950e-02 -8.420171785915467333e-02 -8.835079422517413961e-02 5.576658620869384686e-02 5.627266448398424159e-02 -7.695599600720755273e-02 -2.074550885380994913e-02 2.259463869396946545e-02 -8.993233291532429230e-02 6.848854796852779647e-02 2.879812879685736404e-02 2.765320596202908154e-02 4.828994206047174109e-02 1.169239396959298460e-01 1.497466942972275339e-02 8.745990280760351787e-02 -1.950991798628018414e-02 3.707264429458423383e-02 1.020626850861038881e-01 3.939619575457806167e-02 -4.726063777366411311e-02 2.878696652679116341e-02 -3.568360311403379059e-02 -4.263199796773931016e-02 2.644921409912884269e-02 -8.152242432278711259e-02 -3.182655418139210268e-03 1.069522283967339060e-01 -2.786058192515088183e-02 -7.464897762100525247e-02 -7.478652085876558164e-03 8.181787954884778280e-02 8.224025342280782969e-02 7.867277747021331202e-02 -1.172458769746047846e-01 -5.591032561720915561e-02 1.199701890178229702e-01 -9.127601347380323582e-02 -2.378520938968009535e-03 6.960627614464448554e-02 -9.066866157747451027e-02 3.897820336589949419e-02 -2.860693074882209030e-03 -7.337040429931518393e-02 9.087120637985288130e-02 -7.644302458614471441e-02 3.337268623074607365e-02 5.779845076750297905e-02 1.504149278237476572e-02 3.092197646332586758e-02 -9.144830481071893058e-02 -4.607112310691248436e-02 2.087092973512300054e-02 -2.508870808619725890e-02 3.934705954387215932e-02 8.446911475303159333e-02 -7.434669856507594710e-02 9.678544820888038136e-02 -2.803779589653761228e-02 1.063498393747810966e-01 2.817175512599162657e-02 6.962292507501599559e-02 3.546102809574236403e-03 7.474726654394109326e-03 -4.137746429616674659e-02 -8.895247026543467994e-02 -2.788274115349831384e-02 -6.840564460999737362e-02 -1.121123385883400214e-01 -5.402716084193771862e-02 -7.666174735995433254e-02 9.012727560914948755e-02 -1.005032250164628049e-01 -7.586505622034801777e-02 4.896736692872022401e-02 1.006142138448656020e-01 -5.964997146433581587e-02 -1.148877284492684225e-01 1.105210734612239454e-01 4.373295371374813501e-02 -4.544095294467458135e-02 -6.630373868342448462e-03 2.382140973090321467e-02 -3.027154270431788030e-02 8.987707118908247472e-02 5.428142119383058684e-02 1.090417691098106712e-01 -3.574427451642919751e-02 1.049217812932274618e-01 -5.015862185821437502e-03 3.415743327563314224e-02 5.679532914117296771e-02 7.424111256136323167e-02 -2.489775185215348241e-02 -1.249296515645492711e-02 7.614648626706016499e-02 5.221372874182919621e-02 1.058038102499145316e-01 1.151034891402818727e-01 -7.706079927219680603e-02 -6.529934116493874008e-02 5.183674734697124586e-02 5.937185631701841215e-02 2.476309301580612021e-02 9.055194341316272211e-02 -5.952228909342275470e-02 -3.852302536876982264e-02 -1.284756454341853815e-03 -4.439349864754378594e-02 1.090538144203306858e-02 4.379473903150662983e-02 -6.711194372311324319e-02 -3.519011047588657681e-03 1.183155258329948167e-01 -4.220128723650361235e-02 -1.115131393220846479e-01 7.616441502816317932e-02 7.936280639189580155e-04 -1.073318745315430811e-01 9.367320653381788764e-02 -2.291654880471413747e-02 1.030255637136952562e-01 -2.350123828786522540e-02 -1.015602516540765887e-01 -6.112772541120174707e-02 -3.593747863027133005e-02 6.017479016525401070e-02 -7.566044343617192580e-02 -1.656632310579014833e-02 8.957890075583249678e-02 8.102661929467958046e-03 -9.524286726022640481e-02 -1.141146031068882571e-01 4.939435227865165978e-02 1.149905978299720910e-01 6.843966310855362223e-02 6.353428724290019480e-02 4.210740376272475993e-02 7.092065047167964154e-02 -1.103957314385655142e-01 -5.647640838795503493e-02 4.689540863317256947e-02 8.807719910585851131e-02 4.190564923603781744e-02 -7.769372928397641487e-02 1.047140303869663336e-01 9.681088802660467452e-02 -9.919709612637446494e-02 -7.367999098217928311e-02 -5.395367265347358887e-02 5.721884894510562147e-02 8.624959879220567283e-02 1.879737298837227955e-02 -7.208506304360107197e-02 -2.037842697087301203e-02 -8.691379193661427638e-02 1.001750848460218613e-01 6.348742569851364981e-02 2.451320113458610450e-03 -1.114198963899888650e-02 -9.651790119706321613e-02 -4.351791448792144412e-02 -9.104812911422484334e-02 6.776113520694240777e-02 1.077208960228670520e-02 -6.545342846036186768e-02 -6.619131857857528389e-02 -5.750443259621147024e-02 -4.587053944409856532e-02 -2.695076837246163093e-02 -4.858825622946306988e-02 4.309341468795607755e-02 -1.115823313667810568e-01 -4.125352441647164858e-02 5.887004948592369780e-02 1.062739164180683260e-01 7.265581203781229513e-02 -6.220170970282704048e-02 -6.410028758788038905e-02 -7.431916926787460187e-02 9.179940836606623189e-02 -6.291463506210723255e-02 6.196334961915056505e-02 -5.734806446287521453e-02 -1.120603575821962489e-01 5.602744801650380579e-02 5.428843435084820812e-02 -9.864981336934716682e-02 -4.159169809689561292e-02 1.076076696453654169e-01 -8.089224034027572841e-02 -9.919860656330156679e-02 2.270493314679020158e-02 1.034375676830332769e-01 -8.789320614165806178e-02 3.122950478404259989e-03 4.415981138806981954e-02 -7.876085769436148853e-02 -1.172976255618745217e-01 9.304395131513396033e-02 -1.115444950431937199e-01 -5.821001188615810423e-02 3.640416761776044119e-02 -5.141209599461706026e-02 -1.176701768220440175e-01 1.810844027159577707e-02 -4.612985319966945996e-02 -8.363662515549044607e-02 1.131079948158192072e-01 -8.040665570425140074e-02 5.453650587438649278e-02 9.377380595844311828e-02 8.609162777446685566e-02 -7.577830388197276390e-02 -6.316595191338257587e-02 -1.155929672393826158e-01 1.035373121435650134e-01 9.290908239775352850e-02 2.291188055269027801e-02 -9.375176267835511057e-02 -7.834976475779963090e-02 1.847048902382603108e-02 -5.960232635996521450e-02 -4.795876002334836796e-02 -7.896303625367559476e-02 -7.449798742253643802e-02 -8.778922946291664586e-03 2.369753430824628193e-03 2.779173519535813042e-03 1.193133118480609878e-01 -8.889700385516643988e-02 6.148077321305647769e-02 7.050161933397419700e-02 2.037182370492493511e-02 -8.942836735361947564e-03 9.442239296406704230e-02 7.876325257754993037e-02 -1.079301753531110991e-01 1.111161007410849666e-01 -1.182384259791254832e-01 1.755172912414604269e-02 1.738339606249744707e-02 8.025111954972402595e-02 -2.766814369790984718e-02 -9.815019142896427851e-02 1.960494464854195540e-02 -1.140369935127044931e-01 -3.316901738228127117e-02 1.164760325004774999e-01 8.850692869320481160e-02 -8.340078197731069787e-02 7.171826137345974073e-02 7.463926066116641223e-02 1.027697325905222170e-01 -6.614777614944369888e-02 -2.478061200095887928e-04 7.858658193865822317e-02 4.016010839956740686e-02 2.254467441210469825e-02 3.647419698497805784e-02 -6.275615692823686975e-02 -1.138703796298102255e-01 5.670174178716816393e-02 -4.156996192058938500e-02 -2.957834713916486502e-02 2.702785299589299806e-02 3.771961016724409421e-02 -7.130426385051781557e-02 7.824756908290050883e-02 -2.875041474108493145e-02 3.161865804033395233e-02 1.119387397565545228e-01 1.554869646399267835e-02 -3.386132597067435801e-02 2.855282609763412638e-02 4.303483351606879337e-04 -1.142970053331562874e-02 5.574497634150446523e-02 1.018824359961846282e-01 -4.974860331938515956e-03 -9.882476375997700790e-02 1.671685360417773936e-02 -6.121179477243974404e-02 -1.105013012459113986e-01 6.915364959448394577e-02 -5.453562320045085565e-02 6.649691830617213140e-02 -2.829853658830844276e-03 -4.369538614197232551e-02 -4.463389198778477951e-02 -1.099140575793325358e-01 8.255960857092181637e-03 7.765237343922248847e-02 -9.986511540014927912e-02 -9.394591065390776874e-02 7.021422448252073734e-03 3.843403430966324530e-02 4.673903816079880147e-02 -4.482679316474735831e-02 -1.109333338065248420e-01 -2.050490887382522276e-02 -6.574939898992940290e-02 -1.197324407394223938e-01 4.457197733417678220e-02 1.084950093730879528e-01 -2.612357747159323174e-02 -4.792837695084885274e-02 1.290043502647086893e-02 8.447430193557153855e-02 7.079218192630157280e-02 4.434160919485838348e-02 -1.629429808807043856e-02 4.570416476503530445e-02 -6.815391569961430640e-02 -5.185357491690077703e-02 6.667694661609224749e-02 1.031952327231255850e-01 -7.438811913199444570e-02 -4.894481053962418393e-02 -1.185095358742761368e-01 -1.642506113270360280e-02 -6.952918277937575331e-02 3.394194781286916096e-02 5.030141176274602333e-02 -9.149334854436358411e-02 -1.002854395123363995e-01 9.752041669928060430e-02 -2.658269886216865774e-02 8.016839343843451537e-03 1.111779755792809132e-01 6.217296293192045575e-02 -4.187032857624252424e-02 -9.939616773112955328e-02 8.645764005218659065e-03 -3.932989369504051591e-02 -1.147955029137355393e-01 6.507655998090688954e-02 -2.762180883504411488e-02 1.711707601409651058e-02 6.137828539109527193e-02 1.058033807762509548e-01 2.695736128430942236e-02 -4.430491709276564161e-02 -9.358163811671568744e-02 -1.022594669012946711e-01 -4.327421427054492509e-02 3.860139334944120981e-02 4.683649553464566684e-02 -7.014767038488295414e-02 -1.001289747387966167e-01 -4.667744129135253939e-02 1.141789436509743627e-02 6.112072187396752621e-02 7.117756936810215596e-03 -5.112389934070210584e-02 2.980313358333860907e-02 -5.643920275771299733e-02 3.664629944028552355e-02 8.205552187841708145e-02 3.334747688842359947e-02 1.575155255441612612e-02 -4.628589377499328639e-02 9.042648958511068091e-02 1.173172523321519001e-01 6.659506349038585293e-02 1.767452581690059921e-02 -8.609296016615959612e-02 -4.441703462577514805e-02 -3.195376353811590908e-02 -4.994514695340820931e-02 -1.297132446025732466e-02 2.655180404823498375e-02 -6.890049827636074431e-02 -6.005765897119107882e-02 -9.308388402693676400e-02 -4.617873859804740022e-02 -6.124131396856163922e-04 -2.446131669578827106e-03 1.189385308431350763e-01 1.154660551352704456e-01 -1.522493479652563264e-02 1.132849492296761629e-01 -6.854450299780462386e-02 9.869012666148813118e-03 -1.117552452726440493e-02 1.122261354030110736e-01 8.068229355248601742e-02 -6.860473805262209956e-02 -1.451061548270611568e-02 -7.956552680485268203e-02 6.980930509260102612e-03 7.043632180008801980e-02 -1.113890042481559817e-01 -7.407386939142719673e-02 1.145893354543238707e-01 1.105913534449547431e-01 1.358199818450445129e-02 3.506177315902539449e-02 -5.469767656961414815e-02 1.085018605710815487e-01 4.074595351853757541e-02 4.003391883330278955e-02 -1.173351999912185112e-01 8.471276396392626862e-02 6.679829248324845037e-02 4.438175925715362458e-02 5.778763512470039276e-02 -8.242261809638948278e-02 5.250601268367599550e-02 -9.676358143362957798e-02 4.966786752927218607e-02 -1.193683689298792178e-01 6.628938899049141575e-02 -2.026275652430534202e-03 -7.094715208851243293e-02 5.501918746689485329e-02 -4.424300837204139802e-02 9.211622159940283106e-02 -7.674395394426671013e-02 1.052521570286460428e-01 1.129800355327587880e-01 -4.692354142744060985e-02 8.699673592903220398e-02 8.212298852808236349e-02 -1.809294957729533360e-02 -3.271574211533165299e-02 -5.221500642358919975e-02 1.183768282717309606e-01 -5.861975353154407625e-02 1.009621434621893188e-01 -1.719954869766660011e-02 1.045024829619380924e-01 8.132276020756387669e-02 -8.261344185227692538e-02 1.782800504421197529e-02 4.164072352456466009e-02 -2.260310256022916853e-02 -1.188295093242656142e-01 -4.192048085544949898e-02 8.134678751357968252e-02 -1.049222447478553311e-01 -9.469926085456387144e-02 4.842896316285980052e-02 3.397984261485034740e-03 -4.399620013170596478e-04 -3.033366745766255534e-02 2.484326800111655298e-02 8.435250405048921873e-02 -5.353846644744174321e-02 8.274272708247240593e-02 -2.001140434269159385e-02 2.361629745457199947e-04 5.510961085636326140e-02 -5.790679019841424996e-02 1.011928604774736118e-01 4.849667141492358668e-02 2.854330154339737580e-02 -5.447787904513974599e-02 4.700362952626702118e-02 -5.826846037117070637e-02 7.594864087859459767e-02 -1.172466107945025482e-01 -8.003096553323037210e-02 1.387895730289415153e-02 5.094743990460051664e-02 -1.804643060853511338e-03 9.067428035518801388e-02 1.142087850150992623e-01 -8.573503789381625717e-03 6.431687507587338648e-02 -1.254687879953461649e-03 3.962370680059695838e-02 -6.603000480783222104e-02 -9.370998786809556225e-02 1.149621450178056337e-01 7.559871832943634851e-02 -5.150795221211257324e-02 2.059881226270104948e-02 -2.878291073309009740e-02 -7.767887021523223190e-02 -1.947956566740172146e-02 -4.867492939278537933e-02 -1.160102144321025763e-01 -2.703160632028571431e-02 1.010191209131405254e-01 7.876806208978770485e-02 1.777794124717221869e-02 -4.352475245270819026e-02 -6.449656922749499866e-02 1.094447000714241225e-01 1.550642377649080750e-02 -6.777472714581045388e-02 -6.012430773633051229e-02 1.103030886074205796e-01 -6.268460800886591078e-02 -9.438861879467090599e-02 -7.584913445935939635e-02 6.389395366030056755e-02 5.010342142350271422e-02 -1.489393805349029098e-02 7.051308170794204355e-02 4.203046114228656260e-03 -2.073644132901432402e-02 -9.181393530537849956e-02 9.213865582472383076e-02 -5.385762854152396917e-02 2.790257359916648028e-02 1.162991469505694486e-01 -7.453967470949908469e-02 1.116451180303302815e-01 3.665168842216687262e-02 -8.910441489682856264e-02 6.526251505753161153e-02 1.084261867817024882e-01 1.506733192546197420e-02 4.525324794195553779e-02 -1.136765090712041210e-01 1.173781645219072467e-01 -4.357029124471618886e-02 -1.142630929521073480e-01 7.405539611385322796e-02 1.135806124240963388e-01 5.702124238000347289e-02 -1.193434065491039142e-01 -1.047934772702315276e-01 2.022465725461938812e-02 -3.942837413865525609e-02 9.164003538043119512e-02 8.968064864566521743e-02 1.170045380890659681e-01 5.179967257742248976e-02
