-7.968517027432217570e-02 5.118789622150796137e-02 -6.457697427149358682e-02 -6.868938083065928568e-02 4.425692781640408469e-02 -3.153076249939740228e-04 5.824271795915081373e-02 -3.627693170276233281e-02 -9.259220657505026764e-02 -5.331822296640917336e-02 4.830013047057768460e-02 -1.271648294255094125e-02 8.811738308279498666e-02 4.775400901996884606e-02 -4.139566150774712239e-02 -9.593522828180778284e-02 2.942777105044028230e-02 -6.159471075849130839e-02 1.150829601864517826e-01 -8.378078060565799512e-03 -8.252244035032699210e-02 4.245784985807890544e-02 4.917053281629560346e-02 -8.125402442629015010e-02 1.856975643468722348e-02 -8.153809897476058111e-02 3.870718853778037927e-02 -4.142315609389483899e-02 5.798960551241644223e-02 -1.143775760929183344e-01 1.032627099336955734e-01 -1.048100486658897212e-01 2.017047920133699379e-02 1.163943151674894372e-01 7.951483621310886929e-02 -1.080236488408397311e-01 1.513141663193040554e-02 -5.397490827677137171e-02 -2.777897158713854564e-02 -6.342188625876643560e-02 9.033132900941459598e-02 -3.397969043581532123e-02 5.829310902299350561e-03 1.139896479524318829e-02 1.140643865753696029e-01 6.274273987330120095e-02 -6.687800887005002082e-02 6.925363234203726903e-02 -1.059286498933111192e-01 5.641967095448455205e-02 -8.840419801042412318e-02
-6.324374511100638863e-02 1.097420179944808560e-01 4.484238815760524521e-02 -5.313531698045156904e-02 1.504882431440823787e-02 -2.079734676868334742e-02 -5.833863881862451362e-02 8.488581159473634896e-02 -1.116833167410420935e-01 3.621759502806376485e-02 -9.325575313082883067e-02 -9.715180530858477659e-02 1.227903425273194071e-03 3.366043609666485859e-02 -8.700158923421423551e-02 1.837057380513984484e-03 9.619904923631683591e-02 3.471689381307044298e-02 9.253379247881945990e-02 8.676534844013611414e-02 -2.490434076950845399e-02 -6.112434072766188137e-02 1.180349632871466881e-01 -7.266567847392263468e-02 -7.209657178196263172e-02 7.275915448299030697e-02 -5.286174653035810578e-02 -1.155974083094635230e-01 5.337106638635846778e-03 6.198743296914280276e-02 -1.190643145533773067e-01 1.272108812506353437e-02 5.939295985352477381e-02 -8.482871112212617137e-02 -8.351645593625439679e-02 -2.810746982668149707e-02 8.882499087501866120e-02 2.351948652458887845e-02 6.431919191698295957e-02 1.092350971332428644e-01 -1.184919227713310264e-01 -4.955333709066878090e-02 -1.104516733359703351e-01 -4.648932798330812632e-03 -2.860243389249769730e-03 8.663611222587408456e-03 5.592570953873418627e-02 -8.620611141792718091e-02 -7.535371786890164569e-02 3.115194311996707932e-02 -1.071812491152135255e-01
6.386547190620817105e-03 -3.576363537516333291e-02 6.329186870502673257e-02 -1.098875963803833539e-01 9.254862508154376721e-02 -1.087720196594589989e-01 -1.840969428305527789e-03 4.933825644712513947e-02 -4.336554021864225117e-02 -2.567940324417376796e-02 -4.283807338948891763e-02 -1.124254956933865846e-01 -1.018644825638599372e-01 -1.989398285947897860e-02 7.662024899273947587e-02 8.697976679448604642e-02 4.769398752908954320e-02 5.329592249793005387e-02 1.142477130699520727e-01 -7.224621020302311736e-02 9.580621787407023193e-02 8.807361671681765425e-02 8.625019871359590473e-02 5.133060833267583112e-02 -1.727598682837046262e-02 2.746133246455104149e-02 1.005405189777797692e-01 -1.918260336816592082e-02 5.716027364782411135e-02 -4.536365396992061982e-02 -1.912772686704350411e-02 -1.002513237060656676e-01 4.129262339924444358e-02 8.964343100034580236e-02 2.273806328199484694e-04 -2.152173514262505083e-02 9.523275303729444863e-02 -2.711494229211296181e-02 6.126353724968511272e-02 1.237525742386350047e-03 -5.336787739791695739e-02 1.043643206751274088e-02 2.134320058814459520e-02 6.130345061603700851e-02 2.157652366468182370e-02 5.699300086634601081e-02 -1.196313426062183827e-01 -9.183049819169986083e-02 -9.438587004262882774e-02 -1.131068250885457205e-02 -9.371792789746757890e-03
1.663659040241274867e-02 4.792681552219404950e-02 -5.086099361902078619e-02 -1.190223522593703287e-01 8.414663477538852909e-02 3.830072133118972433e-02 -1.054459563986086257e-02 2.018932594253985968e-02 1.937725273911383717e-02 1.147723198447623272e-01 3.431579666329290235e-02 1.107527437769684209e-02 3.766271884093744249e-02 1.823336324103294603e-02 -2.472223185354655017e-02 -4.107313039764437512e-02 -2.623327005495516839e-02 2.764343931115309516e-02 1.198853194063849714e-01 -6.365757452956757878e-02 -6.617984023591347298e-02 1.150117544665703873e-01 -2.829564023911747273e-02 6.329151981762271006e-02 9.639068189375182838e-03 -5.634680773893274708e-02 1.024673156125293361e-01 4.784314913601736552e-02 -6.514360540025021518e-02 -1.037572110421497440e-02 -1.034614694246687727e-01 1.059462588394268767e-01 7.264586487205706988e-02 7.889341366653954135e-02 -2.863563898953076781e-02 -3.859734230822987888e-02 2.273038235349511549e-02 1.707202418183681458e-02 6.225627036039085849e-02 -6.368517329640360769e-02 -3.419022093232387816e-02 4.985804466180954186e-02 2.618196973892197854e-02 -1.089229271692769563e-01 -8.575282276241880108e-02 -4.894820172574596007e-02 3.046337061949708214e-02 5.321768330220250087e-02 -6.981468289736764143e-02 2.502870245833963003e-02 7.670107256834124421e-02
-7.520278465460872308e-02 7.636002361058408239e-03 7.533995618097436009e-02 5.428086258545422593e-02 1.106570048477032719e-01 6.460051817747658465e-02 4.687249919620023464e-02 9.956631058318207717e-02 -1.028520945693057187e-01 5.906284370157124930e-02 -1.862159076040542649e-02 -7.432236788996277044e-02 -5.637429716242553512e-02 6.889131523861224959e-02 -8.062271023161131367e-02 2.416066520335102830e-03 1.769360755716686828e-02 -5.294574612276128911e-03 -1.594773059795341619e-02 -7.721815085330699380e-02 -1.068852924850059033e-01 -4.094445739603352896e-03 8.847981107201716156e-02 -1.268490590032655962e-02 -3.533914510028042522e-02 2.764332294498289544e-02 -7.637539774443849461e-02 3.315107423801685882e-02 -6.966603736998666641e-02 1.084905004918829408e-01 -1.155548208731161375e-01 1.091587297302623327e-01 -6.057423763436274589e-02 -1.105934853657458694e-02 1.162587851808559725e-01 -1.702828299982103721e-02 1.033052355916225795e-01 -1.089876287172272390e-01 -1.635672666472634540e-02 8.140072136867101960e-02 3.529701866348275430e-02 2.987104059919065691e-02 1.149833252140394779e-02 8.967105517173212803e-02 -9.736321366854569503e-02 -1.194633109384099778e-01 -2.496753762689467304e-02 9.549765930034120887e-03 -3.213104901784666345e-02 4.518232904849697751e-02 -6.053143887946155904e-02
-2.426429605637159259e-03 8.915684697284526061e-02 4.413003596368744730e-03 -6.122839867646663603e-02 6.237727059401929064e-02 6.861603263542198627e-02 1.074642185463010602e-01 8.867381555452497066e-03 -5.629032156093201344e-02 -8.583144690728322646e-02 -1.021438900233413855e-01 -7.751154811128269095e-02 -5.954583175495611197e-02 1.699435301199697657e-02 1.060388432862856556e-01 -4.356491917379097523e-02 3.820670313760574088e-02 5.412085576501024509e-02 -9.387843877411132520e-02 4.529428619541872592e-02 -6.208069691734714735e-02 1.477444111742015620e-02 1.071552382709875240e-01 -1.107740565672406113e-01 1.640488616956758960e-02 -1.198623203467659715e-01 8.073780316280543268e-02 -7.908505532837312169e-03 3.874720312147805767e-03 2.481850399165735910e-02 1.499428995813192889e-02 -1.018410671146209034e-01 9.313661662015054743e-03 8.395352581365236877e-02 -4.257814394367190336e-03 -1.057907355910987224e-01 9.130173881673342429e-02 -4.283113773936990387e-02 6.038496700900880532e-02 -9.815183457305667880e-02 3.988250476498347852e-02 -7.989146916166608992e-02 8.352254120556876216e-02 3.372201288805443120e-03 -1.839059755179131561e-03 1.196021811931777812e-01 -6.834788139871428303e-02 8.466159392831731911e-02 8.716461863793165121e-02 -5.726250985560170370e-02 -6.029755579249626574e-02
1.815514356202863056e-03 4.908703679893097749e-02 -3.468541727204936531e-02 1.170308669386508349e-01 -1.052264090891671666e-01 -9.277653369704118302e-02 1.156638655822840034e-01 1.123634554823914333e-01 -7.301409421208729378e-03 -9.143515093086582168e-02 3.800329323070084087e-02 3.846563881143283403e-02 1.639142267568305389e-02 -9.855912711370183599e-02 1.047395330921586931e-01 9.116817096586535274e-02 -8.719345778331616392e-02 3.612379883034064210e-02 5.867648160145230718e-02 -6.127102677005873826e-02 -7.182408569794578035e-02 6.685392293916231354e-02 -1.110230295785112342e-01 6.542798754155776386e-02 -2.989909884388364247e-02 -3.858706102981701580e-02 8.299068896897068837e-02 -1.159532894700382594e-01 1.014002895209029920e-01 3.782484406279271183e-02 2.895658979987819626e-02 7.839123991172058936e-02 7.343835202597231993e-02 1.118155206591221196e-01 1.895580928697171430e-02 -1.010170703075435883e-01 -7.409863622767920432e-02 -6.637926972053996566e-02 -3.547678360726094771e-02 2.303231931448293524e-02 2.345518934822704571e-02 -1.061260370137412923e-01 6.941193188782640577e-04 3.311974203374332126e-02 -2.002981694082527075e-02 -8.314981608860401441e-02 1.010513514886094422e-01 -5.132785684593954567e-02 -1.903356758041070684e-02 -9.387157173697383006e-03 1.071521169640787807e-01
2.355861721395313690e-02 4.335261002807525021e-02 5.063963552605113549e-02 -8.792391455715803383e-02 6.528168663190034304e-02 -8.440449546353417931e-02 -5.076572597607631465e-04 -7.857005752026480216e-02 1.021089203685434932e-01 1.176247356700935165e-02 -3.445530705759554391e-02 5.294729678278345397e-02 -7.658959811322363365e-03 -7.542788180626938677e-02 -7.124488603382611585e-02 1.102503387154745162e-01 2.224182892312343007e-02 1.139948131623493011e-01 9.164418386432859887e-02 9.072902959429798853e-02 -1.697465038554329952e-02 5.057877911876978994e-02 2.693164677749651514e-02 8.580205064291759887e-02 -5.683154886400722250e-02 5.730048427873196681e-03 6.218140110434372536e-02 5.240982006293565254e-02 3.281329325643853045e-02 5.831427182267262532e-02 -1.056885176835563461e-01 1.003101947860148557e-01 -6.787101291513739088e-02 -8.631348312970971159e-02 1.342262722806644715e-02 -1.086679519214531903e-01 1.120212360176026101e-01 5.184607968892412933e-02 -3.849995543711565160e-02 7.176002829918401438e-02 5.830718281981803197e-02 -3.377130666039043771e-02 -1.074791388040728102e-01 9.836020108233564652e-02 -9.695647229405256196e-02 5.641352335484858815e-02 4.176197171234041772e-02 -9.951901283429030742e-02 -1.188972579552538683e-01 2.387732569104936142e-02 9.352267222249605050e-02
-5.963456323292776196e-02 1.767127093144729710e-02 -4.994431216268048479e-02 3.655117214950406868e-02 1.990142055400109800e-02 6.159576452157455861e-02 5.402054900207575727e-02 1.463866000880170715e-02 -1.748681197829919653e-02 5.138902643689563510e-02 2.194009289600390433e-02 1.148037868210448620e-01 1.012286329847618127e-01 4.647531454066147760e-02 -8.288963415868699780e-02 -8.454716654212497684e-02 -9.918230513086509492e-02 -9.704156198019311952e-02 1.060966261204600303e-01 -2.842204748496851563e-02 6.857299431073723972e-02 7.859438518074335356e-02 1.999670702630637620e-02 1.122909375627846873e-01 -4.451004504154487673e-02 8.439989630859967562e-02 -5.024434964023698214e-02 1.160118051611616630e-02 -7.712442743075811902e-02 -1.611626294413538718e-02 -5.889770838608333198e-02 1.044784061725159696e-02 7.608120677805477183e-02 1.008587980719667654e-01 8.623109806194612093e-02 -1.176069321904338882e-01 2.681655752067113596e-02 1.042239647101915467e-01 4.724579630180489320e-02 1.125334113956179827e-01 2.044476687592408637e-02 -6.558746128216336180e-02 -1.862030565889610800e-02 -5.440424896182409487e-02 3.854390920284275768e-02 -9.338092863340390071e-02 6.940598888065693806e-02 -7.946943522789219616e-02 -1.045873185734952776e-01 -9.756591708008860442e-02 -2.877859368041260635e-02
8.993689057695858358e-02 2.711431039169359680e-02 -2.871404616343783966e-02 -1.802143771248369830e-02 8.054247177149087555e-03 -3.840709796930298625e-02 -3.743684880496876699e-02 1.941240822585893477e-02 2.289934752842825993e-02 9.606313658404203037e-02 1.167012329401224124e-01 -7.565131281581703726e-02 -1.257108897379963230e-02 6.500477628011655518e-02 -4.092801981345486895e-02 -4.607848534470554425e-02 -6.026887052137575029e-02 -8.846681560658287147e-02 -1.087078943051997398e-01 1.171396200184336156e-01 3.913908349366454487e-02 -9.018386456765095649e-02 9.094834098068335648e-02 -4.569554773004236292e-02 -2.096997450545932951e-02 -4.827963411348902556e-02 7.853592509753676287e-03 1.015947067381808844e-02 6.435157585065631736e-02 -6.399115629228749325e-02 -2.589914491998944468e-02 3.175228692507434114e-02 1.875396515814975462e-03 4.727588676444877125e-03 -8.363883385252632308e-02 -7.179224003412063015e-02 -8.496635677340101667e-02 -6.737027289952654541e-02 -4.928552124357378494e-02 2.522117794380876465e-02 -6.052335911448555178e-02 -1.164057461468395727e-01 1.196470583102883511e-01 7.290179719986822349e-02 -6.972533036448722021e-03 -9.988987975798553631e-02 2.589338208143476816e-02 4.477621404321560639e-02 -2.220143280029614197e-02 -6.619869448896517627e-03 -1.087395811265401968e-01
