3.628195677780410300e-02 8.354806959272734201e-02 9.387293119851933265e-02 -1.095024282221341433e-01 -6.681874355616866656e-02 -6.933073493115342323e-02 7.427091823397391490e-02 -3.905660813668877795e-02 5.445464630802426820e-02 -1.602375824479994326e-02 6.073781460590754744e-02 -6.889197070455807537e-02 4.123738975349713898e-02 8.774868018804762859e-02 1.073483007010009871e-01 3.799760937483184775e-02 -4.860145258497054754e-02 1.786944085652036884e-02 -1.035075383316899633e-02 -3.453985659465529101e-02 -7.531967709869442917e-02 3.738477434718634473e-02 -3.077623337154183902e-02 7.305753670722392457e-02 -3.276510779612064328e-02 4.365921335076211607e-04 -1.016010551755258673e-01 4.500541306486521842e-02 8.468459416687751373e-02 8.740656843813449095e-03 -3.346227756386115082e-02 -7.875075654505057920e-02 7.164428627690233586e-02 -2.259990809917609977e-02 2.395126182337520282e-02 -6.218627493454122190e-02 1.056408242738282599e-01 1.560113062797477412e-02 5.363169797059230692e-02 6.507133768214914959e-02 7.845663061502128333e-02 -8.315475457701937412e-02 -8.623297157403606028e-02 3.615308305546119372e-02 -1.188263559427832489e-01 -6.470940608204148181e-02 5.281142148210543619e-02 -4.227245195112991349e-02 -8.304194946361148633e-02 9.887974182248909782e-02 5.079538396115332310e-02 -1.122228558667874576e-01 2.667116237447633709e-02 7.143640725873517949e-02 5.163083984401539706e-02 -6.440623352367100263e-02 3.083774855377061086e-02 5.716383341404190910e-02 8.340505069411971450e-02 1.035099036006357498e-01 -4.662975323418463991e-02 1.041596634828715617e-01 -4.528538308318762196e-02 -7.916438934291361584e-02 2.599577883241094289e-02 -1.014920910060000542e-01 1.189774020198132165e-01 1.007826370698740592e-01 -6.012942203791690060e-02 7.805358707721279932e-02 -2.960197676227173391e-02 -1.171911421870413528e-01 6.584259593387373211e-02 -8.916814654291141395e-02 4.839198702855562750e-02 6.361872595877388070e-02 2.431092200677942294e-02 -1.045572137402905888e-01 1.034037689237057855e-02 -6.843452494288818078e-02 8.510088363639861653e-02 -2.801376589611517809e-02 -2.201600474644554994e-02 -1.184263065294409445e-01 9.256571184050538248e-02 8.255839395981162676e-02 -7.967270712766795493e-02 9.556746233278132219e-02 6.013251664201949009e-02 8.683196797637210418e-02 2.559542181562055041e-02 5.760651055329754633e-02 3.542578086933190207e-02 6.212334524257623336e-03 4.312669525084966704e-02 6.571310370386540534e-02 -5.668057243843858950e-02 2.178600453769771739e-02 -1.074963685631605964e-01 1.126091933324123717e-01 -3.750368012086929825e-02 1.384238371036330961e-02 -3.831307635914332765e-02 3.965661891397018191e-02 -9.153669191497261493e-02 3.352576806953752597e-02 -5.715540398421126156e-02 -3.954017156107274278e-02 -2.606575415475692603e-02 1.258246380195807146e-02 3.555623660970466671e-02 -7.529904606742321427e-02 1.579393970061490626e-02 -9.200225495037039902e-02 -6.408275350274444948e-02 -8.259267185833892022e-02 -8.745070032195120802e-02 -9.626448184007957432e-03 3.583442004537223946e-02 7.563963311670091061e-02 -1.827488009176862771e-02 -2.150900544257663971e-03 5.347069805872475823e-02 -5.840935448289633763e-02 2.673083006300133735e-03 -5.907268536543130999e-02 3.315832451966829741e-02 3.893298129543182329e-02 2.429475709030096131e-02 -2.889843721221722894e-02 -1.087610823432964557e-01 -6.704929077383234293e-02 5.557222928469385259e-03 -8.185269720885746114e-02 -1.417490969925223887e-02 1.177943349789148109e-01 9.916580016546114318e-02 -6.109883429344584171e-02 -9.010990457101436535e-03 -1.718673281569749189e-02 -9.029767283997501559e-02 -1.057396387212361510e-03 -4.652944242946810416e-02 -4.833858626315028217e-02 2.073349867938420465e-02 9.793828491542530545e-02 4.097738660810845701e-02 9.193477377278463925e-02 -1.174236037982715197e-01 -2.979497758198640378e-02 -1.078628333139002166e-01 1.074862540103191100e-01 -2.689159464095941532e-02 1.593367055786271136e-02 3.897441797369144423e-02 3.996449302848420482e-02 3.676190136741280812e-03 -2.625400312627423904e-03 -7.761782500594871514e-02 3.750785762281216851e-05 5.417726980248863122e-02 9.133230979919748638e-03 8.600485581765718313e-02 1.505635636838370539e-02 8.177447588814332202e-02 -8.170662857287097625e-02 -5.661120318514079042e-02 9.113836994162036187e-02 2.493082952921479856e-02 8.852236836158680622e-02 -5.640488232815352165e-02 1.041191718085217044e-01 -4.265827609936198583e-02 -3.655947772295739528e-02 -5.716210321482058376e-02 -7.115866007991300535e-02 -4.087982048311479544e-02 6.536718272627722870e-02 -3.924688909886973887e-02 4.826218087736672269e-02 8.859163481077417246e-02 -2.399674887397044987e-02 1.051782742897917899e-01 6.695558777111773607e-02 -8.027365594516387703e-02 1.834093618073415199e-02 3.317353278153989393e-02 4.464019268505295401e-02 1.751479854438336980e-02 -3.436279337758302299e-02 5.193237228874600375e-02 -1.231957737593958324e-02 1.914533701557261103e-02 -2.140010359212342339e-02 1.050958513342432898e-01 8.805107858115021613e-02 -6.381341526286582466e-04 -8.761200626716400541e-02 5.006819296340947467e-02 1.619346100719676329e-04 5.814350732752282536e-02 1.054770668454536320e-01 4.912063561467935879e-02 -6.705004866256963902e-02 -7.364661274721667761e-02 7.705328795985078028e-02 -1.081938833380173964e-01 7.687542970700328437e-02 -9.430648007446550130e-02 -8.699888384303081090e-02 -5.065792782457848031e-03 5.238381428862293188e-02 -5.078295918412595311e-02 2.622097008980267541e-02 -3.554520136770894512e-02 6.060297205182124669e-02 -5.755175377758333516e-02 3.945200415264954463e-02 4.940424945107785293e-02 -6.577971092162238076e-03 -3.362743840743773194e-02 4.995288961647495474e-02 3.008705001170855486e-02 -1.115243866323563093e-01 3.040831016504844109e-02 -5.598041811428697279e-02 1.094826503091561598e-02 5.960586166267883845e-02 -6.007834850743406369e-02 -6.754732897907900213e-03 1.009345716155808648e-01 1.128366064595296425e-01 1.084270474105542559e-01 -8.188947181139669129e-02 3.626990321677306395e-02 -5.062081732433888759e-02 9.627523948405067311e-02 1.157975573410968684e-01 -9.931801004123858023e-02 5.869457175647066483e-02 -9.313635895491842454e-02 -5.869517170069736556e-02 1.087063923273144106e-01 5.977829609030532731e-02 -2.597419661129631019e-02 -2.006031486648560125e-02 -1.057741505535849669e-01 -1.088764107624831945e-01 6.369208016026864372e-02 1.076522863547137165e-01 5.062223473964094778e-02 -3.621183843130845736e-02 5.322742032767527331e-02 -4.517218326014760255e-04 1.051683994830722446e-01 2.588633437242424118e-02 -1.022493872730977638e-01 -4.604299243280521314e-02 -1.012304377192231042e-01 7.805231736722059721e-02 9.675817869841080165e-02 -3.662777754497899274e-02 5.955445515504262377e-02 -6.813486619104525133e-02 -9.848433519721168372e-02 6.808517384808721040e-02 4.209051879507633154e-02 -8.877483739612455904e-02 -1.277673264288443911e-02 1.062666579888906226e-01 7.279468936886915320e-02 1.196148384820114041e-01 -1.032349248711979667e-01 9.772697556385426254e-02 -7.840800490059197936e-02 8.467296969508769644e-02 -9.089460060494518323e-02 -1.010442055723871635e-01 7.153471557444085471e-04 -9.549265277835651544e-02 4.737976405210453379e-02 1.090870549293870839e-02 4.129693243926454982e-02 9.600311216647358648e-02 6.273695647998228653e-02 7.563920206472735108e-02 -1.023810643527912762e-01 5.255336786354175560e-02 -1.186496935244456541e-01 -3.701132841311075006e-02 6.400492908279206694e-02 3.400055899689349848e-03 4.200454211191881337e-02 -1.154276380371848654e-01 5.752620477550493550e-02 -1.382571185975900452e-03 6.168160730449337437e-02 -1.141088165227388956e-01 4.149689865494923802e-02 7.454494175905868047e-02 -8.077834814329247493e-02 1.132999951403161065e-01 1.218056665522246340e-02 2.932878423907467336e-02 5.290788377275398857e-02 -4.692223581093946105e-03 -5.851696698057876067e-02 -2.306898626785990059e-02 -7.244708464008174642e-02 -4.418589230902868203e-02 -3.634545373774335231e-02 -7.089456334972418783e-02 -5.762795992478721846e-02 -3.545506984184919330e-02 -1.109722892866389643e-02 -3.360172877136088920e-02 -1.070186839808317525e-01 1.131999683429883996e-01 9.348614684779271711e-02 1.003938360933972762e-01 9.345197009663328003e-02 1.049148275997510704e-01 7.051171408238324223e-02 1.181887545223841984e-01 6.636033903739124717e-03 5.312037868219240955e-02 -1.072636935655899293e-01 2.338883059366236861e-02 4.113000571299818553e-02 2.874364563287370999e-02 -3.861945897292624885e-02 -4.827290781936516284e-02 1.068378036971721623e-01 8.451718550489520365e-02 -1.055343946075321532e-01 -4.650890906491612908e-02 1.134872176479314876e-01 -8.561300801871438160e-03 -5.936278267928005170e-02 7.635015092359531685e-03 -8.621703077883843824e-02 -5.252210127788592420e-03 -1.099425920804703583e-01 5.488701863168152228e-02 -6.821412192592493651e-02 1.145923117259420032e-01 -8.421345619723796805e-02 1.198624534910130990e-01 1.548984741328526815e-02 4.798782629594144922e-02 -1.395431397512707228e-02 5.859315714569127143e-02 4.658796276026558325e-02 -1.189022767562624844e-01 3.966787900945592527e-02 -1.089452974593067835e-01 -9.613345048529994830e-03 -7.683073568224357830e-02 -3.397388573630791275e-02 8.520756019699030070e-02 -3.224468193789459258e-02 7.140288197849842255e-02 4.783387037383637908e-03 -8.219293859304219185e-02 3.767113805683913741e-02 -4.803375283864162737e-02 -1.882656281277887700e-02 -3.232716401007182383e-02 -3.983681270047556566e-03 6.373815463980866958e-02 1.093889848696965317e-01 9.887607639539569560e-02 4.695703121912722655e-02 -5.882088803486771461e-02 1.674809711964767023e-02 -1.031976269891830139e-01 4.496252316974350127e-02 -1.112723503573945921e-01 4.910275507098441072e-02 7.415895851189790999e-02 8.118450388404852003e-02 -1.158750408163873591e-01 -9.494913676563054850e-02 -3.177689832152974514e-02 -1.194280496067685604e-01 9.724421255731524605e-02 5.967699750049035301e-02 -3.793392267757283998e-02 2.828345868210502267e-02 8.820368018973612223e-02 -5.103021585486855471e-02 1.783505299102844388e-02 3.096648365690418681e-02 9.407368719336614560e-02 1.091670589297874527e-02 -1.076870467415600163e-01 -5.605718645669835465e-02 -2.897544613129489355e-02 1.945946704279333250e-02 -1.066685682944028962e-01 7.197838104883100274e-02 -6.324140206655143315e-02 -7.644800746747940079e-02 1.175835528665303831e-01 9.066937310781159054e-02 -2.025826458756985193e-02 -1.491852479844731072e-02 -1.677058698262341718e-02 -6.582207534490289169e-02 -2.024654398774561326e-02 6.844999908459598048e-02 -2.582934764783277604e-02 -1.116188114151478172e-01 -6.091818522303974609e-02 5.450490996141710287e-02 -2.386002180318679000e-02 2.066072967462731502e-02 -2.835764748196521745e-02 -5.194548989697723995e-02 2.001597857610459830e-02 5.093028092774171123e-02 5.414366936017653287e-02 1.175534108821936208e-01 6.332724346295012796e-02 8.979346244966729396e-02 5.102012276709821936e-02 1.017645618189840229e-01 -5.772198086088833890e-02 1.840545561512776929e-02 5.435865258929309385e-02 9.004444758577001551e-02 7.155290605388697767e-02 6.939703221150950174e-03 5.606250788765060333e-03 7.457600371005124185e-02 8.667685012012363299e-02 7.387442979631647644e-02 -1.113155837417948157e-01 6.646027415961441864e-02 -7.844271271840107251e-02 1.007026637988625295e-01 6.393942086602924513e-02 2.032950718634518594e-02 9.525205513089385345e-03 2.106845187492692451e-02 1.070344653003167390e-01 -5.137861054811848627e-02 -6.272958400095100806e-02 5.460138053785951184e-02 5.720055203952206790e-02 -8.521092919301981317e-02 -3.472800559448331603e-02 -5.606407661610926518e-03 9.840143288103661567e-02 1.055683524537489593e-01 -1.610949380251948393e-02 -1.158279587280736239e-01 -3.093501255124964100e-02 1.116447147028245823e-01 -1.019319817227981317e-01 8.664170339920940211e-02 7.070696595734846102e-02 -7.580541451209213411e-02 -8.498506810031597469e-02 7.987307399629942073e-02 6.161429369187185201e-02 7.653325576821529141e-02 1.165261187473210502e-01 -5.283772987805146482e-02 -7.432408098752021908e-03 3.379802080679594756e-02 -5.060028768013080658e-02 -1.175915535619817820e-01 -3.927332330477362188e-02 3.711517431939664879e-02 -1.829726005249721066e-02 -7.492734291858341167e-02 1.092494242419098371e-01 6.013452384138731621e-02 -4.063423720544498408e-02 1.018473013990385256e-01 -3.511013116658517896e-02 -6.413887482905020199e-02 -1.112197113654701530e-01 2.192352050893231485e-02 -3.965363095386180425e-02 -1.878568276491437983e-02 -2.716691292323589191e-02 -1.926955776306804591e-02 4.193486381739439106e-02 -1.090565137303731447e-01 3.986235140518221143e-02 -6.919804264560863727e-02 4.158920353873163389e-02 6.138636415875312058e-02 -1.104293078328546646e-01 -1.178766710314207988e-01 -5.865300124445319008e-03 1.079073821945251699e-01 -9.053060260282641547e-02 -1.474544394201582342e-02 7.062726121257176248e-02 5.018487077110173056e-02 -7.897458336371537824e-02 -2.693874785491585933e-02 1.036611960701329660e-01 -6.739218499277689622e-02 3.633598896156511882e-03 -8.512952968254600128e-02 1.725222413647134467e-02 1.075806170261106864e-01 -5.677737093677459601e-02 -1.021588419694910155e-01 3.379971304474774230e-02 2.501523548765785532e-02 2.822916586451856835e-02 3.975983593098089686e-02 -1.277700249652319320e-03 8.629639889533702313e-02 4.091997132021835126e-02 1.485757466531864579e-02 1.165004525281999326e-01 -5.619366643269689543e-02 -6.776551209246302332e-02 6.209733548116047608e-02 1.192938062193436566e-01 1.659525986725832181e-02 2.516043249389410263e-02 1.196899602598972545e-01 -2.503252655877638566e-02 -2.950989662993581952e-02 4.867085098053164360e-02 -3.663192255086189508e-02 -1.407680798944883904e-02 8.404154704906163786e-02 1.031084562133684213e-01 -6.466331574831826745e-03 8.487856361499426794e-02 -9.629986076013143104e-02 -8.154575044706019460e-02 7.179880109919492548e-02 7.566284558991803744e-02 -4.803165026148961680e-02 -2.870652329878507769e-02 2.116005760837924576e-03 -7.740695048615700569e-03 -5.143328005225100696e-02 6.039850095238466499e-02 7.922026400268289414e-04 -6.367717173092951599e-03 8.473558382147192147e-02 8.913263356120601499e-02 5.698230879428387019e-02 -9.913870427567542110e-02 -9.855893410197094640e-02 -1.049765776473395307e-01 -1.101518414711496474e-01 4.677792155235183102e-02 6.570220072098259534e-02 -1.117046333595025226e-01 -1.011884968054473921e-01 1.006682222656145320e-01 3.657498483636523190e-02 -1.085516741389389028e-02 -6.062047562341551371e-02 -7.983801273843560420e-02 6.039345420872088699e-03 -1.179643522210328255e-01 -2.836679697103869358e-02 4.268912308237360342e-02 7.880471328915975016e-02 2.735758906180824068e-02 1.330651531413185040e-02 -8.404363479545345905e-02 -1.189344535984382945e-01 -3.463048850409405910e-03 8.096685568763656304e-02 2.668640133541566595e-02 -2.172102779096221625e-02 -1.045700519946317214e-01 -7.827967096657623136e-02 -9.701961930092831143e-02 8.754885130098413737e-02 8.224908401036568062e-02 3.496559103807669877e-02 -6.505022338518770542e-02 3.730580733480631794e-02 -7.167542245516411725e-04 -7.574746806742690963e-02 -1.176525602654246577e-01 2.535935476077688655e-02 7.481968205405259420e-02 5.500042974218566361e-02 8.204722769647804226e-02 -1.224591493028392986e-03 -6.809888876027121729e-02 -3.550920678810175202e-02 3.145212169622141340e-02 -2.009150207570188640e-02 7.747430350733647275e-02 5.306839673130944735e-02 9.913496135049862379e-02 2.614742692685345649e-02 1.050885449520259085e-01 -9.446033528363015352e-02 2.813853022611689791e-02 5.355081158383873108e-02 -3.612434754629592626e-02 -9.791070326382630973e-02 -3.803703975467778720e-02 1.159091015415935066e-01 -1.440159059841589206e-02 1.334434199706355240e-02 -4.936445938604655526e-02 5.749388870468713497e-02 1.175426351020232851e-01 -1.192587101144102768e-01 8.123045617679822139e-02 1.043651799011475756e-01 -6.352484638535237094e-02 4.070136468876012215e-02 -9.030468732073812510e-02 -1.196104272602021290e-01 1.041599764468970346e-01 8.484976040732811198e-02 -7.313609796866508972e-02 3.240084693919337289e-02 9.517615835629666954e-02 -9.896948404058784898e-02 -6.319557040443074536e-02 6.404614300279934391e-02 2.149160474942723997e-02 -7.014804624054736537e-02 -1.063818815148504793e-01 -6.548243435971765058e-02 2.017258058702392498e-02 -4.422698908855492161e-02 3.854164443694868547e-02 9.507569190662243375e-02 -2.503713512174728095e-02 5.805028264672890126e-02 -8.917246539964918117e-02 8.170515742579828600e-02 9.752727654573764560e-02 5.187073006124531815e-02 -4.311801877481592771e-02 3.334654953736793104e-02 -7.510981566163296708e-03 -1.741260506039728206e-02 1.037235328018160374e-01 8.035508257661888587e-02 1.188308389081188521e-01 -1.048603498615653246e-01 -2.886537978657108261e-03 1.199177435042257933e-01 -3.644901115149312698e-04 -1.117453779849081202e-01 -6.552029538996870239e-02 -8.324776399000018146e-02 -6.823691766599440656e-02 4.933387117019713553e-02 1.113445860336535476e-01 1.190403079401363140e-01 7.556525486376092227e-02 -3.096264694934341977e-02 1.037656376415299619e-01 7.827233191539614832e-02 1.147208352786380225e-03 7.910578558393913107e-02 9.158372846633761055e-03 7.477559387599758134e-02 9.728589818012500778e-02 4.437526494511109809e-03 3.046781636022580231e-02 8.479771592703391758e-02 -1.119199645073168659e-01 2.570061128409351081e-02 2.205030438079388921e-02 1.173191451039576338e-01 -4.866975982108431853e-02 -5.571991244648874519e-02 5.498635788430228377e-02 1.799998695434110174e-02 -1.432141409620193984e-02 4.347618563094532429e-02 -1.037334003605007299e-01 1.612728617865025194e-02 8.685979102949858977e-02 1.119940192240793664e-01 -2.051178316159157911e-02 1.680185751128898675e-02 2.573732895554908806e-02 1.556112875261703166e-02 1.259142368712706794e-02 1.198915749462571290e-01 8.636247632905141858e-02 -6.010113757948529201e-02 -1.141702519227074525e-01 -6.206580876085531634e-02 2.510067942953844722e-02 -2.733499503982758649e-02 -1.094086696436394612e-01 -1.062410164959926989e-01 -1.187408353174899261e-01 -6.101620532191991131e-02 8.174539055846494207e-02 1.416290092469602024e-03 6.049045426027999106e-02 -9.607203557888553680e-02 -9.676842978345503998e-02 9.210108280633613753e-02 -3.471777790520098883e-02 5.688593966433105886e-02 -4.517535359057144040e-02 -1.196581214497028783e-01 -2.419808618783562959e-02 9.637971882285686909e-02 -1.000721756521582850e-01 5.166803281095816436e-02 9.315224540514671636e-03 -1.154838675722291708e-02 9.848722619343106000e-02 -1.025828531953058287e-01 -6.803208652169713544e-02 -5.400687129166814593e-02 3.765953199532223739e-02 -1.130904615985850459e-02 7.630983276977534868e-02 -1.231790109408785472e-02 -5.313377116464457206e-03 -3.666485857750678701e-02 -7.506446982931724854e-02 -1.139905768211077614e-01 1.080186606544575323e-01 7.892643849035566039e-02 1.896399413304830639e-02 8.588750014806492694e-02 -3.751643891506178941e-02 8.724015481104996361e-02 2.222963504602465390e-02 -9.029596961450502002e-02 7.065974369429711688e-02 -2.074498545162081764e-02 7.631519319393981204e-02 -3.436428594951149162e-03 6.157728324205968828e-02 -4.210017305810882793e-02 -7.689936988060561140e-02 -1.067864390104436567e-02 -1.168894746399324197e-01 -8.962966684465481504e-02 -7.963316400160194708e-02 -3.056321507613281308e-02 8.824916626619511151e-02 -2.128857361504908619e-02 2.080358192009529317e-02 -8.026752750847013229e-02 -8.300344714182258943e-02 -7.407358720634873994e-02 -8.192544994913020240e-02 -2.031782048022248710e-02 7.051571549347454559e-02 8.697516544575886743e-02 -1.146435046102722843e-02 7.981660848430682798e-02 3.570109298003565357e-02 -8.793438980223700074e-02 7.004107358259942240e-02 4.109684835837409955e-02 5.927470523930861157e-02 -1.291382937028337508e-02 -8.787216054443339197e-02 3.715494144203843052e-02 7.905668478428312662e-02 1.015025663955887725e-01 -7.457773675920570389e-04 -1.020628850885724470e-01 -8.667023026484370340e-02 7.942867453879090545e-02 -9.243728171338842781e-02 -1.939815135772236798e-02 -5.375404169456106385e-02 -1.143876670258264783e-02 -5.998563364697785671e-02 -8.983718696004290571e-02
-1.182499022996542082e-01 1.041261248617422752e-02 -4.045084694173736728e-02 8.718673013681491057e-02 4.689848098784976660e-02 -2.652111464530595986e-02 -2.726170587441656412e-02 -8.693382864016796496e-02 -3.571758160838395257e-02 -8.734015133027178690e-02 3.824531815333429008e-02 -6.440291652674884348e-02 9.002435885193754705e-03 5.784144913278688183e-02 -1.191582230118340413e-02 7.313956831818152482e-02 6.528075610128009076e-02 3.948976204181772753e-02 -4.732456517996019851e-02 1.026961178953220977e-01 -8.321279992712921070e-02 2.735636064953345103e-02 2.305442687788450407e-02 -2.251768151014740815e-02 3.470496682358448215e-02 9.410439650121646404e-02 -1.138816872997395896e-01 1.726935168192764158e-02 -3.776031665792592418e-02 -9.985940638601467634e-02 -3.565849193332666645e-02 5.638146524088785694e-02 -2.905263010290080883e-02 -5.083005708735471861e-02 1.147296942740755332e-02 -7.916295917822460670e-02 -6.162267950958486007e-02 -7.162466912186005175e-02 4.638950949660766709e-02 5.660255494187405034e-02 1.091240504419041524e-02 1.147265662143990006e-01 6.267364764217508988e-02 -6.760714994916502962e-02 -6.172067838407517548e-02 -4.743595209897191745e-02 -7.935621759042194023e-03 1.138762768884539756e-01 5.255437716521652036e-02 -1.097790607535859414e-01 3.772263751931190234e-02 3.958812589462157305e-02 -5.167241898469084049e-02 2.125749127386036830e-02 -6.612870813155428962e-02 -8.628514504789655537e-02 -6.884327078356480833e-02 -8.874610412271943805e-03 -3.403969016429148065e-02 5.660461172445777067e-02 2.942156096719947267e-02 -6.389197979423208440e-02 3.168323904047393169e-03 -4.294595165800769998e-02 -5.525881245161734512e-03 -2.198755604753997728e-02 -7.075057624719015281e-02 -6.107073470657339159e-02 -1.019912820386680713e-01 9.113655121574223972e-02 9.512954368669745975e-02 9.616419558174929549e-02 -3.058082343101106715e-03 5.078218717268401239e-02 6.724724468491441454e-02 7.996766413360359427e-02 -1.005687249264488187e-01 9.689697285474321853e-02 -1.442059698703490600e-02 4.617968078146028610e-02 7.281217797214323273e-02 -4.196341548351285866e-02 -9.247569625271317983e-02 -3.443672692645619038e-02 4.424381042250216667e-02 -5.092610884216543232e-02 -6.185817608764904163e-02 -8.417633987625758318e-02 3.909051052648945812e-02 -7.686319793548133938e-02 7.461444924065746553e-02 8.183300919205455104e-02 -2.542389557160835978e-02 -7.116487674912305716e-02 -8.377937597389095714e-02 -1.029369541717765901e-01 1.710615477448862443e-02 -4.415418424683671683e-02 -6.739837231405099160e-02 -2.774191431628320048e-02 3.144715604493700245e-02 -5.830203624634346105e-02 7.036188646594404572e-02 1.551380113129330329e-02 -5.817012641762791397e-02 -7.961318191587715698e-02 -3.219771391603301613e-02 -1.000598623141058519e-01 5.189199902662311459e-02 -9.590955298320394395e-03 -1.159756136873528326e-01 -9.792568160471502858e-02 -4.471696360314299235e-02 7.997421837645926623e-02 -8.757519004278824237e-02 -1.112949742005426151e-01 -5.795713891868752715e-02 3.550904628322554268e-02 3.562970387413652573e-02 4.225385428031594448e-03 6.506764182266971952e-02 6.267615418700039909e-02 1.895439426250786208e-02 -4.767395716992695043e-03 1.103392353772592871e-01 3.656359483383303521e-02 1.152971021541771557e-01 -3.453255486683533271e-02 2.827674568545976430e-02 -1.011465918057219832e-01 -1.044089413052921994e-01 8.809091577225003356e-02 7.921328730859630851e-02 3.328072202541526581e-02 -1.647018314957131302e-02 -4.648403682876088572e-02 7.062334610878490126e-03 -9.367329198822138547e-02 1.047510715533627179e-01 8.916077855390042162e-02 5.618174128312644622e-02 -4.647148587004988618e-02 1.379007445915828023e-02 -7.112811713541031255e-02 5.567729967578116668e-02 -9.559974845791449627e-03 -1.002829937020962570e-01 5.723140160270631660e-02 1.164814732755329318e-01 -3.217684817647638307e-02 2.323421057216515373e-02 -1.386912943325674386e-02 -3.995008421382599539e-02 -1.009938645973394167e-01 5.652311922620811835e-02 4.698393647043727639e-02 -2.739382896789190058e-02 -7.475263534809306609e-02 9.848767272632091840e-02 6.453962419798481287e-02 -9.987258432150955545e-02 1.183143004633674666e-01 4.274592272476634980e-02 -4.063021231681228362e-02 -6.985813867345425088e-03 -1.169429932117730664e-01 2.250138242245680598e-02 -5.155118953133683291e-02 1.175986407425785585e-01 -6.861777209766248276e-02 6.204219709653094328e-02 6.132311630392350832e-02 6.550099605558212801e-02 2.570432738852604371e-02 8.049768997968478890e-02 -7.412599208280865049e-02 -2.779060072921966940e-02 3.334361033108104722e-02 7.908450609413369969e-02 6.119584832295660304e-02 -1.166497651008028130e-01 -9.215903970901297149e-02 8.187424140911309101e-03 3.986231853063126884e-02 7.885459304590358709e-02 9.383567289430480574e-02 1.669054772788539087e-02 4.468437526317900477e-02 -1.903601012164859996e-02 8.225212077053961623e-02 -6.829968291714097473e-02 1.122085942687868765e-01 -5.938726902993768375e-03 1.010571727477668491e-01 7.572765170322046102e-02 -2.215555913591288340e-02 1.010343753369490061e-01 7.082886706994956372e-02 -7.115358915517372429e-02 2.836348473382441226e-02 1.094804919792349840e-02 3.859837156022435933e-02 -6.455372997997918527e-02 -1.346852657829902822e-02 4.359322522547720569e-02 6.387955331221273347e-04 -5.486706241950498053e-02 -6.867253187072183684e-02 -6.084591472449064897e-02 2.627516327365306270e-02 1.023219569530347817e-01 -5.053643828050295717e-02 9.534690929445160945e-02 1.904103497117146104e-02 9.111928027882115755e-02 -4.259477150381449362e-02 -1.116181780399763679e-01 5.987619014411477147e-02 3.633305549497206632e-02 -3.190258866211329036e-02 9.687163756115096946e-02 -2.548816665400202575e-03 2.425948468545746639e-02 1.380611580890131473e-03 5.954843066417622732e-02 3.028809599450849044e-02 1.088803263336527993e-01 -9.849427582241480905e-02 -6.424654872991203414e-02 -1.920542487424953260e-02 8.919142955854086896e-02 1.187352320266153449e-01 6.084357416361929616e-03 9.815020532187729296e-02 2.812141770277651331e-02 4.417204869413013379e-02 -7.650812282873334369e-02 5.416921287284845454e-02 6.908019831038497705e-02 -1.639491582044280693e-02 -3.688992624874407045e-02 1.953931004228409707e-02 6.637860525450281490e-02 1.021167341359592584e-01 3.905773126734510270e-02 -1.035485639516455642e-01 -9.971613350051858338e-02 9.110768009096312237e-02 1.789971238227416883e-02 -7.752622417701621194e-02 -1.072984923610491026e-01 -4.154226652738751691e-02 4.246237328237689734e-02 -8.956129887070554685e-02 1.176278894757576965e-01 -5.607523764252389520e-02 3.140560874750930598e-02 -4.180207768527913204e-02 3.982997267192661672e-02 4.952071066919519482e-02 -1.091143933921360776e-01 -5.938295614920757054e-02 -1.000027427418999360e-02 -5.260330975551739952e-02 9.202935536473372258e-02 -1.350639330726584320e-02 5.267015726319587698e-02 4.741279526291788948e-03 -9.210256309801018171e-03 -4.777182340250792081e-02 -6.601969431193029092e-02 -1.061296378514802047e-01 -3.346426139813341027e-04 9.320348360173238977e-02 5.229854293247857000e-02 3.546402842613474715e-02 -9.732517068038520902e-02 9.420551227546669626e-02 9.477481443214502699e-02 7.623477580059204173e-02 2.042864368468935710e-02 -1.109897542842333551e-01 3.881863069321433990e-02 8.667904444856727730e-02 7.334970662888348758e-02 -1.768231041447623775e-02 -2.785649541224365089e-02 4.013720730532960301e-02 1.095479456480568659e-01 7.169604903100521009e-02 -2.165467027000517186e-03 -1.755938975554210968e-02 -2.019576490504579325e-02 1.154681827432453012e-01 -8.171324101244581417e-02 1.930758739861943019e-02 1.069110069392470164e-01 7.339084963253594829e-02 -8.333885190325809877e-02 -1.038271369174833120e-01 -1.024288292891560592e-02 2.455800344261716006e-02 -7.892481011552723857e-02 -1.211808700184464904e-02 2.179115209559551181e-02 6.842011860246957622e-02 7.586626177275987426e-02 5.562817414987902831e-03 -8.762979454791418321e-02 1.377487895072268542e-02 3.278275995177387658e-02 -4.853543732041827596e-02 -4.863746361121309980e-02 6.565353649959845828e-02 -3.889582126642984750e-02 1.104631090783806946e-01 4.184575088981618007e-02 8.171597549827852580e-02 3.891473013091970024e-02 -5.420476912126011293e-02 -4.841663210569631393e-02 3.758774529112873797e-02 -8.768471141899444876e-02 4.589795308640898241e-02 1.143760179242399033e-01 -6.787736640685562706e-02 -1.748383382603815872e-03 9.654232927428743616e-02 -4.496644686288223114e-02 1.129354180238121008e-01 1.130890272900844373e-01 -2.974813311841556507e-02 -9.743150347519174970e-02 1.233238067445141528e-02 -1.008807289822917508e-01 2.142921189160540418e-03 -1.157121211826622614e-01 4.828319261290231479e-02 -1.154528263725322079e-01 8.457126380548823930e-02 -6.151481307330056159e-02 -5.110811421712606328e-02 -4.551113514356715239e-02 -1.161470444637610067e-01 6.034910173083130047e-02 8.573755033304725215e-02 1.130955606973054195e-01 -9.351857264094598499e-02 -8.879849201823880600e-02 -1.010739411330463522e-01 -1.270899135224806686e-02 -4.262276703558097457e-02 9.816112684776806541e-03 -6.426020044720641422e-02 3.911676473118427810e-02 -1.021560209293934096e-01 6.088394622628576225e-02 1.180476789471294752e-01 2.624624578665085695e-02 7.414321220842481908e-02 2.989394035271070171e-03 1.137686232569209976e-01 3.533699865569922549e-02 1.074123705112266791e-01 8.066595440611776247e-02 -6.306171036490659798e-02 8.898594440742177425e-02 9.696102523939936768e-02 -6.473418203449612940e-02 -3.299114464806804370e-02 -4.587496300696426721e-02 -5.868208368081581638e-02 8.997344782205407565e-02 -5.367452150105528341e-02 -1.019299495152119484e-01 5.987471668703731043e-02 5.923562871690279952e-02 -7.345826631467583523e-02 -9.809735784027537320e-02 -9.887624413777551524e-02 1.669297982816583814e-02 -2.928794075392880669e-02 -3.054511896367781421e-02 -1.039759458743995252e-01 -4.771699958460270952e-02 -7.566296712422382331e-02 -1.030574885573308369e-01 -4.784306590619991084e-02 -2.948136276997430361e-02 3.925590687245492094e-02 -5.649868489772243152e-02 9.232990513653821507e-02 5.539513260315095944e-02 9.928309822471148571e-02 7.283099452067398616e-02 1.090496199264743282e-01 7.439720345239556054e-02 8.480503123870308801e-02 7.824568429524197954e-03 -1.113592233209262927e-01 2.257831537763002605e-02 -1.177860227513753688e-02 -5.543321002160299382e-02 1.474299806127862822e-02 -1.129792704433118938e-01 -1.306175682950234951e-02 -4.543749401687077749e-02 -8.962035634601611678e-02 3.105635553990204745e-02 2.902126451442574306e-02 1.627859705827860992e-02 4.332938398617644515e-02 -1.158201435253626149e-01 5.744814752696433824e-02 -5.965969814005919747e-03 6.075259889196063523e-02 -5.413508079940457240e-02 -9.388187367213032819e-02 1.135223792887544991e-01 -6.092264231436048810e-02 -1.670089951093461922e-02 -4.714492394188941893e-02 -7.058561773142230100e-02 -7.812680332448238008e-03 -6.445376577361877635e-02 3.177327689164072266e-02 6.177336027151031361e-02 -7.511539177666631817e-02 6.688036364501537268e-02 -4.105176587369134544e-02 -6.381771983250406066e-02 1.158528543823518497e-01 1.812788381636415425e-02 -7.309981807915150176e-02 8.210007772340482957e-02 -9.441202450066332741e-02 1.253707823930405585e-02 9.984509215274278704e-02 -1.635415163548456507e-02 4.714509634530791859e-02 -4.676009618067542006e-02 -2.784201936915023379e-02 -8.380353662921086189e-02 3.061447383188195537e-02 1.708394855232847620e-02 2.516228712813134427e-02 8.261067748447137316e-02 -5.395830517457265996e-02 -9.520857634086221655e-02 -4.311012685160690860e-02 9.349675829872663990e-02 1.091753379546781810e-01 -6.440653754203430614e-02 -5.557301534677314137e-02 -6.833142059467253726e-02 9.588876713956231979e-02 -4.384978028538502604e-03 7.192339502103625715e-02 -1.027209437628515548e-01 7.671961342495914327e-02 1.033020679090032867e-01 -1.118845184847892804e-01 1.899907086332972006e-02 7.159393994851179222e-02 2.101129725874398280e-02 6.878609615477115913e-02 7.777041447964960774e-02 9.096581166194397938e-02 -4.199302310475745703e-02 -3.885109426884225670e-02 -6.450374818844453739e-02 2.383472367619529630e-02 -3.580750623003466082e-02 5.157329859463785637e-02 6.120260693077617109e-02 -1.157640186010676225e-01 -5.469550224032553032e-02 -3.344196778640581846e-02 1.307442696188240716e-02 5.575920784136592645e-02 3.628448088470134780e-02 4.363593120689318594e-02 5.200053988749389622e-02 1.824892137591549446e-02 5.262989130568943019e-02 -7.636761457689408839e-02 -1.679668671121029022e-03 -6.207008325470714932e-02 3.635871438660162602e-02 3.234945365059929689e-02 -2.716068508680578864e-02 -1.192998269211300588e-01 5.718121753510452265e-02 -1.844145546351945442e-02 8.270675063765980939e-02 6.750413076040090443e-02 4.866702506769254866e-02 1.128990418788552719e-01 -6.563032037040071598e-02 -3.993961050487426778e-02 -2.407905394275944300e-02 -9.943430817082657414e-02 1.054186721430670770e-01 -3.673007687847049119e-03 -1.065136817577790329e-01 -8.946199416054544107e-02 -3.813892758217343748e-02 1.028717063256711362e-01 5.338222159904196240e-02 -7.538153334327901689e-02 4.722688942551681035e-02 7.546382699264647664e-02 1.153178106775615275e-01 -2.304080352114198926e-02 -7.933875773246523710e-02 -5.499736506340432984e-02 1.194660566950016822e-01 -3.697046686056340570e-02 -1.083811279685918394e-01 2.676873406120344745e-02 7.352516090391769676e-02 8.033550312883613875e-02 3.130732701902200210e-02 1.048515048298539754e-01 7.871950175494610291e-02 -7.407586109536998253e-02 -8.887246703397926051e-02 -4.346124975613138708e-02 -1.033327412493736386e-01 -9.818989323561123916e-02 1.133507940359839428e-01 -9.917687420539378351e-02 -9.152112562762883263e-02 -4.213311364077244880e-02 -9.882391993230477123e-02 -2.857883011688937269e-02 -6.100723590159302240e-02 2.312422980627079627e-02 -2.059403551915917063e-03 4.300422618310878464e-02 5.983106078714192644e-02 1.094815768799749234e-01 -1.064399037918453833e-01 -5.838888259677581238e-02 4.622354255133226397e-02 4.839358295716233993e-02 -8.738693469553185378e-02 -3.317353468462076738e-02 1.966758336350346581e-02 -8.332095035313041853e-02 2.952523720095953652e-02 -6.752483572774797826e-02 8.138965017333585350e-02 -4.271537447267745313e-02 -1.852931807510187212e-02 2.830139361512296059e-02 -4.566124302845747662e-02 5.310392974237490571e-02 8.826055081843539596e-02 -9.800310733089151460e-02 5.898690349306834335e-02 5.781291973275962115e-02 -1.263823858590872040e-02 6.391267395324168321e-02 9.952224887208965809e-02 -1.039798764431886791e-01 -5.059397876876142730e-02 -8.339129443690515564e-02 1.091490204949228104e-01 -1.067215012958615955e-01 2.003457587071011403e-02 1.099376378220614237e-01 -5.904907799865172918e-02 -6.548398469958890966e-02 -5.973846481346391929e-02 7.041897080484224580e-02 8.992831083075533694e-02 -6.335432231010813819e-02 -8.366184183460163848e-02 4.668201335680161046e-02 3.537627893595146622e-02 -1.176415274988640569e-01 -2.781450526498016607e-03 -1.035384787205724522e-02 1.199095014586598895e-01 5.933039564292019730e-02 -9.573619047566842011e-02 -4.326243270071231106e-02 5.729160952273937291e-03 9.104723107638879043e-03 4.397627405024970293e-02 4.676334928829176119e-02 9.871028006496426754e-02 7.291348323689236799e-02 -2.152844982663372486e-02 -6.943004066439407984e-02 4.866284177463967020e-02 -5.489721157640818638e-02 6.671944893518189090e-03 8.610886540897416674e-02 1.067175012491868025e-01 -3.147534496745763022e-03 1.065493420167194782e-01 8.126202135265761517e-02 3.100831423270988818e-02 -3.776725781618199551e-02 4.707093156361513708e-02 -1.041911605776868754e-01 5.943766504815811702e-02 8.502181204733444408e-02 8.121363830492894786e-02 3.378523530004359787e-02 1.078326657174985548e-03 -4.855775371396514606e-02 -1.061929962318962500e-01 -7.766504299464899175e-02 -7.820411957314346574e-02 -6.511469719742199458e-02 -3.994066366724483008e-02 7.855387339301103666e-02 8.507629091030316504e-02 -3.844891660547224144e-02 -5.156659581053356367e-02 1.015533616289006347e-01 1.843955035344552185e-02 6.141695766665156153e-02 -8.995709874342883161e-02 2.130209120631756936e-02 1.168429726050985717e-01 1.053564264645250603e-01 -7.337078662135892992e-02 8.708735276626583532e-02 2.914545248461786198e-02 4.322876685684307052e-02 -5.416034735590058435e-02 -5.111539640958846775e-02 2.191085658775376865e-03 -4.064535232163701828e-02 7.645287312290877102e-02 -5.407451337570078065e-02 -3.328844709845557581e-02 -8.601588304303930954e-02 -7.016425029256909141e-03 -8.143229674536694995e-02 3.803293309254973664e-02 -7.174899791169225827e-03 8.305932942974716959e-02 7.856972762451580605e-02 -8.630354107609733427e-02 3.639114609506646780e-02 1.124345092661068191e-01 -6.660398298563623143e-02 -5.160870833477985975e-02 -1.034761034679369390e-01 6.158097814291454974e-02 -5.144885811175325951e-02 -4.092440300009368703e-02 -1.072084756779195513e-01 7.243946659178307490e-02 6.286191207979480167e-02 8.653824782315588937e-02 6.876659982450533670e-02 -2.413088813705860369e-02 9.659205938513698575e-02 5.015634410834762802e-02 -1.385678234398472763e-02 7.184836537662642186e-02 6.128096137863192627e-02 -4.958973332538740841e-02 1.040236100805651820e-01 9.896256981732973190e-02 -8.657384293352091142e-02 8.519023492587041169e-03 -4.116402041475639151e-02 -1.097292136514432526e-01 3.002281361864964082e-02 -5.019665257564519256e-02 9.578987964184751402e-02 -1.146942239030697974e-01 1.371036069529885104e-02 6.273508107579189863e-02 -6.464616250250079799e-02 4.686110980690677552e-02 -7.725632575280613756e-02 -1.975654222038103480e-03 -8.043421550287434274e-02 1.146666706830729854e-01 1.084836810716183209e-01 9.854591420122674195e-02 1.168454471246677118e-01 1.032744678673780669e-01 -8.858562752837870202e-02 7.662149226497771970e-05 1.094721695604600198e-01 8.485080622860266542e-02 1.073879484053025246e-01 6.858965376871581365e-02 8.903931842728360357e-02 -1.873752823611900264e-02 8.232895548926411067e-02 1.029479101190939050e-01 6.124779053655443617e-02 -1.176703945928974787e-01 -6.575179815043061260e-03 3.990669827807064030e-02 5.562761678580346869e-02 -8.088219786953643187e-02 -1.057559244953362454e-01 1.088347732483123387e-01 -4.051483152115198383e-02 7.412647370599589891e-02 -1.758258561384935803e-02 3.911820335137872195e-02 3.839206266738420803e-02 4.407502534276228068e-02 1.507499054077007794e-02 6.965262108040662370e-02 3.254163595185396995e-02 3.396554411143362651e-02 8.831736102481801964e-02 -2.318863095610949887e-02 5.489059500824225446e-02 -1.132740109387866817e-01 5.233094863490472815e-02 5.453655850399477534e-02 -1.140159472159172349e-01 4.622189149719971302e-02 7.789806825588646566e-02 9.055618313082092197e-02 8.806823969225996418e-04 6.649202756917776957e-02 9.310527921830896725e-02 1.028476717886106229e-01 1.082330689494582776e-01 1.899418963091981105e-03 3.743547101305857994e-02 2.086990404623667583e-02 4.834731586378193668e-02 1.071328356192285947e-02 1.281937521531859026e-02 2.768092567519359060e-02 -3.927708490794486196e-02 -4.278843384721854604e-02 -2.895635041966811152e-02 -2.329499512635359315e-02 1.951240491608433048e-02 3.390816356219170102e-02 -6.307147489681891317e-02 8.046535934656456890e-03 -2.536864630681673338e-02 1.158532982574622117e-01 -1.041152833189917110e-01 -1.042363100314457891e-01 -7.210903954979426544e-02 7.310101160594403846e-02 -1.066930559309259702e-01 -1.139074684433601797e-01 -1.009868451598422701e-01 5.861781065798568613e-02 5.618178759486705531e-02 -1.690068724798100830e-02 -1.947162856642449535e-02 9.576552088957598907e-02 -8.877883669942876477e-02 -5.801389575248446645e-02 3.562041724990713809e-02 -1.094067350789617310e-01 1.589406486564351462e-02 -2.025893268933452729e-02 -4.715306324366499990e-02 9.692389274424595413e-02 -5.163794354042940127e-02 2.992414282547015136e-02 6.933376371858962495e-02 -7.909969819873771679e-02 8.484538814020223252e-02 6.463445609549064996e-02 -2.186864321126649746e-03 1.056367753481064209e-01 8.424391173129033850e-02 -6.627241581009270244e-02 -9.915896120666448099e-02 -9.603009280041704954e-02 7.103040382886943727e-02 -6.707814315091675805e-02
-1.679016865710342143e-04 -5.722101123238339249e-02 -6.944641212361767069e-02 -7.150795005834538476e-02 -6.738405498103255953e-02 5.609422132964245189e-02 -5.374199458944647900e-02 -5.180072720118689134e-02 9.010486477563467433e-02 -3.803516862789899089e-02 -1.144830071647193886e-01 -1.011510929750785021e-01 1.955487557151133760e-02 -1.208837552393125792e-02 1.143815854451962211e-01 -5.693751290296196477e-02 -2.168439814900763318e-02 -3.496268123310883325e-02 -1.673225056616436945e-02 -6.509875206916468371e-03 -9.694147665153292348e-02 -1.179429777708055488e-01 -4.395343579576309334e-02 -1.154340106407496791e-01 8.590950575816047596e-03 6.205074012118078075e-02 -4.085434677755873933e-02 -3.349785931104234948e-02 5.307484113434504658e-02 -7.260067793614542742e-02 2.530039369716294284e-02 9.628306585307846999e-02 -9.174726809176181330e-02 9.065941467171623191e-02 -1.535493620315107888e-02 -1.488360941732999598e-02 -9.838091868406631524e-03 3.891549393585011507e-02 -5.798969221545936803e-02 9.626307923099855501e-02 -5.527247084116893028e-03 7.521862368175868951e-02 -1.081919044060704466e-01 2.298683678769330996e-02 3.967689613763999978e-02 3.444126103835551400e-02 -1.927126214027863327e-02 3.163794973735931104e-02 3.718030327982543848e-02 1.192077074187214425e-01 -3.437969615217083275e-02 -4.027165516353370389e-02 4.128702601735234623e-02 1.128137127846742527e-01 -2.020965553527336034e-02 -1.055789966792626128e-01 1.553316871750615169e-02 -5.606380103486803546e-02 9.674803392027150895e-02 5.055995109939045995e-02 1.126885027269128037e-01 -3.957369327814160009e-02 6.209223479163089587e-02 1.078131207045281981e-01 -4.638511650119947483e-02 2.561572554151000936e-02 -9.881521526006098455e-02 -2.709429413877113835e-02 3.741050591288350158e-02 1.042249925132879285e-02 9.382747897599702513e-02 6.158464810984726201e-02 -5.097804477138215273e-03 -7.041373540650222584e-03 -1.124603652603396037e-01 7.971114531020812022e-03 8.649411187755040586e-02 8.464399096117741772e-02 -1.198110736204936327e-01 6.704252815438102586e-02 9.262763774638990699e-02 -7.526952161149316756e-02 1.110668338021450208e-01 5.637460820492515290e-02 -3.654447890694806356e-02 1.043861649398908908e-01 9.494440995150837947e-02 -1.065846407091561171e-01 6.367920572385410427e-02 -1.120664624099334955e-01 -2.541549623376407330e-02 -4.337229648089538370e-03 6.363219070138376177e-02 5.546851966520299770e-03 -7.336728420129356998e-02 1.865670972766680924e-02 -8.909533685191743657e-02 -3.231611084566361758e-02 -3.699112917803386302e-02 -9.263730725931881849e-03 9.945126975501328292e-02 9.579255108680559405e-02 3.795764370590670733e-02 9.091519601425623875e-02 3.102558122254650552e-02 -4.251885842319476361e-02 -1.146164442015798202e-01 -7.493713515900032873e-02 -3.681670743540808866e-02 -3.044644811971931875e-02 -6.432127858249703234e-02 2.606509089429931425e-02 -2.985455627498778686e-02 -1.064671469831917350e-01 -1.416004738211440461e-02 1.570309926518603794e-03 -4.755169828268974996e-02 -1.094538461854985406e-01 -8.892995161416375471e-02 1.547992382000465406e-02 -1.395797220220798551e-02 -9.647413921802651393e-02 1.318472545357518566e-02 5.158849580029489790e-02 4.669280443669934777e-02 -4.095576145804893931e-02 8.880347054923767858e-02 6.591748766843738561e-02 9.399022378826432655e-02 4.693088158317695879e-02 -1.780263825787167797e-02 -1.097220198671481628e-01 2.006456569874021101e-02 -6.598848817454630589e-02 1.343445645865470883e-02 5.317883306288034850e-02 3.626076887451376574e-02 -4.960067568015433248e-02 -1.915475144394469809e-02 -7.389071494894780545e-02 3.795084460329753440e-02 9.968319102773084972e-02 7.341611983089829652e-02 -5.531390217780218777e-02 -8.859909327363066356e-02 9.480707360803347639e-02 -9.974607921818492984e-03 -7.529057800417096602e-02 8.950361291155339849e-03 -1.559521077676444267e-02 3.914342660607270097e-02 8.928522423272661213e-02 9.237057369849421828e-03 -5.837525427413269019e-02 -7.199471868226814397e-02 6.687918336614612214e-03 5.647230077237502810e-02 -9.229116588194886950e-02 2.391186351321242243e-02 -2.630789438939379332e-03 -7.052125928093894158e-02 1.134687857583233928e-01 5.475235931654934274e-02 1.284807874210985856e-02 1.157041135747476357e-01 -7.346045740723347595e-02 -1.233043273360275027e-02 5.559105014060988781e-02 -2.091830226483785971e-02 -1.148188761939352154e-01 -1.352081170251297204e-02 8.439426382372258728e-02 -7.844144564940050413e-02 7.809719411128546174e-02 5.833432663939999707e-02 -2.008391332898466775e-02 -9.226684643362055571e-02 8.980612567207224561e-03 5.475370189609132798e-02 -1.290903098504578295e-02 4.785037225727026278e-03 9.986132283617729644e-02 9.487962679522843334e-02 8.105284030685619423e-02 -5.949696830759959587e-02 -3.849367231133625500e-02 5.175664564032603221e-02 -4.801560157473214185e-02 -8.894899202756322010e-02 -9.720124184003386958e-02 -8.867758149440824189e-03 -3.532032810833973802e-03 -6.690756401796947583e-02 -9.089267665010312969e-02 9.100328592904924352e-02 8.327316842427887056e-02 -4.992664761979265231e-02 6.694533637004249083e-02 -1.640442091204834252e-02 -1.004586647673569588e-01 -1.161210098010769382e-01 -5.834472575570318065e-02 -8.379084631674041383e-03 -5.849830508609099589e-02 7.573189943500543975e-02 -4.508418982136125353e-02 -3.783194171287926344e-02 6.359604583278288814e-02 8.569744893920006046e-02 2.222088236622116186e-02 8.951043131496527749e-03 9.178759174547290733e-02 3.259073791290911792e-02 7.646198531699927026e-02 -1.161274673435180871e-01 1.083438936560674470e-01 -7.021306411886832355e-02 1.004533185921007432e-01 -4.907310601423714447e-03 1.055261459678380198e-01 6.317860148985690594e-02 -3.293994388211927971e-02 1.146288702916218871e-01 9.761038390799992026e-02 -9.204633804763273641e-02 -2.141507076623713757e-02 -7.316424579733746270e-02 -8.742372767621167662e-02 -1.555106861941407681e-02 -7.918624131310098013e-02 -5.259984569467951454e-02 -3.764364401870588794e-02 -3.084329763348871156e-02 3.604451744443240568e-02 -9.239897134530969391e-02 6.428737835551251445e-02 -6.272491472320516903e-02 -7.370286586235727522e-02 -3.749758712582706988e-03 -7.284407861657224426e-03 1.409909330680514383e-02 1.179097996443032037e-01 6.332446818903436636e-03 4.986911954585571127e-02 5.258467032898478388e-02 4.974305147673435679e-02 -6.188964238592145617e-02 -1.129342130900140156e-01 6.871131041208283774e-02 1.437818748768707189e-03 4.115344232510595446e-02 -7.809981529054141336e-03 -5.767664726739913511e-02 4.154756464180395237e-02 -2.002843909469959049e-02 -5.238596806004049145e-02 -3.431704506828886503e-02 -8.603843285231063676e-02 -2.724746443917733241e-02 8.384151782660623220e-02 -5.149407702324640401e-02 -7.921544555309471825e-02 -1.436498402468601443e-02 4.455570027299837754e-02 9.906769368712081691e-02 -7.673591761945722234e-02 4.392160806136244378e-02 9.496987809139936787e-02 -9.040475158552856161e-02 5.990459797118857788e-02 -5.244554498469636283e-02 1.184001036890620362e-01 1.155612221899985914e-01 1.179871359569252820e-01 -4.838580614142513892e-02 6.631034853177592003e-02 -1.515889630699200630e-02 4.301431303354188995e-02 -8.281161355660159040e-02 -2.184763054554511585e-02 4.186632949765942135e-03 1.056779740346736607e-01 -1.115361914913077374e-01 -1.196740107815798815e-01 8.756927044556256368e-02 6.504815868623864406e-04 1.196460229834966638e-01 8.294928673918500195e-02 1.869299934044160727e-02 -1.096145998289583812e-01 5.501625758801173549e-02 -8.945457967507929042e-02 -9.755540337588992916e-02 -9.252116945583102603e-03 1.070176752173740975e-01 -1.193599469789182466e-01 6.756871787273691088e-02 3.617353170788631389e-02 8.384826236980655323e-02 6.350487711038416139e-02 -1.096210580277340030e-01 8.816938360928011642e-02 3.222633187868881310e-02 -1.030468648839226453e-01 6.785562484278989670e-02 -3.649481309967203546e-02 -7.437410677484197763e-02 -1.128062139657772800e-01 -2.920287248042552353e-02 5.920600569100578636e-02 -1.095377151512620384e-01 -7.378925877766337460e-02 2.103128547634305900e-02 -1.166816010053701308e-01 -4.625610310019639959e-02 -9.520799254696733771e-02 1.028370519752544177e-01 -1.116346064861939574e-01 -4.698616212409519044e-02 -3.189107929508612493e-02 -1.020601993795833273e-04 -7.149791819264680881e-02 8.380956750047874326e-02 -4.962203703068782112e-03 8.006617795918988256e-02 -8.702957217536799739e-02 -1.102315502620992982e-03 -3.694912790956475512e-03 1.268415445935236474e-02 3.633169285102325063e-02 2.239094737673627544e-02 -6.803317664801614151e-02 -7.435878689868136160e-02 1.189991033865746284e-01 7.346018761533729124e-02 -1.882986810099318564e-02 -8.492803111184102360e-02 4.102500473843950779e-02 -9.129686617004845184e-02 8.316080191062333316e-02 5.230859847074956215e-02 6.659258567769388293e-03 3.379902301537346387e-02 -9.861930456840137249e-02 2.493840720176135339e-02 -9.241197616557697558e-02 -4.161309467142443319e-02 -1.774886904412212307e-02 5.310467661650886129e-02 -9.331948085054120323e-02 -1.522464454156033375e-02 4.744526797783052419e-02 4.379788481977661685e-02 -8.078831297037536441e-02 2.966810958029103551e-02 5.588372469197033787e-02 2.773039483054853815e-02 -3.019673409249362672e-02 -8.808261142717420389e-02 -2.880263885167709537e-02 -1.192326845056122658e-01 -9.724502106991478323e-02 -1.107655424311525250e-02 8.082743767286446057e-02 -3.984910259983118208e-02 7.331859250458874766e-02 4.005089873889000618e-02 -5.551536251693370283e-02 -2.465761287796905399e-02 4.838817866430955572e-02 3.969070484736339499e-03 -1.045699379286923331e-01 -8.492511785139492120e-02 -1.091030808547360648e-01 -2.451770446371738521e-02 1.109384847289294207e-01 3.291406690112247402e-02 6.341350569290604700e-02 2.289254291449807632e-02 -8.477469141527610441e-02 -7.317618548091756048e-02 1.057642343045848976e-01 1.195566231576484784e-01 -1.208445704775620855e-02 -5.308547380316903930e-02 4.347963406663304942e-02 -6.049713640330524334e-02 -8.730801696829788849e-02 -4.067047967898793082e-02 -3.922151184972082205e-02 -6.954597937155360121e-03 7.154031961300577613e-02 -4.324708479788831605e-02 -6.910643905642277485e-03 -3.114446760617896326e-02 1.187722589727724931e-01 9.818999012941834192e-02 -4.755139409941974704e-02 -2.458854096549038803e-02 1.016016746439253882e-01 1.791894944943031587e-02 -8.679346554119621304e-02 1.028950926648535269e-01 4.853278151023540654e-02 -9.517942701135430339e-02 -3.424924232286717662e-02 5.937151670295406913e-02 -1.672585198608299295e-02 -2.911439810357634161e-02 3.579869346142788844e-02 -8.209796104007072159e-02 -7.397488907831413496e-02 3.240249849937548721e-02 2.429005550190227458e-02 9.753712946979536946e-02 1.040124444274359850e-01 -1.932792641537736666e-02 -1.257564849720600730e-02 -8.794546524830443301e-02 1.031341433619686054e-01 6.274575404443380466e-02 -6.085807015598115183e-02 3.184271343101607865e-02 -1.196781789489700654e-01 5.656585130329350175e-02 7.243044249235858212e-02 5.839294868080341372e-02 -7.451772816112825493e-02 -7.953428263231229756e-02 5.369531213942094205e-02 6.129520103043095691e-02 -9.934313428800460588e-02 -1.428275683082266823e-02 9.101374054973157546e-02 -4.983645472020239997e-02 -3.232733636526527454e-02 -4.371615944033475920e-02 -4.930367503864628576e-02 -4.860733652364414292e-02 -9.700235577467079817e-02 2.048358839947428400e-02 3.284135973253093921e-02 -6.214337508983372449e-02 -8.477712453673395820e-02 -6.983574691843984217e-02 5.120331521892371174e-02 4.223775247836511482e-02 -7.097394712112800597e-02 3.738880868429103610e-02 -2.667935536090262905e-02 8.037076491217709506e-03 -7.678554272770572731e-02 -5.285222261575656111e-02 1.019484575038027696e-01 -7.746299596168651491e-02 -9.993599627197448376e-02 6.676574318866884683e-02 3.422372054484962289e-02 -5.368990326614810071e-02 -3.119269985126446598e-02 -1.133752287970243439e-01 -3.406929358314181311e-02 4.188225323333849559e-03 -8.889274755868166455e-02 2.396085591375388124e-02 -7.361996885296998028e-03 -7.434290081113566206e-02 2.912466671881605573e-02 6.794079653783874351e-02 -1.129233180249136215e-01 -7.375542016244615584e-02 -1.000964636044474054e-02 2.516789724452825339e-02 9.817551752259423559e-02 -1.171656250649649039e-01 -1.157109048864311679e-01 -8.891856534218692265e-02 1.635099744328752380e-02 -7.866716143981938858e-02 7.957088847642812546e-02 8.801443424193772236e-02 -5.156776574802891810e-02 1.076859819679903962e-01 -2.847282393959493785e-02 1.021895518721634977e-01 -5.137169938709139350e-02 1.832190632685870568e-02 -5.105989802639675224e-02 -4.946976201181739474e-02 -1.661458125819458009e-02 -6.067638543579360194e-02 5.758050936639416695e-02 5.898831665757964249e-02 -6.532290922468828032e-02 -7.229347116602276302e-02 -1.106310170954505623e-01 3.653182108456751176e-02 1.952138842900311144e-02 -9.304315293294684874e-02 -1.327916865121354928e-02 9.837596866491249425e-02 -1.013145102723441299e-01 9.341547411668496559e-02 -2.637459517090628980e-03 9.883318099643842447e-02 -4.915007989196407134e-02 -9.084191942357144889e-02 -1.068857830785129442e-01 5.043342943102513409e-02 1.034499868020150593e-01 2.210333260677493916e-02 8.497428001118104146e-02 -6.065274581821449712e-02 -8.582090686568089044e-02 -4.973419732747924593e-04 -1.094948156777738324e-01 3.779711487513848223e-02 6.009783279281030732e-02 4.373431902983576647e-02 7.774533540567085677e-02 -4.116541196920736612e-02 -5.617076758994547780e-02 -2.475247044789105622e-02 3.428323898607499309e-02 -8.806877318577950586e-02 -2.248594940213299864e-02 1.136690509587874320e-01 -5.117239677169611867e-02 3.070999380989017369e-02 5.738674644591240659e-02 1.151231338604879195e-01 6.817696600308012500e-02 -1.816475341182438585e-02 8.018483564045469913e-03 6.506890116744926122e-02 -7.407894365150537175e-02 -6.759755673333225912e-02 -1.028083996456377602e-01 -3.392767871967436455e-02 1.043582469482050024e-01 -1.450135151965893654e-02 3.306799451015599023e-02 -1.068337216623639341e-01 -2.884017747691222655e-02 -9.854211308470203767e-02 -4.114919376726200451e-02 1.745165448394991881e-02 7.665662962270780589e-03 3.042364671493111294e-02 -8.624057353941171067e-02 6.861134612340391570e-05 -1.113980758977863444e-01 1.115541327002994298e-01 6.329089609459548349e-03 4.313598927905121228e-02 1.001698515337973994e-01 4.580844548426182827e-02 -6.449710451627636842e-02 6.489580193761415594e-02 5.896582978145920029e-02 -8.559767125513084718e-02 7.681821543202943525e-02 7.891765841427192396e-02 2.229992829208171656e-02 9.496836265322680659e-02 -6.262666260620872172e-03 9.701493739826141938e-02 -4.134420961517183690e-02 5.850804090633712762e-02 -1.149741701866130450e-01 -1.361324018320592133e-03 5.223632502053673909e-02 1.491150065579480155e-02 -8.056622745427194365e-02 4.761994093486807134e-02 -7.925749809878618324e-02 3.830066744778962140e-02 -7.722449496526873070e-02 -1.717826297741910369e-02 -2.257446193115714150e-02 -4.170128459104743834e-02 7.450068367318130047e-02 1.027057652990215342e-01 1.346514306731849686e-02 -3.601560165159363447e-02 4.419298685109310232e-02 -3.842762377257354089e-02 1.085213259041077904e-01 -2.458337229973241167e-02 -1.192450082333284256e-01 3.183006437342650319e-02 6.074665414059471358e-02 8.714857293467556665e-02 1.678299439795014059e-02 2.005476625593891060e-02 -1.037567944624171040e-01 -9.633834096378883494e-02 6.448390028714306998e-03 -1.088731941276862014e-01 -1.859738560193321955e-02 1.830601951656837811e-03 5.678974818621926324e-02 6.010721873558055872e-02 -3.758989630673999216e-02 9.342467478625923749e-02 1.161819455754694308e-01 4.705030193654846649e-02 -5.379803309954334090e-02 -5.704772305140839994e-02 -3.953576060155856997e-02 1.182571717359616470e-01 4.645732703247010265e-02 -3.865037496047948884e-02 2.603180556050244121e-03 7.546276398262716234e-02 -2.019925270660623273e-02 -4.293539770733832694e-02 7.497558794835351703e-02 1.012079167548843028e-01 8.863832990293615821e-02 1.054304957494239803e-01 -1.022006224689471776e-01 1.132461177854659218e-01 -6.257338772172851837e-02 7.558250145351169680e-02 2.345044822770442350e-02 -1.795870613780602143e-02 5.901822901122033560e-02 -5.504689774196588892e-03 8.942060729151951604e-02 7.381728184107586022e-02 -2.757339679778725294e-02 -6.047473385092982240e-02 8.951974867392054058e-02 -5.699654131855531880e-02 8.604493128545664948e-03 -5.848092139861221089e-02 -1.011008889144578288e-01 -1.617140457684623778e-02 1.648501372654070929e-03 1.102202988918745408e-01 7.807911637791997705e-02 -6.665060137617065394e-02 5.127647123237738525e-02 5.094022418751711911e-02 -4.306975063565421369e-03 -1.175090766778426332e-02 8.810730587916074108e-02 -8.279348209168206629e-02 -5.083258493120948462e-02 -3.679570111533612964e-02 -4.998637737204408849e-02 -1.042540622074554502e-02 -2.106946775552745454e-03 -7.148503253420512848e-02 -5.021893249110344348e-02 2.149435772550578605e-02 -1.341211760343154202e-02 -2.733823015229666642e-02 -3.431864173861362555e-02 7.040465247150223815e-02 -7.472578267614973790e-02 -5.834109125326017442e-02 -9.495212065227785769e-02 -8.605157610405171631e-02 -1.103442388524137341e-01 -5.980469026230442880e-02 3.727177385151264621e-02 -7.021093356237860517e-02 -8.966023280719769006e-02 -1.117347434302030651e-01 7.443953975954348268e-03 1.026471302200093749e-01 5.132787599018961977e-02 3.900203672415086809e-03 -8.637689043060309269e-02 2.075038202534157383e-03 8.252462755553643947e-02 5.387490604225178559e-02 -8.046316295828279119e-02 3.014039673296303734e-02 -5.744627769742652323e-02 2.078166705824849303e-03 -7.415764550498965546e-02 1.072474379816798218e-01 -8.556125919016542569e-02 -1.189816429728282193e-01 -1.128629650206519758e-01 -4.416544657222243320e-03 -1.178027475916136185e-01 -9.987819366592440296e-02 -3.308290901129622152e-02 8.718033233171246232e-03 -6.000399062100836289e-02 6.473177477029917748e-02 -6.346505259846416114e-02 -1.012512252625616949e-01 7.906221479406549957e-02 9.604496610768409326e-02 -7.155907144345317883e-02 6.270968820566469315e-02 2.399738554933913970e-02 -8.719157726316120738e-02 -1.211100550069126036e-02 1.154131999109439533e-01 2.198764611761261367e-02 -6.372689329974745576e-02 -7.124313635200815731e-03 5.384452351408675064e-02 -1.128256896080156446e-01 -1.006612288370934416e-01 1.074571623239695128e-01 -3.167149080462376698e-02 3.880093131011652652e-02 3.246878926464136228e-02 1.029298604091352654e-02 9.584607876306278085e-02 -8.891057518414852145e-02 1.928629301193393597e-02 8.514465133884777104e-02 8.400689328349630891e-02 1.277259797626881244e-02 5.027156292340337340e-02 -5.856245610208424268e-02 -1.077384008842615232e-01 -1.009848178911890576e-01 7.473319070801515140e-02 6.794859829056471012e-02 -1.035926852676165300e-01 -6.563903491367040210e-03 8.608218803328923641e-02 1.183910552973419794e-01 -1.181888296613815559e-01 3.148159000828765208e-03 -8.215494769908136818e-02 7.710406266394700947e-02 -7.537883719007901218e-02 -2.915570398040280564e-02 -8.555766308994058877e-03 5.497279353534648139e-02 -1.156675835310342765e-01 -1.001196636727836875e-01 7.622207410133477468e-02 -1.085788912971247661e-01 -9.160329491679788938e-03 1.132402366618613654e-01 2.069353457884390290e-02 -2.436760279897630388e-02 9.300510692711308480e-02 -4.116706606850241423e-02 -7.397548643331569584e-02 -9.480231130027756692e-02 4.867557368197497625e-02 -8.564142583997125246e-03 2.546851253395887582e-02 -8.561657146841347710e-02 -3.978241831611348256e-02 4.231617599898221393e-02 8.104083112738058592e-02 8.244691983449947692e-02 -4.317784379541454720e-02 8.660753501515544572e-02 -1.149125589984334866e-01 9.763333160254800136e-02 1.334667977619063972e-02 -7.048663927299116116e-02 -2.797645598066920980e-02 2.424175940550554742e-03 -7.149346579918472444e-02 7.201254391654929310e-02 -8.530408408839636192e-02 -7.065126733233478840e-03 6.529257285298833979e-02 1.013509927602881111e-01 -4.705745338358616192e-02 4.857777500418475336e-02 -4.096737256963983720e-02 2.203974063971556041e-02 9.147675037893085448e-02 2.749520824950774101e-02 -8.807481904521216598e-02 -2.069365500532759083e-02 8.100520748084844014e-03 1.804737840496564716e-02 6.064620473111859145e-02
6.025142632614116645e-02 -8.285550256767369726e-02 1.031246804455391575e-01 -1.037702620229962180e-01 1.492487236241102355e-02 -3.642528389724467019e-02 -3.809644133720706261e-02 1.144815661695926245e-01 -4.982454522340876157e-02 2.854854060707961994e-02 -6.849639099944077048e-02 8.290164764222804350e-02 3.670959872380966105e-02 4.379717222863452331e-02 5.630199734282648194e-02 -3.168899957114836019e-02 -2.068601397036211320e-02 9.736068933602259889e-02 1.101932249887807025e-01 1.161996511937012921e-01 4.926729607674870670e-02 4.875146250309519980e-02 -4.831468479587713860e-02 3.088245795026256513e-03 5.628859562984755982e-03 -5.180204021878867526e-03 1.013073535401765035e-02 8.911962139532059179e-02 -6.123839161784237761e-02 5.815938390753977449e-02 -1.039768418818356882e-01 1.435737075417722886e-02 6.475001816044212433e-03 -8.078751981452962638e-02 5.893059414897161563e-02 1.193610118221735406e-01 -9.443320707928132274e-02 5.595175026923104866e-02 6.637609461943638767e-02 -7.426788097297631897e-02 6.865071193917188230e-03 -9.897232768901545463e-03 9.750095731576427505e-02 -5.422170692927498481e-02 8.853100173371569737e-02 -7.051126211319175274e-03 7.225597361831093135e-02 9.008181366532894141e-02 -7.537831392889549065e-02 -6.040158888348359095e-02 6.335857484495024949e-02 -1.098849000926768599e-01 -8.130460814102265232e-02 6.734890969971507602e-02 -5.286578779525816230e-02 -1.827428850679595207e-02 8.020812434674404190e-02 6.904670220049466400e-02 -9.765782353208485311e-02 -6.356246106320120881e-02 3.499369206109340102e-03 -9.632966262583252115e-02 -1.037650399048058447e-01 1.784480676128960552e-02 3.740616249346023769e-02 4.018869352316845056e-02 1.075981821582416287e-01 9.099941172240499920e-03 -3.773020205170393715e-02 -4.888578290328146614e-02 -2.211736766535719878e-02 -1.008744842775467637e-01 3.083125386620799713e-02 -3.985038611073439541e-02 -1.181378733472107645e-01 6.385661071559747826e-02 5.549501281943891584e-02 5.173534151012365578e-02 7.326785186201434374e-02 -1.132574499538432505e-01 1.372867876794706121e-02 2.015259423142920503e-02 -1.043763823356819720e-01 -8.488896034565765469e-02 -5.797675049788792584e-02 1.190028484312897761e-01 -4.592001254048190539e-02 -3.883461984547803558e-02 -3.439592469540370123e-03 1.153624697396800347e-01 1.041448433662374440e-01 2.206859009349029788e-02 1.176262953984842097e-01 4.998092375641796647e-02 -1.090342457285604222e-01 4.888546545243946384e-02 7.448368815267275567e-02 8.344396768246387097e-02 -5.643681408225405260e-02 4.268305986249817940e-03 1.163671214551386390e-01 -6.210990477102387719e-02 3.322983135767612617e-02 5.990443217561128297e-02 -1.383780430975085907e-02 6.221741003810138393e-02 1.045799734838491202e-01 2.330707490059311104e-02 4.975188400687388657e-02 -6.244810101400019575e-02 -9.876978165655640740e-02 5.261252438642338713e-02 4.345375463770045910e-02 -1.729580924674087306e-02 -4.603862032596106602e-04 1.317457689948037247e-03 2.322199751428091763e-02 4.749264129787961197e-02 -7.476940331656281580e-02 -4.583677838536430460e-02 -9.926650674858025769e-03 -3.384105329242184657e-02 -1.074977493361059383e-01 -6.652810767284539351e-02 -1.163626067187138180e-01 1.831552537778197154e-02 -1.621554999158274224e-02 3.576368483243386187e-03 2.378113097433381951e-03 -1.472800604870420915e-02 9.359210050964006378e-02 4.736283217223727360e-02 1.805829786780818735e-02 4.595994431464783814e-02 -4.329517203736607533e-02 -8.782796925354960371e-02 2.715952919011882516e-02 -5.908873679915077615e-02 6.765111164402107247e-02 8.325955658556261074e-03 -9.117933833039879032e-02 -3.237286557758006778e-02 -5.939840942470408364e-02 9.944429204664972932e-02 -5.842315881453315901e-02 5.921657041697359070e-02 8.321322075604309365e-02 5.413798885983364673e-02 -7.546622202124614320e-02 2.940130241898084029e-02 -4.814693412751276658e-02 7.793685853590578971e-02 4.574702096685875907e-02 -4.069274342785553222e-02 1.349723114130471635e-02 -3.701528373173423869e-02 -8.307132642297190839e-02 2.961119238441661805e-02 1.025063729382795497e-01 -8.707780468987796896e-02 1.963931820505357417e-02 3.686677941987773210e-02 -7.136439769028585234e-02 -4.024854661106298803e-02 -1.451584615439753534e-02 -9.339538852974313410e-02 -2.182215627790222434e-02 -1.126580885293372858e-01 -3.579424487048464554e-02 7.921411417972773483e-02 -5.191035878103879286e-02 1.177296203344635472e-02 -8.620442030550436174e-02 5.693018905396055040e-02 -1.196505267470198697e-01 7.401714983068835574e-02 -7.994258340216990610e-02 3.639531000618950740e-02 -7.174558461079555416e-02 -2.765343958456636941e-02 -3.588180296185772278e-02 7.863262618622968159e-03 3.581100646060350612e-02 9.697541575833262817e-02 1.023853378322766017e-01 -2.843814090832229302e-02 -4.471670362626525841e-02 -8.478173962281979059e-02 1.179803599075237852e-01 1.075581078981471261e-01 -1.028604096282326880e-01 5.988893822511359710e-03 1.096696528794994518e-01 5.385847306111615773e-02 2.774217870690581789e-02 6.998576284950747128e-02 -3.760917441335442923e-03 9.241209061157695803e-02 -4.987056872311429467e-02 -1.834548869336975752e-02 3.863741975777643112e-02 4.127934072616365468e-02 -6.846245914991563875e-02 -4.576567179521980056e-02 4.130747813644250477e-02 4.236000566416078805e-02 8.417242205385908060e-02 -7.006938087069494725e-02 -6.141010613252441408e-02 1.044571074170858038e-02 -7.366251236430437777e-02 -2.646158382608342075e-02 -2.072827799857096531e-02 -2.333482862811481207e-02 7.792180571951537460e-02 -7.098381732408756695e-02 -1.039628848827602869e-01 7.631503581059567720e-02 1.148630618783653690e-01 -1.130076905795619757e-01 3.520447697085815619e-02 -5.590139219885505162e-02 1.143287256106662597e-01 4.536169098421294343e-02 -1.082142370850124463e-01 -6.432046042642275419e-03 6.596827852037376316e-02 2.443543693642771797e-02 -5.506157906601914787e-02 -1.924131776060029886e-02 -1.227491019108324644e-02 1.890850783580408367e-03 1.232118523001249355e-02 3.551403239067338347e-02 -1.612916752652029939e-02 1.015472980274587100e-01 3.116202864149425489e-02 -1.148847836443164794e-02 -5.265248715972688232e-02 -1.007887305294337815e-01 -8.310613649969267325e-02 -6.532232025920414742e-02 9.924962196135250769e-02 -3.859083908952849751e-02 3.670871390823046698e-02 3.595156647284422635e-03 4.242367996090706805e-02 -5.583721552962737922e-02 -1.097800802185951580e-01 6.925977762946333716e-02 3.292327994547547543e-02 1.561492661052057973e-02 -9.650788490561168498e-02 -8.939892084796945138e-02 1.162356836985994624e-01 -5.422390636402533992e-02 -6.309722156244210178e-02 6.565438620617675136e-02 1.199560066368188238e-01 -1.011671494173372599e-01 1.046618444312841234e-02 1.122962804725007868e-01 -8.245275313567630715e-02 -9.269103925372899899e-02 -5.243164287709001226e-02 8.452125573849020301e-02 -1.034133485389513718e-01 -6.552903753197716896e-02 -1.024226091320419307e-01 -5.361301550840913421e-02 -5.734915530987844123e-04 -6.934556400668867582e-02 4.701777805078527495e-02 -1.049910315975746689e-02 9.745670737597128541e-02 7.421178333423678053e-03 9.087010812649315428e-02 -6.535687375276905131e-03 -4.290607215932529250e-02 5.099557051899605842e-02 -1.425773015492295959e-02 3.695338509865045418e-02 1.056410290919456985e-01 -8.132373836302475567e-02 -4.879628977917356558e-02 -2.125331773206463881e-02 -1.104526858623714608e-01 -1.006208707487165899e-01 -9.679715265788825518e-02 8.294693353223264731e-02 -1.162499048553379821e-01 -1.129694831520607068e-02 -5.896911442131803210e-02 7.418690889920226406e-03 1.190330504524208799e-01 4.906062882602188480e-02 -2.219003101193103844e-02 -4.920342483129354350e-02 3.530427237758396175e-02 5.434884615595025892e-02 9.018464860566871577e-02 -8.492934208980069954e-02 9.881715189267961663e-02 5.841413532550926435e-02 1.158067320448184223e-01 2.578481333064783221e-02 -8.696729545907808112e-02 -3.560499376049693077e-02 -6.283422623106113547e-02 -8.119361915803754992e-02 9.572365873882796028e-02 1.104504047540793843e-01 1.030475792984017203e-01 3.374906700019716932e-02 -2.376331170330980846e-03 6.462448903745149353e-02 -6.434904465954932595e-02 1.761710657029363913e-02 -7.101476441652190830e-02 7.034560763172936770e-03 -2.410626378217234356e-02 9.845231074650440117e-02 -1.152440443559529515e-01 6.213684802854416156e-02 -8.439357838638100739e-02 -3.167635212455681415e-02 7.901956942785615112e-02 1.151957844716662016e-01 -1.021953783816678396e-01 -6.555782161135345620e-02 -3.061092397497010287e-02 -9.036792366301783785e-02 -9.421903996002127524e-02 -6.264998799641562088e-02 -9.800003423644812472e-02 -7.744072210849123339e-02 -7.235407819695412190e-02 -4.269022262761902609e-02 3.848296256582012242e-02 -3.156931493686604417e-02 1.933796374525276196e-02 -1.150703177744722694e-01 1.114344747265372804e-01 -8.991433867317503992e-02 -1.760907755347394799e-02 9.605001564643322887e-02 2.838424053783880630e-02 -1.208342316538374428e-02 -1.129754265663196477e-02 -9.434116373924614218e-02 -1.571592491443071782e-02 6.868459486108788314e-02 7.352910812619639636e-02 5.018309429484213435e-02 5.169085661678923804e-03 1.062040019658432866e-01 1.023101291113605038e-01 3.139194757905994226e-02 -6.025723732806523292e-02 -5.168326818284188495e-02 -1.115399852129513730e-01 1.028989194380050542e-02 7.958002007284956103e-02 6.882918111635225045e-02 -1.090309289874815679e-01 5.311590901572935119e-02 1.020436576176973476e-01 9.689153070889028330e-02 -8.175346301085323342e-02 1.147050251043320590e-01 -9.490674056123737934e-02 -8.044691187135724619e-02 7.455164236569739034e-02 -8.123186423524511590e-02 6.972843235810310958e-02 -4.046571845173700666e-02 -1.072379746416915608e-01 -4.540090691185764971e-02 6.056550133833327187e-02 -6.823447882195673997e-02 1.197878961151691013e-02 -4.016643435774197579e-02 -7.280624800027224452e-02 -8.284219480572821426e-02 9.587682347465431576e-03 -3.694166339100043994e-02 6.165681912148004984e-02 -4.892185210879035351e-02 -4.013367475694329389e-02 -2.858014047619880649e-02 -9.979404871477076666e-02 5.952501024876810654e-02 1.969094797633577643e-02 1.152471093808874469e-01 -6.094311691850876067e-02 1.003319088544263049e-01 -7.290269171027480288e-02 1.021619804622833638e-01 -8.146679277150994936e-02 -7.571822950210754799e-02 -7.146358130946348086e-02 1.176784015037329045e-01 3.745384474867571867e-02 8.936680758278275905e-03 -2.565296593472871090e-02 -1.112000280157527388e-01 5.921737722986145092e-02 -7.412774453198918423e-02 7.147111779714765412e-02 -6.932068607404308358e-02 -3.006034995081897920e-02 1.082495284105263467e-01 -7.788703453065964899e-02 1.301764078762979171e-02 8.413317509256307281e-03 -7.446165542545210569e-02 -9.779676660822092527e-02 4.779337303101460765e-02 -7.205890284884676478e-02 7.364451305954325400e-02 -2.313549370332937394e-02 1.144511574570315215e-01 -1.171887946788385121e-01 2.871762733651461730e-02 6.033702489066100627e-02 4.269232459965369153e-03 -3.168572012938671023e-02 2.065563389720762033e-02 -5.644272791998911076e-02 5.346758321978942186e-02 5.535116506018331051e-02 3.042755438878497198e-02 -1.025815852908812803e-01 -4.788662522675568578e-02 -7.225294707164653385e-02 1.145769325872131039e-01 3.173093911208899054e-02 -5.625716194345847798e-02 -3.814794363253382059e-02 -8.019614978868362665e-02 -5.488944544008902970e-02 -5.824787559041649104e-02 -1.956867672775991496e-02 6.827096750410335813e-02 3.545090778685794364e-02 3.568991871973253849e-02 1.430672018135772938e-02 5.575272498292530021e-02 -1.202387356521406048e-02 -6.640005538915674799e-02 3.741392163071877164e-02 1.088060666237988805e-01 -3.056640499351909179e-02 2.648039660235881887e-02 8.055962032927127536e-02 -9.390156404637754750e-02 -9.753114762730015486e-02 -3.864302292246768467e-02 -8.262442118867970031e-02 4.184459445680141498e-02 -5.356234091536074549e-02 -4.691458883332187690e-02 1.726867438361984197e-02 -3.253202162089878502e-02 -2.091278684746812611e-02 4.607803068401436497e-02 9.759784080712066712e-02 6.752986184489767618e-02 3.339864951029253293e-02 2.345550690819273032e-02 -5.100988043613019496e-02 8.018378976101500633e-02 7.648566114766031099e-02 3.208020403984868096e-02 -9.336727966220420560e-02 7.754929528571713471e-02 6.096511070466104076e-02 -7.776054769114010279e-02 -5.862906503318520562e-02 8.438475280306848014e-02 -4.266412046998259433e-02 2.647588690066107753e-03 8.616758158475651408e-02 -8.976757635744603281e-02 5.384061497578421229e-02 1.181549505704965197e-02 -1.199919156436805717e-01 -1.804039779001155586e-02 1.137856970923800393e-01 -7.928293556042204093e-02 -5.273255637600726686e-02 -4.780317438554454457e-02 3.622393749963820353e-02 -4.837555051143106744e-02 -3.865029115977787477e-02 -2.432136143418457686e-02 -5.087504849692348063e-02 -1.020821627289491274e-01 -9.815912227278224267e-02 -3.786349639250354004e-02 5.126798948203772910e-02 4.230509508922367101e-02 4.943809328291220995e-02 3.168520274099845269e-02 -8.957389545077136528e-02 8.521089267948228629e-03 6.240439164200764499e-02 8.210611792422320421e-02 -6.469611412018894114e-02 6.358001263677526271e-03 9.298785146515248234e-02 -1.001051228936716275e-01 -9.387462831151117959e-02 -8.216559898541775375e-02 8.161317238161588938e-02 6.341907116468400996e-02 7.930434269383596080e-02 8.162530402897949511e-02 -1.195935909784984208e-01 -2.050504147564617685e-02 9.831485423627137066e-02 -5.780054009864940556e-02 -7.822232025386691157e-02 1.167546975602642423e-01 -1.823133115420252914e-02 1.083274271840981573e-01 -3.572825323855237378e-02 5.700551936430636735e-02 -1.055930417403106863e-01 -8.801556857336745310e-03 -1.814314177886235113e-02 6.781238910027304057e-02 -1.328847524031387395e-02 -1.439166959159526860e-02 -1.140422162280204516e-01 -8.753242020250284749e-02 -6.968698199502371127e-02 -6.691877227497530778e-02 -1.113011912111071117e-01 -3.548112480107012967e-02 -2.913965815587156449e-02 9.976631103884275875e-02 1.377068094855216085e-03 -7.562179542522565190e-02 -8.395627886457915356e-02 3.832748720233858375e-02 -4.954888184211102276e-02 -8.413357835460522072e-02 6.221335954704815263e-02 -4.763661511647594715e-02 3.085772032188424663e-02 -8.562562994136652117e-02 -1.174540952542243721e-01 -2.088760320229254841e-02 2.031363825935300627e-02 -9.375323512362192246e-02 -3.094111241334389362e-02 -7.167147675619919833e-02 1.029322288498424331e-02 -3.542537966939615646e-02 5.624289464624973589e-02 2.907863867193566376e-02 -9.162674441396150005e-02 4.138528927731552343e-02 -3.642169991881122337e-02 -2.604114438891459715e-02 -7.030245760464390314e-02 -9.338985860045492804e-02 4.500013323525967057e-02 -9.153588880053957488e-02 -6.964737111441787754e-02 -8.868459104021955697e-02 1.006250739483085244e-01 -2.777597917337643052e-02 8.122884087912549123e-02 -4.922162161070021968e-02 9.701409404324218277e-02 6.954064895287062620e-02 1.012551216474548432e-01 7.279235594384153574e-02 -3.760068055543074050e-02 1.216507238226144372e-02 4.587938058205934255e-02 -1.653497152998989472e-02 3.195552668450910017e-02 4.469836193653584089e-02 7.454245648997109841e-02 5.662778704977375344e-02 -6.357849063765586006e-02 1.123224651744007541e-01 7.075046618050928604e-02 1.182522181896328017e-01 9.595113428914489595e-02 -6.848819914170610479e-02 1.395900952585893418e-02 -8.715999546446641377e-02 -8.940723408574713371e-02 8.213989490450498976e-02 -9.900051019465480606e-02 9.895715341383881647e-02 -3.770386176700048220e-02 -9.284588087886554153e-02 -7.046262649612311524e-02 8.301036254602819908e-02 8.166728095016748123e-02 -1.041132196888326089e-01 -3.727737203045465575e-02 -1.119837238666679669e-01 7.909662246817689146e-03 -4.439415055334312854e-02 -1.050118312018607919e-01 7.953451181911017076e-02 -5.507098698071608012e-02 8.286725667955810448e-02 5.183431599474486173e-02 -2.583301587263509003e-02 7.444281662423193890e-02 -6.854635247542573140e-02 1.124577583550358528e-01 6.536040017450517325e-02 -6.753778745672223138e-02 4.040796960020245909e-02 -6.396186726530220246e-02 2.652806736837184931e-02 -1.254255265482991100e-02 7.566994395595880163e-02 -8.468038287524881635e-02 1.994487956894858138e-02 4.546810658649619308e-02 9.735786341514562903e-02 2.859027280955950268e-02 1.306867461106259176e-02 7.978704223439594956e-02 -7.721172454877245350e-03 4.042862889908913071e-02 1.975328615665497556e-02 1.162719885496902861e-01 7.770785130860172196e-02 -1.659290773706741107e-02 8.716413960634783464e-02 2.170842182704266210e-02 2.394815445781425800e-02 3.258439950439179222e-02 2.637213710901997743e-02 1.097539304904951440e-02 -3.306527528881668399e-02 -8.047029550682469057e-02 3.360414889087753876e-03 4.766972397164911945e-02 1.164403526013055301e-02 1.036475851402310633e-01 -3.899655436493518201e-02 1.908257080637026926e-02 5.962464316064383651e-02 -3.050159749697015088e-02 -7.817403867942369911e-02 -7.147067544461593869e-02 1.284750877858867324e-02 4.690608369125495725e-02 -4.479608790022970854e-02 6.564893163865026526e-02 -4.181232677291987776e-02 1.127491503801217321e-02 -5.188407609878586957e-02 -1.098218060437767402e-01 -3.433408106132211646e-02 -1.947645768982197989e-02 7.080698994735090679e-02 4.179164906101243138e-02 -7.743696199284771930e-02 -8.779542366947426513e-02 4.300232478641780043e-02 1.368216238212272007e-02 1.337295866941057287e-02 5.870047019729721094e-02 1.030610465178634916e-01 8.594425425728549617e-02 -3.992556128119856274e-03 5.069268419437272799e-02 4.881554281491246039e-02 1.153945552609634551e-01 -6.816044221186870478e-02 -9.428899530529122330e-02 4.983927769918169992e-03 -1.498167049424480035e-02 1.100344366959615794e-01 5.057793555217940384e-02 -1.051522929234452869e-01 9.545752463512063857e-02 5.645267592326308481e-04 -2.906909275924897396e-02 2.506459249216225205e-02 1.102131289043795093e-03 2.664789141267229211e-02 1.151047695792809522e-01 1.103865620692537075e-01 8.218392515319361546e-03 -7.229408394452099818e-02 -5.505253078823860169e-02 1.297712581484555816e-02 8.514538621220063552e-03 -9.915413231102361558e-02 1.811175834822414954e-02 -8.553277124647394591e-02 2.244258973193513640e-02 -1.662750154617888276e-02 4.249180325868198715e-03 -2.452021752593976089e-02 1.080771516087661033e-01 -6.123049686121562196e-02 3.091608996181627322e-02 -2.773398001393041767e-02 5.570105795837185236e-02 -6.429566154609719919e-02 -2.486076351908124427e-02 1.816090299891534587e-02 4.577169905562991636e-03 5.384796868797572800e-02 8.399634085439938724e-02 7.833384474495924676e-02 -6.950302553564499664e-02 -9.947183882863835924e-03 -1.793878746821363224e-02 -8.851842881028978982e-02 -1.130714921261437855e-01 -1.082174383958385555e-02 2.852506238424840079e-03 1.170000266475146322e-01 -7.967902016672451238e-02 6.121099611821639863e-03 1.031849740647866887e-01 -8.302749522803150317e-02 -8.990537133039561146e-02 -8.234190646485115006e-02 -1.063069009906669055e-01 1.102211490687841910e-01 1.030550868410702037e-01 6.732951935514358555e-02 -6.982283596650845636e-04 -3.979159497660159084e-02 5.095038839534873909e-02 2.012409409147902783e-02 7.818512814416900270e-02 5.308533854706359856e-02 1.180461515111609350e-01 -9.179056563427080706e-02 -9.540695317681552323e-02 2.740935751659157038e-02 -3.465542781198771571e-02 -2.046187622117534577e-02 2.535369048343588672e-02 -4.055088356036334885e-02 6.081128649690992205e-02 5.659981957442994371e-03 4.072579585742150399e-02 9.648824996198468451e-02 -9.773139993486702759e-02 8.179407948512290583e-02 9.173431329507222842e-02 -1.023283891998184869e-02 1.083191170494699762e-01 -8.557223179632414412e-02 -2.102435167496083390e-02 7.260897635674709583e-02 2.761540146542329488e-02 1.860221931355851566e-02 5.424710405897698040e-02 2.832421206651608570e-02 -9.565726133533293540e-02 -2.803494933737411821e-02 4.456546512221734591e-02 5.349711466661816184e-02 1.122107822036892133e-01 -9.346663868748818216e-02 -5.467878814836746315e-02 -7.123362186571322030e-02 1.066495652412628725e-01 -9.972588888454037015e-02 5.258741111315301531e-02 3.411496243300604636e-02 3.943844010549724111e-02 1.140533275763227217e-01 -1.116760692243052300e-01 -2.378770533221510886e-03 6.333765408947367170e-05
