1.294240082918232670e-02 6.740526919773484615e-02 -1.915553964217908689e-02 7.371594175919155001e-02 -4.291186927243353932e-02 -6.294311372078534306e-02 -8.103459311821961664e-02 -1.084474039371753767e-01 -5.332703384956795356e-02 -7.196475134424520914e-02 -1.089934256880959879e-01 -1.953597163093824529e-02 8.248444284217734679e-02 -1.090591776015578246e-01 -1.174861777951589636e-01 -8.481939785622678862e-02 -2.178001669586465683e-02 -1.141711917388117808e-01 -8.919420239829620178e-02 3.176298172377287066e-03 2.115663977547338481e-02 3.620891451204985567e-02 1.140394680096842306e-01 -1.778478881985227911e-02 -4.300007107276603013e-02 -8.035194718552719773e-02 -4.551323491067453542e-02 6.216617791674922122e-02 -7.776441304030484725e-02 1.046756841177064468e-01 9.892577034865179808e-03 9.051532359193800725e-02 -2.697539473463626825e-02 -8.638980271936128053e-02 -1.836446380180642435e-02 2.049664409151977229e-02 -1.579092737946805047e-02 6.802699176193582886e-03 5.259845878873958824e-02 -7.667625197396832348e-02 -1.180199608487294827e-01 4.219252466576225991e-02 -6.351552748338315513e-02 4.542439571262860132e-02 -7.632609028756337510e-02 5.962983557279666336e-02 -1.134693169435573162e-01 -4.477379536392685211e-02 -2.534432770373166999e-02 2.736824709007926182e-02 2.568787814282288973e-02 -9.738609906712433761e-02 -5.386371065656125889e-02 -1.165781351447682107e-01 6.429222793651931389e-02 2.110077660557915791e-02 -7.669901254508218469e-02 -1.131034596669266840e-01 -7.336473702436574484e-02 7.956270693991696064e-02 -9.821350126392144886e-02 9.879982518156679716e-02 7.561592994537180701e-05 -5.092768272475844960e-03 2.301530103687582374e-02 -3.491000734044680254e-03 1.507704934402689934e-02 2.236396931263961996e-02 -6.463649498022822071e-02 -7.426103798289232505e-02 -1.177043430320035833e-01 -6.793230696689575576e-02 8.940223632299879042e-02 3.357055652401108592e-02 3.021437035556726047e-02 -9.474340836174266478e-02 -9.960861326694075979e-02 -5.373362070742609964e-02 1.167167620516849913e-01 6.193236255741796370e-02 -4.951962824679335962e-02 1.000927449688848725e-02 4.587574799445456875e-02 5.618060889646880884e-02 6.669059371044708251e-02 -8.187361762390418796e-03 4.069887491602167118e-02 -6.214995409241876045e-02 -3.804829430124184730e-02 1.089771742251894882e-01 3.479710562186325018e-02 -1.174265952492853371e-02 -8.926547107986820828e-02 7.933586660304847715e-02 -1.184515558002155466e-03 -1.926300740790684585e-03 -2.004056287137591374e-02 -2.192307866256960891e-02 6.136819330681728135e-02 -1.116453867687460383e-01 -1.572635405690613053e-02
-1.866551340531943937e-03 -2.363632115013300505e-02 1.126385442668396963e-01 8.832807671060152743e-02 7.800419168442318529e-03 9.371421506699170734e-02 -4.918430721713422382e-02 -6.484017820127735421e-02 -5.935754950230583832e-02 -1.126482134609888414e-01 -9.573636608814073412e-02 -1.109273957699782875e-01 -1.501770719088972583e-02 5.909825697292894753e-02 7.620194917520559108e-02 -4.745979428497516805e-02 8.815109594798584136e-02 -1.922987731005763867e-02 3.728141724119934941e-02 5.668856180387815691e-03 2.999957504080488779e-02 -5.489231402501196233e-02 2.385293926831433264e-02 -1.449293005170669557e-02 -1.031212634971923614e-01 -4.995741180766262446e-02 1.059369146016095609e-01 -2.565746162864328273e-02 3.840540599661079746e-02 3.776309636111893631e-02 6.963970447863754298e-02 1.417937011971140415e-02 -1.143362069974701578e-01 6.789755878632008912e-05 1.034498745113280327e-01 6.647150585195832351e-02 -3.551469274607019222e-03 2.054559838092395729e-02 3.767408923336704185e-02 8.458221308111446568e-02 5.370669474331804527e-02 3.035735886746437906e-02 -3.644495049295870537e-04 1.800089093835535725e-02 -4.228659094258586937e-02 2.675733630894289172e-02 -5.958968843112743413e-02 4.741017696650259849e-02 6.231030061927980701e-02 8.633322716709021516e-02 -3.604181912597415050e-02 1.034819956349267156e-02 8.695967392920572747e-02 -7.595286573733489588e-02 -8.800064667483337155e-02 1.231886974065515838e-02 7.601086703981660420e-02 -1.016713412037150432e-01 -9.887333123596200868e-02 1.953049786965566081e-02 2.497467714363657554e-02 8.589038250749078673e-02 -4.066639886964346084e-03 -1.092832917452051106e-01 8.750403772935902436e-02 2.653831105538245749e-02 -7.865087019328753648e-02 5.957617460326963821e-02 -2.399640305797075268e-02 -4.120983995593677229e-02 -6.380379660724233570e-02 -1.165738653217759518e-01 5.329557458659223146e-02 -2.536205156827327223e-02 -7.067306423808357441e-02 1.560765140680672736e-02 -1.094757348656309748e-02 -6.662501383270007238e-02 4.428669763691978067e-02 6.929479095890742069e-02 4.475063285371730371e-02 1.725651980225137438e-02 7.693403300240930776e-03 -6.125266310377004697e-02 -1.245491386318878235e-02 -1.058994981301811245e-01 -2.614630992033999124e-02 -7.013935294942416632e-02 1.154735618969653099e-01 3.244900844718395794e-02 8.734557450201599349e-02 -4.833181256564297867e-02 -7.113366667139220390e-02 -9.202889480717166282e-03 -2.273102906523544187e-02 3.298015057719838605e-02 3.804588309366777055e-02 1.101412222298088772e-01 8.283946516634396739e-02 3.978576438339498367e-02 3.861675211928580764e-02
7.525823171499285147e-02 -1.001725690056226720e-01 -6.464977015813297423e-02 7.558557156689038603e-02 -5.582883030338085806e-02 -7.299133261046900079e-02 -4.020574331102398646e-02 1.358458027150011294e-03 5.894269627313472593e-02 -1.076320192624691946e-01 7.928083352696060904e-02 1.126472749216884117e-01 7.613315862120059729e-02 1.009621464779935363e-01 -2.473928063679772804e-02 7.228645238522066196e-02 4.419882762185420311e-02 -3.352168064522423330e-02 8.323297926491110554e-02 -9.214852500706507965e-02 6.669647362263048107e-02 -7.102424981125353420e-02 -8.879204068413892870e-02 -5.933728550850166789e-02 6.295969999631992331e-02 -4.699303059591584952e-02 -1.677268069741576217e-02 -9.181437164150361985e-02 -1.153881139189995436e-01 -6.581217210081831415e-02 2.020080636597018642e-02 -1.082775763993947399e-01 2.972280358510792642e-02 -5.083717485661193303e-03 1.716908847399750693e-02 1.271714671869295099e-02 6.247386853958591946e-02 -4.129418615958288519e-02 -1.869305268671869746e-02 -5.085579464458446497e-02 -6.754725903991967706e-03 5.056343667434548550e-02 9.752402831486159385e-02 9.157713618255799992e-02 7.082900149958135105e-02 9.205803853456903663e-02 -1.707434354459831660e-02 -7.884767781169524370e-02 8.987295126009492430e-02 6.616425680368909212e-02 1.058757213007045506e-01 -4.958864183436363648e-02 -7.461234062741786688e-02 -1.096493626563051771e-01 4.781180762547138086e-02 1.100437385899608045e-01 4.386595363390149993e-02 1.014054539517164621e-01 -1.328873867615219806e-02 -1.086916497377679175e-01 6.612923863291594873e-02 -6.908775297506933311e-02 -7.002594932812887529e-02 -4.872880202982808606e-02 -1.030540368464684248e-01 1.021414324579021926e-01 -6.594097363684180146e-02 1.088866280360143157e-01 1.939254020962727365e-02 -5.826911397722944752e-02 7.544386054747462267e-02 1.144907802172292766e-01 6.292097461029660943e-02 8.670074536482033634e-02 9.039007963564524295e-02 1.095223732284683615e-03 -9.133316347611628028e-02 -7.598039520113925027e-02 3.791477819544969430e-02 -6.985819028749770676e-02 -6.918674468795441013e-02 -1.641997878698028823e-02 -7.600739195651359803e-02 -9.457239931600261440e-02 -1.471857488319192053e-02 -9.338246106413983227e-02 1.139366859606492366e-01 3.516873812531781662e-03 6.050435694018679866e-02 -5.206132794954221321e-02 8.905556275175280367e-02 -3.258899479004503941e-02 -7.089762384106214343e-02 -9.318044029473242229e-02 2.685459107144028135e-02 -7.156217806353665223e-02 -1.074073286446407954e-01 -1.025900914966504790e-01 1.160015828328507248e-01 8.210134274663030696e-02 -7.502646341710357547e-02
-1.472776093959227151e-02 -6.941005720491916220e-02 6.134660754872303667e-02 5.306056944707279732e-02 -2.636212039641108729e-02 -7.900050761218253836e-02 9.499337097553564591e-02 -8.265271661490353194e-02 -6.416936308576787207e-03 1.181198915825011631e-01 -1.030483562896582772e-01 -3.929414641985810863e-02 -5.428048879018242123e-02 1.178827330704509124e-01 -1.864092434119547781e-02 4.411585620887609194e-02 1.683747649173827909e-02 -1.001270939803644705e-01 -1.329688335691206480e-03 3.245124776265601030e-02 -1.145805630031126177e-01 -8.109067445786533046e-02 -8.054505993939918562e-02 -8.142325183182724802e-03 3.605575874900504574e-02 4.098415277246975075e-02 -5.508118623370125699e-03 -4.044572613373263736e-02 3.512007215395365756e-02 -6.778772417957842911e-02 -1.128900462571918312e-01 -1.073753935718027713e-01 -9.759294812553705178e-02 -9.291383010094433903e-02 6.906808991810331477e-02 -1.613200046957694034e-02 1.192806007445120775e-01 -1.013742359330447596e-01 -3.421357162576621480e-02 6.828591782858917103e-02 -2.187628524712993683e-02 1.307930292003126049e-02 -4.351769971242688828e-02 -7.642924413042861964e-02 -1.142567795361696809e-01 9.127888526583308182e-02 3.071868685169856783e-03 6.013711709287553053e-02 1.979071810364194106e-02 -3.196519480579727845e-02 9.716129425046293733e-03 1.019468728231876509e-01 1.180683686622713835e-01 2.542064229551374566e-02 -1.344516612133681011e-02 3.331515932574416472e-02 4.620369185220693509e-02 9.605974402968164849e-02 -1.008818976822610930e-01 6.523227376444451497e-03 7.645222706614493435e-02 5.938551342217002205e-02 -1.152873157799331888e-01 6.887557819347106536e-03 -1.919233542167896045e-02 6.714972083805453851e-02 -2.100368684129767793e-02 -6.598652788116085577e-02 1.018981350735825853e-02 6.802345920008673330e-02 -6.705116351007497921e-02 -7.818358947362966105e-02 -1.400817116367747417e-03 9.302765402182994192e-02 -4.106093232556028150e-02 8.513072505930988076e-02 4.594627706048928784e-02 2.700113998122410930e-02 4.937325343617057771e-02 6.632432381244321440e-02 1.121514173592352837e-02 1.044899577734283991e-01 -1.451420272861241034e-02 1.885635461160400927e-02 6.939392136850919268e-02 3.142207182628323214e-02 -1.101121989479935670e-01 -8.014854724510678263e-02 -9.891368763243785223e-02 7.098821218846812497e-02 -1.045300935606490456e-01 1.063642408770869852e-01 1.261415040616312155e-02 -4.273550089905665816e-02 2.824666314960297409e-02 -7.222135773069618403e-02 -4.716766393622004450e-02 1.735706024638095091e-02 -3.047877129801168650e-02 5.514347976038164179e-02 -4.584668457720056378e-03
3.549003918133294966e-02 -1.554161078636165372e-03 -3.195365264795832494e-02 -5.382137874812931155e-02 -9.836127232657879138e-02 -1.103486678342708860e-01 -5.161987120656111316e-02 2.175803842173293368e-03 -1.005943261569633151e-01 1.368169613818698283e-02 -5.366887616960824836e-02 1.181950696563593972e-02 1.148824360473972295e-01 1.490750853430433676e-02 6.298727859802621953e-03 7.488901315859033958e-02 -9.995453855698155365e-02 -2.316981891393177229e-02 -4.841378878814514564e-02 -1.126492400112259762e-01 4.880742150685329905e-02 3.117872009223629504e-02 8.902878747082093591e-03 -8.477363904988745313e-02 -8.193371745203302525e-02 -3.270812432924116719e-02 -5.614758557309448839e-02 -4.913138637203190440e-02 -4.126729428104561337e-02 -2.916346905415534430e-03 -6.796922282730222253e-02 9.444852211775553452e-02 -1.602793559143282642e-02 -5.245927388945402503e-02 3.280725989341717885e-02 7.025159660417779062e-02 5.810984030901886199e-02 -1.032260152009314980e-01 -9.688523497638354409e-02 2.209873842271056765e-02 -1.005192789576359880e-01 7.443607039544453130e-02 9.022419082520047318e-02 3.507300731130552629e-02 7.084878079985706956e-02 -3.292984952841937485e-02 -1.126034011853236094e-01 8.250083554524334506e-02 7.177084557294516332e-02 1.018647166775995538e-01 -1.130888318043633961e-01 4.714148791672093108e-02 -4.911968883800060803e-02 -5.426627133149401760e-02 -1.028793753596211058e-01 -6.230100081368076387e-02 -2.500210493897189745e-03 -9.268425762057383444e-02 3.678046199103376934e-02 -6.762069953435181913e-02 9.665303815884568328e-03 -1.441578136323318216e-02 1.184980813594732618e-01 1.023147546252299867e-01 -9.850509125641794539e-02 1.995515911708792278e-02 7.880995727729903089e-02 -2.292391819923168816e-02 7.547783335187152609e-02 -6.537022738661082966e-02 5.822796348693590196e-02 -1.141726521967007246e-01 -2.549404198974893065e-02 -9.058395747193233316e-02 -2.057271886909027570e-02 4.533684573949683938e-02 4.597006087285740450e-02 7.668464985046122284e-02 1.094855765566101202e-01 -6.666183271702538771e-02 5.437574535917794050e-02 -7.101429585041232895e-02 7.934028030359130401e-02 -9.011177013915350198e-03 -9.694266257481193305e-02 1.046296558658521003e-01 -9.100980446447148875e-02 2.131039253256711286e-02 7.281745040529957747e-02 -3.298982500740084423e-02 6.540290623581943019e-02 -1.013045817887048144e-01 4.756627330814269805e-02 4.244947468033791194e-02 4.333072941636365027e-02 5.017712511506960960e-02 -1.122513760419983353e-01 5.088508507194436370e-02 9.238095750054242661e-02 -3.528865453240950800e-03 -7.509399409736247644e-02
8.898408749831229758e-02 1.159693822291505416e-01 9.375592395380305533e-02 1.164157845055841245e-01 -7.617179259251255496e-02 1.830793489671384000e-03 1.124039343781231548e-01 -5.925017384606707377e-02 -3.392676846361203369e-02 5.099056936408635776e-02 5.505074743964302741e-02 -9.864199748696098058e-02 -2.937687824108815848e-02 -6.367808650407294491e-02 -8.393110699825642729e-02 1.153852471980052752e-01 7.802142828468350277e-02 9.489137938172792497e-02 4.437373580800632600e-02 -3.979244772264654839e-02 4.048313693583177608e-02 4.555977299657090751e-02 -1.195970271223031484e-01 -2.177289714893594630e-02 -6.171067637103476444e-02 7.709377663508071299e-02 -5.379677769008425758e-03 3.120566485274484103e-02 -1.031940081793397690e-01 9.270333219583698492e-02 1.382440682335303594e-02 -1.148170658640483288e-01 7.796520925447347761e-02 3.783581083856410454e-02 2.056061935694120102e-02 5.710213536148861513e-02 -3.427058780532968307e-02 -5.878200717556319316e-02 -4.158811380532631552e-02 -6.433899260605260850e-02 1.096924367165783010e-02 -2.114654310287160388e-02 2.178713128306655755e-02 6.276847321336639918e-02 -8.710880262398190688e-03 1.055487474577670171e-01 1.056402315029537908e-01 -2.361209017460430548e-02 -3.980355733230918347e-02 6.877346498565214961e-02 3.394174994466597761e-02 -5.585768252984545101e-02 3.857902656479028636e-02 6.519580944185865423e-03 -8.774891908110490912e-02 -8.397140514289608282e-03 9.969527673824241099e-02 -9.536767459291124738e-02 8.492645631916620474e-02 -5.897634160833969963e-03 3.293762062268631996e-02 -1.063147583704480426e-01 1.298792357118977447e-02 3.968638294451398707e-02 -1.936980364377534347e-02 -8.127568362091706911e-02 7.381811120175643670e-02 5.667231399837421857e-02 1.101570757361795549e-01 5.126514092791689681e-03 9.105079409903887866e-02 -1.010758787624579380e-01 -1.148984618718967982e-01 -3.555539472544091972e-02 5.431335858955069207e-02 -4.839279464212405124e-02 -9.959418279432558085e-04 -7.555841638557037054e-02 -1.136243202026679389e-01 2.678295978857794801e-02 -4.121166634049722166e-02 -1.764905247473877448e-02 1.069673269946080085e-01 1.166881110655120513e-01 -5.032447931869492297e-02 -6.696620538041112014e-02 -9.180445759780046788e-02 5.159328908310797934e-02 -2.579064805941698457e-02 6.527804215799673515e-02 6.929749067086488079e-02 -7.764531532393097180e-02 1.195941439860472022e-01 -1.103897564128429737e-01 6.364122981028352832e-02 1.625401756120434249e-02 1.024755327987005304e-01 -5.144629617848091307e-02 -4.725463359163220578e-02 2.571189625767708598e-02 -5.005790763651099540e-02
-9.631231037484094815e-02 -8.065896455095133977e-02 -1.808897469471928976e-02 7.477767847057201211e-02 -9.306578890383959690e-02 -2.617976637784791283e-02 2.915976924166441275e-02 7.835847323820138710e-02 8.615390661465605060e-03 -8.571250044627398701e-02 -5.175204471349469093e-02 -1.059453558768434084e-01 -9.141579914179590038e-03 4.810915999471104820e-02 -3.037068219362865085e-03 9.208679565936378486e-03 -1.129487284477748987e-01 -1.013441968223765255e-01 7.857581502250812755e-02 -2.564083304616399106e-02 -2.040883410186580815e-02 -9.013687216029474258e-02 -1.105892839238510200e-01 1.079068369490051582e-01 6.434243549602297607e-02 4.968101253107667925e-02 5.337561689376529861e-02 1.181656569909229626e-01 -5.692845272720754857e-02 2.048799507026768940e-02 1.117634699085493788e-01 6.203393515415622783e-02 2.622652369390113258e-02 5.694049863759587105e-02 4.961666080010782021e-02 -2.989709674988817734e-02 -3.289554564874258569e-03 -7.043524677497127462e-02 -5.971854036049958903e-02 9.505710713651743804e-02 -2.925578977370664469e-02 -5.706430234895486231e-02 -1.499059007816438971e-03 5.701175699571386923e-02 -9.966336038869808012e-02 -8.118404830382525139e-02 -5.969614908169278145e-02 5.413433263400671547e-02 -9.485825325362205740e-02 -3.487238961349463373e-02 3.726299346535341672e-02 1.560464378496911886e-02 -5.587766051481990459e-02 4.472880242579332921e-02 1.069756617701430323e-01 8.658726513109862855e-02 -8.600820868763400795e-02 5.794297651705054841e-02 9.284158204241599321e-02 6.914377551025252533e-03 -8.170789623774031563e-02 4.376483898344979417e-02 1.140581601485078922e-01 1.138169943314695232e-01 5.743119824420928055e-02 -4.129914305879861525e-02 -4.590271953782659731e-02 -5.559750409820808648e-02 9.050745469782214836e-02 -5.459324937561212121e-02 5.281615462937044869e-02 7.595724897282976618e-02 4.905329451754047998e-02 -9.680032299347182678e-02 1.103498365532810943e-01 6.367368714837956523e-02 -5.680534458938729658e-02 5.718157931347081502e-02 3.169820128522027325e-02 -3.309965497559727576e-03 -5.530160690241431309e-02 8.835400071526772203e-02 4.372076218887493981e-03 -1.063482780639390946e-04 5.129736176742161202e-02 9.073482271397406707e-02 -1.150398859613326746e-01 1.222163018171401605e-02 -5.424721227207246477e-03 4.759009051432516735e-02 -1.171646538297196893e-03 2.110656008281927565e-02 1.460721487987759470e-05 2.144784613207370572e-02 3.406193341523525153e-02 -1.009344559324714119e-01 1.024660926051803866e-01 -2.882430334511465464e-02 4.443029414554816592e-02 7.017227466515790768e-02 1.188166870964884048e-01
1.074969059738043187e-01 -3.033421455958303092e-02 5.225366989869481560e-02 7.119747850065780148e-02 -1.104724398834142085e-02 4.244285302966757656e-02 5.770867110781813247e-02 -6.056995954107435159e-02 -1.114012418774960461e-01 8.796527107551688207e-02 -2.553695673388405030e-02 -1.000388043410748856e-01 1.120604906619439012e-01 9.345167159551318048e-02 8.147437085436062820e-02 -7.455554546709608488e-02 6.214108438288801217e-02 -5.810854844513838741e-02 1.087484250690678167e-01 1.028972982223920196e-01 -1.185114855184211113e-01 -2.086133972933872094e-02 -4.857507742898301006e-02 7.536473376930216683e-02 3.613308442509310936e-02 -1.270793368267261747e-02 5.861838835777011258e-03 2.704172110059518963e-02 -5.953130363967800570e-02 -6.761056570008491806e-02 -9.094789232752834018e-02 -1.500225788065073784e-02 -4.310005181517441442e-02 1.117409315289485949e-02 -1.143756508444449260e-01 -1.060156577873476724e-01 6.305216845630318145e-02 1.009734027801731382e-01 3.934344117734397961e-02 6.487720249081840862e-02 -3.514999191323962824e-02 -1.044142612913546569e-01 -7.906817816972867841e-02 4.743827495415339768e-02 4.148998454271748959e-02 -1.194855632391307598e-01 -8.611341423974186449e-02 -4.277248132495102551e-02 -9.666822037201219797e-02 1.457724314844291436e-02 -3.521985820885484286e-02 -6.681940682058978842e-02 -5.061907419658118190e-04 1.126347990504782126e-01 3.129343801548295501e-02 4.696322518031781357e-02 -8.784885429711819516e-02 -2.524581427921525345e-02 -1.825496358553323206e-02 -4.493678543480041088e-02 -3.255253087150231095e-03 1.147176895930655249e-01 3.728346370277546562e-02 -9.176709232649186976e-02 -1.468059053320884544e-02 9.834151547808173133e-03 3.271832139832783759e-02 1.646793740222785019e-02 -5.934178315126844433e-02 -8.582631866345583060e-02 -7.460811871462361133e-02 -6.844915450030697457e-02 -4.649252391913652471e-02 -1.045919975937002755e-01 -5.444702403175960548e-03 -1.072079971158293593e-01 6.657899896198157808e-02 -6.748732353296542363e-02 4.269283195927975338e-02 8.488217796543212623e-02 1.484240916623882911e-02 5.546115174612675780e-03 -1.883820199965227649e-02 6.451760072113171818e-02 -3.135397187796094831e-02 7.244099097572498369e-02 -4.099452845991324867e-02 -1.159040389623572226e-01 -9.330593802569059347e-02 -8.224270484509861590e-02 6.425960070632225074e-02 1.126655572762855495e-01 -6.082367298909523157e-02 3.931279049546729243e-02 -1.144659117680536936e-01 -2.724393350294493366e-03 -1.253539973013784170e-02 -5.196363193973502215e-02 3.506541329380843952e-02 4.916118888715770296e-02 -1.014747268531552560e-01
-5.096689047629331115e-02 -3.583275707839210511e-02 -2.073866878756572274e-02 -6.231657484275535119e-02 -5.781277081939401735e-02 9.978697771676031669e-02 7.353037681049234831e-02 5.941119894509586108e-02 -6.135784248682642217e-02 7.483879971139834053e-03 1.892684952672418763e-02 -9.432448733526190010e-02 -3.918586217190558885e-03 1.142686756161657158e-01 -6.079518706453435062e-02 -4.785831438010137995e-02 -7.360969303478873127e-02 -2.849022148754067063e-02 1.054889090499943616e-01 7.513815779765206648e-02 6.537810551652833979e-02 9.099281108884596514e-02 -5.360820265436047616e-02 1.999001558308352577e-02 9.178262546469059813e-02 1.194900400836477194e-01 1.392263912638044832e-02 -1.309587258476048455e-02 6.482499009235076493e-02 -1.786268343490723942e-02 3.214427037113296026e-02 1.127598046683009059e-01 -8.719700422701393006e-02 -8.685518654694286689e-02 2.107884402189805217e-02 7.521621582379656168e-02 1.182236212321367275e-01 -1.189607980953652916e-01 1.284903441605680929e-02 1.297208851496900461e-02 1.066814628085981931e-01 1.147900158281363603e-01 7.381722194316781005e-02 -7.573354425536939216e-02 -7.851842358025092061e-02 -9.216155105248773072e-02 6.007164359231303985e-02 -2.368648519160243548e-02 -8.274124135340471531e-02 -8.869667186118113111e-02 -1.187897759457621216e-01 -1.191000974154316078e-01 -2.698327332692725122e-02 -6.328887575732453086e-03 -9.825518378806624709e-02 1.562286435730739220e-03 -3.730632212030920991e-02 -1.268055655607436272e-02 -6.370821159982958948e-02 -1.128986485331845285e-01 -8.595914513089747411e-02 -1.106689681307783252e-01 -9.637917543887697391e-02 1.065966869573406195e-01 1.138474380900882099e-01 -6.717070057410107209e-02 7.463855291375798284e-02 1.402512890142315616e-02 9.565331693347400854e-02 -4.985893831714643953e-02 -8.921502992597150905e-02 1.739932772207100631e-02 -1.088244420177990057e-01 -1.044158772935551149e-01 -8.539825721546437376e-02 -3.324489611339687123e-03 2.622759923791159742e-02 1.190384254429125432e-01 -1.160667306550393352e-02 1.158224616188319178e-02 2.208852933879534852e-02 -2.691163367305374199e-02 -7.006532671629525644e-02 4.397956821135115546e-02 5.661552879205722366e-02 -5.518612653503605914e-02 4.172612885686599604e-02 -1.174315095436875150e-01 6.083044381949476165e-02 5.545761926698450361e-02 -4.362553328631449401e-02 -9.610003992081704582e-02 -9.243453058334030747e-02 -1.120447999058002825e-01 5.427995604133473151e-02 -1.078766517731342134e-01 -4.082219946680681888e-02 2.271808166404987173e-02 3.989736382691713712e-02 -4.096616923237188235e-02 7.996265224462642540e-02
-2.139706307392745532e-02 1.887245800426748388e-02 -9.812152596204638810e-02 -2.764527138684905183e-02 -8.493434264412660917e-02 5.316356359123905473e-02 -5.447665492235055640e-02 -6.522534015911579663e-02 6.955378488991253993e-02 -8.915433807872799599e-02 1.148340671756557241e-01 -1.164520260525992446e-01 -3.771103806554380877e-02 -5.925880629620941531e-02 1.193836393597896284e-01 1.123788574464940071e-02 2.311710872891462043e-03 1.095381339528296027e-01 -1.086664577675348492e-01 4.313198967310349907e-02 -5.365491607629638282e-02 -7.753498459126470510e-02 4.462033884817878659e-02 8.824689231960561320e-02 7.966084258471875512e-02 -5.613533996015367122e-02 -3.898374443282748292e-02 -9.857721523576792877e-03 3.028179366745512024e-02 5.699008809684369403e-02 -9.387496117057286815e-02 -9.796290460186020399e-02 -5.823234584230223970e-02 -9.423586455021878971e-03 3.853123833294835876e-02 -9.444941801952026761e-02 -1.102258706121674869e-01 1.938548043273694010e-02 3.510119092048366585e-02 -9.618386392207262103e-02 3.980163916781440103e-02 6.775559521138577179e-02 -1.364606505508772494e-02 3.153060418297171097e-02 7.893922188318280853e-02 -5.912934284719566919e-02 -9.338380984350541647e-02 9.396471419587001939e-02 -4.502600861147658395e-02 1.114886530742502380e-01 1.943592106763000760e-02 -4.599400119673419107e-02 -8.324109476077320990e-02 9.995895162969029024e-02 -4.574705030555534235e-02 2.075903689221483828e-02 4.089707340065237839e-02 -4.564621368995731843e-02 -1.094143439213316055e-01 -1.019687476846832391e-01 -9.972073728753874655e-02 5.445532270807990072e-03 5.049018521840198392e-02 4.178236928392004002e-02 -2.816360451141861065e-02 1.135996610761720038e-01 -2.289773411328796526e-02 -3.312813045852665284e-02 -2.715215302638888939e-02 5.652016685498695292e-03 -8.576348474295186763e-02 -7.371767556960862056e-02 3.506212709060124721e-03 -4.831851972589695787e-02 2.119933458863160203e-03 -1.081316442544212469e-01 -1.085439544184364918e-01 -6.990979566901364683e-02 -3.495874243399135772e-02 1.025046245659018140e-01 -3.140529587054810556e-02 -1.072873714964377168e-01 3.558514192256662101e-02 8.896827276379692950e-03 -1.172797320351744443e-01 1.067529810938532275e-01 -3.792562197470215890e-02 7.489982827662255982e-02 1.068325479659078536e-01 4.931162805256614212e-03 -6.821080374228985499e-02 -2.397483249670748218e-03 6.631183887566388657e-02 -7.077318547118885417e-02 -1.021820523657733515e-02 -4.106463276670969942e-02 -3.280741103921351598e-02 -1.975000656941111599e-02 -5.417800347398082916e-02 2.613530429399960053e-02 7.165373406581382332e-02
