3.851755517761165648e-02 -3.973208461792039625e-02 1.786153707192350559e-02 5.316753783668648481e-02 1.078581599019121928e-01 1.823147959815649144e-02 9.371790447006145275e-03 -9.756192080649983556e-03 1.144463404215054214e-02 9.860099271527700271e-03 2.118938047773397115e-03 9.594469797347240925e-02 -1.170625864759359119e-01 8.060302993085319279e-02 -1.843234936399762436e-02 -2.308252827143794650e-03 -6.827376396236078948e-02 -7.239452876699803419e-02 5.528999381879826092e-02 -1.119394725634330207e-01 -4.567044544275014606e-02 -1.022882006806725697e-01 8.923118419999481743e-02 2.726030511074406526e-02 1.681012209042229144e-02 -4.551891294805388011e-02
1.073976153114308274e-01 -8.041367491790504807e-02 -8.983187624290216167e-02 -3.933565497718310988e-03 -1.541781905422533183e-02 -4.388394508349297007e-02 9.247293001718323580e-02 1.116224614210382382e-01 -5.718468265613985135e-02 -6.673005223495664939e-02 1.298515052704110606e-02 -4.878251428048752114e-02 9.347425644313733795e-02 -3.839103544563779447e-03 8.924124690190346487e-02 4.852914171188787984e-02 -5.863881655827808681e-02 1.167581871682619454e-01 -1.562282192334986386e-02 -4.816305550276309133e-02 5.099561916230593850e-02 -5.166192698457032495e-02 8.795676255331072446e-02 -1.644822657097164131e-02 -7.004194983294900756e-02 -7.012469681709719571e-02
7.388127677414479955e-03 2.815102287744900011e-02 1.062008180154886405e-01 1.502874446241481143e-02 7.180476607078192797e-02 -1.609143878636679070e-02 -1.024873816581721858e-01 3.368952051092596878e-02 -9.879555144080592877e-02 -1.059566107091923087e-01 -1.062814149370292921e-01 8.488549985879093041e-02 9.497808914275421288e-02 7.309557505324112969e-02 -1.260042943615287403e-02 -8.548079634104560620e-03 -1.000551680795507548e-01 5.036943673544108657e-02 1.000622088282773769e-01 -8.633846304564940510e-02 8.965384202672405101e-02 1.077891681353543019e-01 8.822746455806740329e-02 1.345205373798785686e-03 -8.489269472324205423e-02 7.352494307542178920e-02
4.563237111883200470e-02 -1.147902595111892077e-01 -2.032633656336646499e-02 6.564869974976336731e-02 -3.298640746161833615e-02 -1.990810889748424739e-02 -8.057855257063098464e-02 2.600236253835350175e-02 -3.126028530386103232e-02 -7.986802640162181388e-02 -4.222487659314717867e-02 -3.343464961022404869e-02 -1.894200929007959500e-02 9.245978538687896209e-02 7.002891410330344679e-02 -1.386306976987317086e-02 8.954431360932652018e-02 -8.233461678543667339e-02 -1.141574028620504222e-01 4.376219067616568537e-02 -5.784027597058616355e-02 -2.266592412448004135e-03 1.765341884521826055e-02 9.743218380904916653e-02 7.324768837047174186e-02 4.663449799201682677e-02
5.532823694598418274e-02 -2.882650231444455757e-02 -9.860112557002517764e-03 -8.019464016894947700e-03 8.837324727414386238e-03 -7.521994886644810252e-02 3.816869782790829890e-02 1.401006621153694232e-02 7.150735397757496115e-02 -1.158715357890841013e-02 1.214602318207583243e-02 7.313814526034068120e-02 3.216899435185086031e-02 1.108103663103043035e-01 2.431001604632765378e-02 -7.091783288036135335e-02 -5.082865350981143060e-02 4.997801795102740918e-02 2.473744316010059729e-02 -9.729937036866539990e-02 -5.215675786627287092e-02 6.822428305287478456e-02 -6.327356944579642928e-02 3.158801536530650433e-02 9.224992104722082309e-02 1.188351843819863973e-01
3.288626927387461318e-02 -1.119282890838025762e-01 -4.117636308784276833e-02 8.570682882764771304e-02 6.912503449370591135e-02 -2.906105523257333789e-02 1.070708587779665710e-01 -9.830347550603421580e-02 -8.036470851397924109e-02 7.749290570499356434e-02 4.478573938073646121e-02 -6.294754140303857048e-02 -1.172254921505157116e-01 4.575058725673916693e-03 3.900316940986922609e-02 -1.063423562138587491e-01 -4.102437400126303368e-02 -1.773868113687238068e-02 -2.300819891393010574e-03 -9.762748427741177459e-02 -1.461227862099165331e-02 -3.014658371352642308e-02 -9.652888202669759887e-02 -2.743551695598477058e-02 -1.105357286450038418e-01 -9.218881937785949887e-02
-4.348207404930948261e-02 3.619923005156172602e-02 3.478623087975590833e-02 -5.169595355729328379e-02 -3.694695820293560085e-02 3.907610391260707416e-02 3.326670654027796825e-02 -5.751648652010991208e-02 -8.041969572037876990e-02 -6.482386124192150711e-02 -1.059072454015436981e-01 7.430835801544297126e-02 1.198776569409377990e-01 2.618655523544685670e-02 1.113438518051944603e-01 6.968327053934236792e-02 -4.683105131592106563e-02 8.704261375646393795e-03 8.617979211384582672e-02 1.000297700180654004e-01 1.826157359049643270e-02 1.091827402351942533e-01 -7.167238967056349663e-02 1.001777417546015347e-02 -5.173290881838378541e-02 1.123838831406469840e-01
-5.559945456112878881e-02 -5.016098758487103071e-03 1.547005607314452802e-02 -1.049024776413861187e-01 -1.075422536531299433e-02 3.909666973313305482e-02 3.247370804576604764e-02 6.888969815059048374e-02 -2.297431729031622349e-02 -7.404722042616875000e-02 9.233987352952224836e-02 -6.425478905503154148e-02 2.252237813222471297e-02 4.834362046400150770e-02 -6.576352702003078476e-02 -1.017424710977809371e-01 -7.860630386897118904e-02 -1.318652885186659407e-02 -3.223145251806461276e-03 1.035940443510998676e-01 2.237535538693621873e-02 -8.914204806846987017e-02 5.788020992792181074e-02 -9.452987551904916408e-02 -5.302210475279744983e-02 4.729728680134648311e-02
-1.076651555744218836e-01 1.032885809447897096e-01 1.846423697513557838e-02 3.568351694179722200e-02 -6.372129587350758295e-02 8.185021874429684874e-02 -1.190457654772887619e-01 1.945069114255368325e-02 5.907050103521138684e-02 -3.403969187528807505e-02 -5.903483293387334907e-02 4.025544273735257028e-02 1.658925666282975997e-02 9.609626159507944632e-02 5.866123041031540142e-03 1.004333030117094683e-01 -8.800149172591503755e-02 -8.956105647740478237e-02 -1.083255769452919209e-01 -6.568888833443953246e-02 7.831323148790800270e-02 1.123347526280805420e-01 3.029393287492998521e-02 5.036369818145436383e-02 -1.005340408247115541e-01 1.108277635252838955e-01
1.234479123860773853e-02 6.379155539888872739e-02 1.356599260394517059e-02 -2.990753530175689623e-02 8.357931354176145744e-02 -1.032552835100475075e-01 5.334657461088118668e-02 -6.572847431645359451e-02 -4.048441211805423046e-02 -3.285827551995665341e-02 -8.986447786456182307e-02 -5.450459919738660786e-02 -1.790602051280046347e-02 8.251698278339758552e-02 -8.602713424135757792e-02 5.989074932541446628e-02 -1.171010535899737193e-01 4.342543393703149346e-02 4.807707346176071095e-02 -7.459825333121837543e-02 5.134368173851414086e-02 -1.219477049862031925e-02 -3.539972958660714264e-02 -9.541652379351953095e-02 -5.349340550229406133e-02 -5.654145948625806384e-02
