2.303269289073281434e-02 2.306620551699553601e-02 2.944376516518965037e-03 4.453769594403686471e-02 9.299131241525634972e-02 -6.080008129258846622e-02 3.326512457923627708e-02 6.072804185487584716e-02 -9.609679825734657177e-03 2.484427426546192974e-02 -8.348468926439756022e-02 -3.340145431611049598e-02 -1.011003539103740717e-01 1.370613204814533082e-02 6.992353022038783061e-02 -8.076309852899168917e-02 -1.928402389600197830e-02 8.545496688751511027e-02 -6.194270463413228262e-02 -5.586134704547862651e-02 2.814780554425919123e-02 -1.747856905259337346e-02 -7.553372980712783069e-02 3.927264384231926586e-02 9.707665348030461439e-02 7.621836772912710112e-02 -5.490774054109812119e-02 -1.033504881658226793e-01 5.849623123853325835e-02 -5.581345584647064151e-02 4.255822433470854427e-02 -1.139605567725141405e-01 -8.779833948986351388e-02 -1.085928567593393151e-01 4.921326594883562722e-02 7.469572026788209862e-02 6.459774229863740613e-02 9.397950609220231954e-02 -8.361096608263743346e-02 2.500337226673368662e-02 8.442373338784850412e-02 9.642571861170790015e-02 -6.993136133743127480e-02 1.192322607569241966e-01 -9.770418775225553354e-02 -1.150476566621255331e-01 5.953049810928970342e-02 -1.035029882661335776e-01 -3.939371337275580920e-02 -3.378762938136319061e-02 1.089888698315079341e-01 7.582679199610450893e-02 1.175495743682504757e-01 7.446957585443420014e-03 -7.574989424307045083e-02 -9.192818093655254208e-02 -5.543318193490072432e-02 -7.313772375273425164e-02 -6.730071493895140033e-02 8.081646584098334252e-02 1.055794171279576532e-01 -6.024205583750370102e-02 8.582830042206526788e-02 -8.115214789662027195e-02 4.008918578938633348e-03 -1.113720955631739284e-01 3.731507988574023216e-02 -1.199149274409852806e-01 -1.170078513109708424e-01 -5.316676451854678020e-02 -4.381971677923139630e-02 9.444280336337518289e-02 -7.979905089164510135e-02 6.460842786636428192e-02 -1.161180498698449748e-02 9.887544435690379108e-02 4.710329004926916419e-02 9.831626598724491073e-02 -9.741691366839022592e-02 6.658956000857554902e-02 -1.968349438687888586e-02 -6.374869898787481615e-02 -1.077312599019711048e-01 -4.224040093338908564e-02 4.487901122232981765e-02 -3.682352125718446612e-02 4.270732090997092500e-02 -8.844033713012129649e-02 4.682875847337814035e-02 7.546974104440645759e-02 -1.864611780489332238e-02 9.554969988343806064e-02 -1.008615437511385660e-02 -1.003793518740863366e-01 7.609402724031413823e-02 -5.542181727686359971e-02 -1.008233461686266624e-01 4.075048749710449836e-02 8.759260731312495940e-02 -5.896521866575247378e-02 2.750535918717592065e-02 4.647554867101436060e-02 -3.799786548226812000e-02 7.645515737598865269e-02 -1.051461154073742160e-01 8.362335790967184712e-02 2.460439470409184204e-02 -3.613963134441761094e-02 4.051113941081016523e-02 -1.158025393449521045e-01 8.914660802975876708e-02 1.096554833078129398e-01 -2.702280908568137352e-02 1.995806839316549564e-03 -2.263622954023009060e-02 -1.226372794604760341e-02 4.603692117861638011e-02 7.087282456056606672e-02 -2.665967825961448878e-02 2.306701764792520870e-02 9.963772628317299485e-02 -9.877265553779263074e-02 -6.749483322918467532e-02 6.538060157648192816e-02 -4.739506154809672300e-02 1.003212445963590771e-01 -7.922879855473442812e-02 -1.122935335722890227e-01 3.067441495617545533e-02 -1.229031806531932780e-02 -5.253922262489224559e-02 5.263234775564587520e-02 -1.279019018968249877e-02 -9.564964666363598433e-03 -2.648013237551280485e-02 1.117209947920516089e-01 -1.025135516700180771e-01 -3.992647455123511657e-02 3.583550621114600654e-02 1.097199753084651397e-01 3.770168560673339830e-02 -1.608826955360294353e-02 2.674751561932461885e-02 -3.770696090349835716e-02 3.071761836742106788e-02 1.150324030267951825e-02 4.487335462036923239e-02 -7.093284441988054190e-02 -6.687569093237316631e-02 5.655828545290234044e-02 -7.918666409190827649e-02 -6.046299521248894165e-02 1.047968344748539948e-01 -4.400408231373295620e-02 5.827095063730958202e-02 6.230941089405692135e-02 -5.566715591076258629e-02 -3.193583380531382632e-02 -6.481770024535943309e-02 3.591725173973814300e-02 4.110874296764546743e-02 6.043829206180245661e-02 2.909589517615529530e-02 1.079825290414309635e-01 1.109017376638284647e-01 -2.740601831081948547e-02 -8.533507303431096813e-02 9.631511923219954197e-03 -5.277818050655611049e-02 1.083920481675443581e-01 -5.707613984204620849e-02 1.017155786964570874e-01 9.372779169600325977e-02 -2.788828401207356367e-02 -3.085713412084532814e-02 8.194628231145861808e-02 2.324178172674273846e-02 -7.542894441367359315e-02 -4.604039428093054109e-02 -2.728184810480724365e-02 3.327198242343379353e-02 -7.571310532559880069e-02 9.889368724513766806e-02 -1.061852524779965112e-01 8.866946742967379835e-02 7.266981943791586684e-02 -7.643567790659087924e-02 7.010449388462164366e-02 -8.329839333765556852e-02 -8.171335323174098997e-02 -2.113247568684302469e-02 -9.047781054773690324e-02 -9.436898564972406867e-02 -2.248055744500736253e-02 -2.725622063448064625e-02 3.070955084143736635e-02 6.270228843880792935e-02 1.153080056177288593e-01 1.184429827285758685e-01 1.453329092169605707e-02 -1.185267150239084633e-01 -9.326996371509105321e-04 -9.449490275995385546e-02 9.580155623942046561e-02 7.947483820401185506e-02 -6.260790524593579098e-02 -2.447606770798561870e-02 4.926713649684169583e-02 -3.648016513889898449e-02 -2.015229089755425640e-02 1.171909966935245351e-01 -4.372592397141185361e-02 3.080853019596449527e-02 1.083503202353808259e-01 -3.239594318152026753e-02 1.093419352003308365e-01 -1.004570985324127336e-01 6.439668047017113595e-02 4.362596302824039984e-03 -2.586548338859105678e-02 -2.472956515348910533e-02 -1.035855796208799695e-02 5.987556116155134944e-02 -1.179793977824539070e-01 1.148014639293792882e-02 2.137232875545339028e-02 1.764744901733270033e-03 -7.459238573347347356e-02 -3.179633000334997073e-02 -5.481342953484527603e-02 -2.517431553258217547e-02 -1.030958491279751477e-01 -6.483659340417688433e-02 7.271056365357453366e-02 -9.851254394747063770e-02 6.685785418368528354e-02 -5.850204044233427159e-02 9.994146495365627270e-02 -3.248735151122797427e-02 1.572388957567688594e-02 2.386193992872848169e-02 -6.724002276234955500e-02 3.792881499232114706e-02 9.966354365121041226e-02 3.196210572910565539e-02 -7.006878327017193597e-02 1.003729308353046024e-01 7.513395743316325648e-02 -6.441615811678541581e-03 7.656883938857395044e-02 -2.310682004556904867e-02 -5.205717163689824178e-02 -5.183959136157517689e-03 1.108895875945901111e-01 -8.120833662516824258e-02 1.016319119335566123e-01 9.072859718021650255e-02 -3.155748584894667308e-02 -2.215470385253348606e-02 1.072160788653395702e-01 8.852953362914750546e-02 8.381658644705081151e-03 1.143753870928160832e-01 4.918053679677755752e-02 2.636507942708976593e-02 5.667734136797414335e-02 6.830690806611461330e-02 9.651453941497409317e-02 5.146649791231369675e-02 5.243835254554685132e-02 4.883814486670451371e-02 -1.128477599245294172e-01 9.371025611372729713e-02 5.391492421343571650e-02 -5.514894438575543290e-02 -3.813120141766841720e-02 -5.966625824607205142e-03 -1.194866455797882060e-01 6.955411294264865485e-02 2.108597144171983628e-03 6.903799755468958965e-02 4.399519827652592641e-02 1.052072302079741783e-01 6.696101883563523871e-02 1.580967501375168949e-02 -2.682626021747906708e-02 -1.191956034324064967e-01 4.247682417239925790e-02 -4.712965976462461792e-02 -6.822750530449951667e-02 1.014478834279209651e-01 -1.042064249731076975e-02 -5.011155687960580640e-02 7.042365894449673092e-02 -4.836708978845420670e-02 -8.566503381926407479e-02 -4.436586022923016959e-02 1.934574798738614154e-02 2.427622518538291585e-02 1.077868357610367034e-01 -5.561006917238037195e-02 3.825968600885187865e-02 1.047669176182939033e-01 -1.195304706820631419e-01 -8.597384084273777816e-02 -1.083830740646833102e-01 3.551817172481819274e-02 -7.361895448882416204e-02 4.242028940661571323e-02 7.418880994456647504e-02 7.105897039314484909e-02 -8.827838676986526911e-02 -4.873806890326408403e-02 -2.987643832439433600e-02 8.265624652890044000e-02 6.602911533064814709e-02 -3.668968042609217772e-02 -4.961558523321987768e-03 8.347216920363978443e-02 1.095852617824454867e-01 4.277921764997713594e-02 -1.034211703324067755e-01 7.120530117123122227e-02 -9.078451769800970073e-02 8.333755982932991579e-02 -3.906540749245217270e-02 -1.004601411512788672e-01 -5.493884732968304374e-02 6.340455926588592361e-02 -2.493802636897061997e-02 1.559644015359296088e-02 7.214854402458636962e-02 -6.006940311643273883e-02 -8.415245666093457144e-02 -6.469429078224486762e-02 1.121287319396129245e-01 2.616744709492455079e-03 -6.932488289438215601e-02 -8.831598577467125732e-02 -1.096594025415363327e-01 -2.067570131222587482e-02 -1.148703128565375930e-02 1.062710521226922777e-01 1.451450071820842291e-02 2.718100554572550065e-02 -5.998186372556590235e-02 -4.363531516904031737e-02 -5.133459804486560640e-02 -6.424419144376367075e-02 -8.112166690417678405e-02 9.189838966626448502e-02 1.054743532503908121e-01 -1.057639240712540674e-01 -9.795508869830635290e-02 -3.075641822027672112e-02 -1.025510805705703993e-01 4.973421280852804993e-03 5.296480827996866148e-02 -4.330669408178787483e-02 -1.003251736294641372e-02 1.047406282295955116e-01 2.761744894792861338e-03 7.763017298019322943e-02 3.374521295658686193e-02 1.184644678088174474e-01 2.278701284123427206e-02 1.128471644133722807e-01 8.353872978567836172e-02 -5.926807385632137937e-02 -1.130466068857623185e-02 -7.242899908233567385e-02 3.877621037126408043e-02 1.134907960520072645e-01 2.704684149952238381e-02 -3.396093757863760665e-03 -2.629271864056940966e-02 1.154734600038935244e-01 5.899081696655025797e-02 -4.781778158612359775e-02 3.542092126295870447e-02 -8.875938257041610102e-03 1.013815602527835535e-01 -1.185865622753876636e-01 9.810696977476662806e-02 -5.704577380574482603e-02 9.890093037369557250e-02 -1.290623000160744105e-02 1.759331081496939841e-02 -6.026575547774902508e-02 1.262068169987043409e-02 3.516430865918726556e-02 -1.672248709087426066e-02 9.922799672081142330e-02 -6.044076705683264217e-02 3.039531467047945634e-02 -4.444761395368027057e-02 5.374121912795437606e-02 -3.736272853997189836e-02 -1.157240591667468010e-01 4.674783190201386995e-02 4.717579892191076096e-02 -4.399444154257249606e-02 -1.067162732732765823e-01 2.741376666778563842e-02 8.452996178540747585e-02 1.665109712560397526e-02 -9.451647280662575645e-02 8.607917127192779572e-02 6.006925022112871715e-02 1.063151423725215983e-01 -3.442756702458014961e-02 -2.803351600529445375e-02 7.686658007446520169e-02 -1.012966993537482013e-01 9.870623175666234927e-02 -8.166776279932562443e-02 -1.657761759518588951e-02 -1.169265286679363608e-01 1.151417808688704192e-01 9.933773235557963321e-02 1.092566016753907798e-01 -1.175695991995397705e-01 3.711602947307535150e-02 2.605932144610831336e-02 2.328956011995939046e-02 6.937674315860195562e-02 1.663754221212412898e-02 -9.698864496277290193e-02 -1.843337234575324890e-02 1.012229683992577067e-02 5.374442028826814655e-02 -1.169719128552520609e-01 6.734830732497654182e-02 5.584229449953639901e-02 -9.428679841862727673e-02 -1.063565623855540210e-01 -1.106558220739710663e-01 -1.000787184404223762e-01 2.522958654290802238e-02 -1.870912653449306740e-02 6.031346050098543299e-02 -9.708120810796860845e-02 5.820253770021244222e-02 -4.556055830895561209e-02 3.977393242588292410e-02 -4.967434398408911156e-02 7.051628075770194348e-02 -4.362323848911976720e-02 -7.559101374844465204e-02 3.117980740719161759e-02 1.242425174778641339e-03 -4.444203515020644923e-04 -3.462839613622549495e-02 1.461824301724151676e-02 4.275543922538904695e-02 1.178764527017916175e-01 1.235334482787112109e-02 -5.901938690148188227e-02 -1.806158384516076687e-02 9.649546284443893951e-02 -6.551182115828067809e-02 6.796458635992819186e-02 -1.109385895316849502e-01 -6.338248138377619578e-03 1.134010304361686150e-01 -6.542861882402963014e-02 1.445732735293639437e-02 9.071860446894897123e-03 9.564302498355914395e-02 -3.981156848718662988e-02 7.186333192363197897e-02 8.045156738226053039e-02 1.185576842979366996e-01 1.452385951157722510e-03 -8.373648098274147356e-02 8.904813019731605550e-02 3.543479572216740037e-02 -2.740400354706913622e-02 5.195387136094101188e-02 7.558144366539343295e-02 4.280583313483576902e-02 7.625949658863931391e-02 2.441322997600045563e-02 -1.351151449034970753e-02 1.130724372478119077e-01 -5.188570252637936253e-02 7.288466298858273240e-02 1.141990963183903141e-03 8.190944261272453675e-03 9.162418525421106574e-02 2.448012440504410137e-02 -2.510242630308741341e-02 -5.228736846207587829e-02 3.841488197209577682e-02 3.396322386077585409e-02 7.596700166135433863e-02 2.910438572448781347e-02 -3.330866207536939405e-02 -3.640511893130120302e-02 -1.067675673346063919e-01 1.050628992898167136e-02 -1.031020520769529991e-01 -6.257198460210652846e-03 -1.025491582868432727e-01 1.029951485757995555e-01 3.191881313404446030e-02 7.250289874089996256e-02 -6.909789806535246437e-02 2.105126879695021214e-02 7.386803461471583288e-02 4.153319275519096188e-03 9.961404810840845947e-02 -5.799677285410589217e-02 1.741406963912273120e-02 -1.962459160457527552e-02 2.661078931705548878e-02 -1.129944075182152813e-01 -1.125984971402527457e-01 -6.809542785352720728e-02 -4.342514533367228258e-02 6.985296140094229833e-02 -3.727889068929171601e-02 -3.361950126267930494e-02 8.744018545441786805e-02 4.488155242234534437e-02 -4.960921818850491660e-02 2.733389163351843121e-02 2.178311673422866912e-02 1.141240822582618719e-01 9.715091469607964325e-02 -3.133654569414251467e-04 9.300483926563082870e-02 4.685743696355174071e-02 -7.843086645640667820e-02 -8.268060484987807546e-03 -4.707688795578933438e-02 8.984656288405620805e-02 -1.184639806344230106e-02 -9.252362586216436591e-02 -4.602485060636035685e-02 -7.704263949919676335e-02 1.184673258123712380e-01 -9.913022749708963466e-02 -7.823490099180613333e-02 -6.523482078408310292e-02 -7.930326163213566315e-02 9.252753839152991211e-02 -3.474110763618613873e-02 1.077720022361386421e-02 -7.817603719742594048e-02 1.777865181519144855e-02 -8.912716547443086390e-02 6.913088688833698980e-02 -1.146869752937926118e-01 8.706565903813143215e-02 4.267197886212589775e-03 5.210732542434148851e-02 -3.216377060603417548e-02 -6.148489212750604671e-02 -9.570076966322904610e-02 6.811862979908323013e-02 -2.659541468419228394e-02 2.479543169596304386e-02 -4.401160342286755678e-03 -7.944022584763124617e-02 6.630611103433894926e-02 -9.345607129678940028e-02 1.128290287566859063e-01 7.500366745220291009e-02 -5.157924372380595646e-02 5.195227351892534040e-02 3.420182541135416421e-02 1.035164507739524120e-01 -7.175441795970188830e-02 4.378565261324160462e-02 7.268874788907658813e-02 -9.283786170952643135e-03 1.061709309650234190e-01 1.090260563699505802e-01 1.192029994042227425e-01 5.876106944844100566e-02 -4.079513058185792185e-02 5.955222860639253213e-02 -4.829670350446610416e-02 -1.139940200564717732e-01 7.595431849723130457e-02 -1.421269483691976754e-02 1.116311360028768573e-01 -3.562940523376870172e-02 1.028733124685607958e-01 5.368679406256385289e-02 -1.041879012276329397e-01 -8.964904148248280247e-02 3.802649203391308963e-03 3.095793076418279499e-02 4.847085581045021407e-02 1.119036786869754829e-01 1.006568885970979266e-02 1.631477873428618941e-02 5.461961369432360991e-02 -1.917394862171778458e-02 -1.538097478377839500e-02 -4.649040925308670080e-02 1.832986829842822574e-02 9.855349586723768929e-02 1.069754380821455186e-01 1.931491985944644441e-02 -8.686114439326048098e-02 -1.973141577648489242e-02 1.051980408736544192e-02 -1.128074018011990670e-01 -1.094601280555729528e-01 2.331145784557617229e-02 -1.008371409305157396e-01 -3.917142092423320232e-02 -1.127616662455603741e-01 -1.101683797047854629e-01 1.178090104708006958e-01 -1.872325187558152026e-02 8.997097200575404630e-02 -7.402461119342365614e-02 -7.108171619241548944e-02 -1.182995046533634326e-01 7.576074451749489902e-02 -4.091093633322390177e-02 -9.376699204364255524e-02 1.060789030592221294e-02 -5.196809482181845297e-02 2.068003311896149388e-02 -6.672560241641298240e-02 -5.680816167238274261e-02 -8.667471174482585528e-02 -5.725462925185419161e-02 -9.004162937576457026e-02 6.720636871626495257e-02 1.647508233750955009e-02 1.116986418985586593e-01 -7.765942763888085409e-02 -1.026152807263409350e-01 -8.585156697808778159e-02 -8.165818418877418550e-02 1.097234913738024120e-01 -9.812680310999168098e-02 -7.438604819134672641e-02 -5.155581807752519785e-02 -3.243250736663121081e-02 6.836008996752401812e-02 8.664655218992159402e-02 -4.421619231713459774e-02 1.707205401789171906e-02 -9.800149151234972822e-02 1.090944006201777505e-01 -7.196131550682244304e-02 -2.541920788500290351e-02 -1.197987269494220353e-02 8.120209011306409042e-02 8.325124619980811547e-02 -1.693990956688395944e-02 9.744184525598037494e-02 5.034238767005921877e-02 -5.708705061824428939e-03 6.226312348372811667e-02 2.863146153760096069e-02 1.190576408202952685e-01 -9.130127233579074519e-02 -4.794287133829515379e-02 -1.192868436532906751e-01 9.007275139128739783e-02 -9.743379089033261942e-02 -5.677306391476943936e-02 -1.181677088576988111e-01 6.326850438544134869e-02 -3.572964796500137374e-02 -4.627251494195325221e-02 -2.478476495052238382e-02 -7.406565084307273339e-02 4.191863258913242074e-02 -1.177363041659038323e-01 -1.108102567637284791e-01 2.421235920645295470e-02 3.128518117876974425e-02 -4.036856420783717370e-02 -7.781514666109311251e-02 -3.164472838291396140e-03 1.147709320306235792e-01 5.737658603398007595e-02 -5.921702543449532119e-02 -4.369050685006364843e-02 9.673610148520805918e-02 5.447144506705214884e-02 7.680287135457328218e-02 -7.805899508333209724e-02 2.133897063188147647e-02 -7.079350975163914428e-02 -7.751583143774841422e-02 1.023406815946901194e-01 -3.933731552569187662e-02 6.768762986257800818e-02 -1.127986915364879716e-01 4.116570393496385427e-02 -1.185038143908274388e-01 1.082999140755550593e-01 7.416966774996752720e-02 -4.152391750537266779e-02 1.363953525575259396e-02 -1.119535651361282247e-01 9.090355187473256326e-02 7.111531425156703001e-02 -1.989441770262111164e-02 2.515698536417840248e-02 -3.600669464696366895e-02 8.568247836475997858e-02 -5.955783587308263738e-03 6.363010399141288964e-02 -1.042606849514289558e-01 -9.405949696770511681e-02 -1.092962240335805940e-01 9.166396732163886729e-02 5.687404105067644933e-02 -8.425036722472759032e-03 7.705245463214460688e-02 -4.102853943543798010e-02 1.014703918629812351e-01 -7.395551407848130476e-02 1.109256556372761049e-01 1.015211097892298742e-01 -5.374226545805205202e-02 7.747243591787281169e-02 -4.202290307631183219e-02 6.285411829922696314e-02 9.748664780155377740e-02 7.104049277280807817e-02 6.492239725986526100e-02 -4.828549287321062811e-02 6.540861816200338463e-03 -4.812059828647741178e-03 -1.167191519470960615e-01 -1.167564052609580821e-01 1.072780217285230486e-01 -9.868983181453472309e-02 6.279845911249054558e-02 3.370829054125393243e-02 1.254180344811883785e-02 1.033106606953640150e-01 1.173904832136460630e-01 1.784654702114299440e-02 -9.937271203395438290e-02 8.650708159580935974e-02 -9.558507029404499089e-02 7.796138402041685733e-03 4.207661188910985506e-02 -3.432097372632580967e-02 5.127400676841040172e-02 -4.406499439321086287e-02 -4.224989451016153419e-03 5.037220318109708606e-02 -2.449931903241289732e-02 1.186728373713724360e-01 -1.210706428977942339e-03 -8.009298892990499019e-03 -1.002679037963395553e-01 1.031676177524363525e-01 -1.009820731985115183e-01 -5.232271209283781421e-03 9.118979574336413818e-02 2.408169911546642616e-02 9.428378528056655106e-02 2.802661643279089065e-02 -1.023711878380043627e-01 -7.650044713833958898e-03 3.646518942333326629e-02 -1.157479453874055708e-01 7.805351752095587847e-02 -2.112526946178512610e-02 -8.796734859768493009e-03 -3.596963823918300496e-02 -4.680612267672480675e-02 -8.648305466915749695e-02 8.575231629797908095e-02 5.654770569604594677e-02 1.031925250839924313e-01 2.906608865977378109e-02 -4.325067922080931548e-02 -2.871016462697420502e-02 -1.194744311561542621e-01
-5.005880629372030932e-03 1.040530060586402628e-01 8.550772455038396780e-02 1.056617225256004100e-02 1.016299409396021480e-01 -4.150490649823565525e-02 1.082469588399300464e-01 4.526330155569069369e-02 -1.066208107295736618e-02 5.357424272692648537e-02 -7.693410074009054966e-02 2.789574229404095940e-03 -1.014560280166986045e-01 -1.099131295947862602e-01 -5.851903987322229495e-02 3.862453179406771797e-02 9.306159752667558793e-02 6.864108693986334386e-02 3.305430880317408726e-02 -1.320145846055040262e-03 7.699057676792775418e-02 9.383607686075137733e-02 -1.164967163890730378e-01 -1.189578228483978012e-01 5.505930419501636752e-02 -2.937558950676820435e-02 7.367427468684184522e-03 5.629998319079690394e-02 1.085725946145216225e-01 -5.473427845439626793e-02 1.110285918341741285e-02 -3.327136134776974286e-02 4.595433506691232184e-02 5.459295834419086724e-02 1.115149183904092234e-01 5.864691249899384173e-02 -4.686730806260540338e-02 2.992380139583092347e-02 2.884067482553306916e-02 4.035945736951052076e-02 7.390183003397596262e-02 -1.133975092930747941e-01 -1.183855711248956583e-01 2.092438904496993213e-03 1.082818889127242779e-01 1.158069079418478642e-01 4.573740843460849526e-03 -6.574724495430225857e-02 -1.393758638367408043e-02 1.017308211475710655e-01 -5.235107896752264067e-02 2.719904490100169547e-02 -4.061559223417561537e-02 -1.695466225620533007e-02 8.823669134489739441e-02 -1.116613000949077672e-01 7.908922736655749075e-02 7.574177437118895240e-02 -4.616095048983007154e-02 1.449526866295913763e-02 -7.413090083617136783e-02 -5.794969105533279152e-02 -4.042330644734754008e-02 1.009876685921236861e-01 1.195633476902538683e-01 7.555827893142888496e-02 -7.775648240114650667e-02 9.874560835627793631e-02 -4.350503039113889914e-02 -1.121966933470026351e-01 -1.084744693741092891e-01 3.875059142788400690e-02 -7.194975853510519881e-02 5.342016713697383956e-02 -1.253005459351820561e-02 -9.299166614353490679e-02 2.258052740816032800e-02 3.441981119098139197e-02 -5.284913296055711307e-02 -5.979536267717994180e-03 -6.778507146497630975e-02 -6.583292964645812151e-02 7.031202664596866714e-02 -5.262027682261541384e-03 -5.170268648337496276e-02 -1.665051352774279958e-02 2.113484877639940085e-02 -9.432559505010391920e-02 -9.212699747877703405e-02 -1.124871491198809886e-01 -3.130733194546699016e-02 8.469362294387403067e-02 6.661561028910237270e-02 7.679377561647873773e-02 4.513594381442243009e-02 -4.845010222630047325e-02 -3.051561191360571690e-02 -9.309459660710343865e-02 -5.202722906114923274e-02 -4.680904935210755680e-04 8.952604790165791249e-02 -5.493313098541861839e-02 -2.533651500458120043e-02 2.221538825425245500e-02 6.445163521664840078e-02 -8.511032615167282711e-02 1.000009497455965068e-01 4.175636279217070923e-02 -1.178148403249833914e-01 -1.117868017587690666e-02 9.775865502713448896e-03 -2.307421132796978747e-02 -3.498512080301879879e-02 2.119688402136998828e-02 -7.586022233864025965e-02 4.418112069025981192e-03 -7.913765703900788040e-04 4.756702842215504434e-02 -3.657957096806692399e-02 -4.872517027664344247e-02 -3.202602693211720197e-02 1.015957655494014455e-01 -8.969865280290860443e-02 8.795802017463846822e-02 3.932192567013836904e-02 -1.183973297801725749e-01 -4.138207494732763780e-02 6.902672780534882535e-02 2.776688790931428064e-02 9.441697910318125331e-02 7.261133709785025370e-02 -7.653379707488630612e-02 -8.949057908212736112e-02 -1.776728342052423526e-02 -1.936573652419755487e-02 6.733951786293004838e-02 5.662476891017065306e-03 7.440839783704192301e-02 -5.193716138218887335e-02 6.252755494295944572e-02 -6.363015980877209654e-02 3.418664524166201146e-02 -6.614132200332104028e-02 -4.936000665649617480e-02 2.440031309437273865e-02 7.438025977179929527e-02 5.077564834588180198e-02 2.879005029851322561e-02 6.881332097965534023e-02 1.123623129275074795e-01 1.709512030389812032e-02 7.673271362617514746e-02 2.997085876239855007e-02 9.748284054620601213e-02 8.603949652169942675e-02 -2.914419678940369240e-02 -6.530831001013569226e-02 5.502329430709787528e-02 1.005148355504490720e-01 6.992263181605590239e-02 2.335908905808703473e-03 -2.434561038338339811e-02 -1.007889532310055208e-01 -8.683682182829929874e-02 -3.574530771008328778e-02 8.298640506780910475e-02 2.190944440623901479e-02 -8.044578609626820698e-02 -6.636325062922773799e-02 3.294611922018075845e-02 9.607296608070775568e-02 5.129023182908828971e-02 -4.552559189334719203e-02 -8.171957849640079652e-02 2.257636157254294673e-02 -5.660922521500413862e-02 2.217951636868287224e-02 -3.435125945674064041e-02 -3.492287888105889693e-02 -3.411079435111996627e-02 8.106908531291101561e-02 -6.849206052148965052e-02 -4.904824187335617147e-02 -5.910158487089603452e-02 2.323460712934624639e-02 -9.589766108327707483e-02 4.694893151788517849e-02 -1.119085853984368856e-01 -1.073071226066285577e-01 6.146043771846798620e-03 -8.393407997285981526e-02 -3.707420288447021983e-02 1.778677716897675287e-02 1.212634770296744380e-02 9.557723435434115067e-02 3.085826477748299101e-02 8.459893087514583354e-02 -1.369065872356226010e-02 2.317827640582001414e-02 4.512385439033747558e-02 -2.889064205388723605e-02 4.796424091203685403e-02 2.486069767237633621e-02 -2.290898874007432640e-02 -1.134828482351049050e-01 5.439481489220079902e-02 6.779488585770879205e-02 9.471945678670093405e-02 -7.417242745085887712e-02 8.538464642705334562e-02 1.181736970456467584e-01 2.812706436427067636e-02 1.028121277274894052e-01 -4.265889612008318121e-02 1.743217139288932849e-02 1.941695307827559502e-02 1.017606380562742496e-01 6.144325746588302772e-02 -3.905140068424693689e-02 -1.082009256799203178e-02 -4.370424576609077683e-03 -2.275809111194736223e-02 -4.190121094249293909e-02 1.193840702073357130e-01 -6.728822890288899128e-02 4.131088081932904332e-02 3.479065555331606330e-02 3.042830840732183018e-02 -6.844203257610501079e-02 -9.747320116460934936e-02 1.171782045888107027e-01 -9.551908900734687458e-02 -3.237904032766994455e-02 -4.790440469951123825e-02 -2.344953611389413717e-02 1.110474675330500038e-03 4.919568237574567515e-02 -1.162270705496761120e-01 -1.136451697158657737e-01 1.866178757416084300e-02 1.719314407040639647e-02 6.973998959651048213e-02 -3.389032597173496919e-02 7.347627154454694498e-02 -1.008498675253096805e-01 -9.343362477367068986e-02 -4.631770912958067810e-02 -8.229233908375482853e-02 -1.067565478494540560e-01 -1.497517396599984396e-02 -1.363224720114962485e-02 -8.773233619110784587e-02 -1.363671377962502596e-02 -8.858906305985514429e-03 -9.588550338835302722e-02 -2.261210510105485239e-02 -1.037970009075701860e-01 -2.233843239387854618e-02 8.880990924411569232e-02 4.461520334973070878e-02 -4.602005237104490887e-02 6.593425464405280878e-02 1.109599754960178541e-01 4.788200246323798259e-02 4.839736319555015820e-02 -3.372542414836002256e-02 -8.970686152151421955e-03 8.878194182890680741e-02 3.240683005267241956e-02 -7.825683580216831470e-02 -3.630066730957492993e-02 6.746830279144416798e-02 -9.763657774674736056e-02 -4.323424553815627402e-02 8.831573226950531486e-02 -6.175823033415558938e-02 6.678263253385394171e-02 -2.074224563471634142e-02 -4.733291180233505091e-02 1.146086341815188148e-01 6.719973795906206138e-02 -5.207098899323751862e-02 -5.654393966539432437e-02 8.288748838718643097e-02 1.025359353939707119e-01 -7.290423691197908673e-02 -4.706007636220560508e-02 -1.134400887507680672e-01 4.461530664616639164e-02 6.088123428735578435e-02 -1.540396258476413316e-02 4.210011033615820852e-02 6.059193108427785024e-02 -2.939623487061909790e-02 1.007482110373871254e-01 2.095427515310768762e-02 5.747600432441032914e-02 3.696156527990662743e-02 6.467693774284266617e-02 -7.170018228712585207e-02 6.011410765662028588e-03 -7.904318696477677375e-02 -4.472503223623337798e-02 8.178249103908452611e-02 3.580938560467303300e-02 -5.538224955085553625e-02 7.800650133201531000e-02 -7.117660693226302016e-02 -2.993348643133664222e-02 9.439434529076265457e-02 6.156453245641715921e-02 6.263535840321773907e-02 -1.813168999046310681e-02 8.228657718982040903e-02 6.633701068193184613e-02 4.510801729551572326e-02 1.030939831067749501e-01 6.984041900308132766e-02 7.721709054859096644e-02 -8.397215013779302240e-02 5.868265085438470474e-02 9.289940707364247041e-03 -8.570713375713708004e-02 -3.436678420248692745e-02 -2.811888024139415354e-02 -4.305915525196146731e-02 -3.927570768706743765e-02 1.029215043547050401e-01 -7.037502445992857569e-02 1.420172103167610667e-03 -8.733767168533775049e-02 -4.736926082865529353e-02 4.015428308600352270e-02 -6.464336870328479812e-02 8.333459795169056994e-03 -6.686341222199587708e-02 1.104635893429923577e-01 -1.121417415353244684e-01 -7.692250024781403794e-02 -7.838420179668847965e-02 6.343847597202820210e-02 7.440024217587018485e-02 1.122722237871033035e-01 -1.165618573236613803e-01 6.666216210397640785e-02 -2.674841933332852695e-02 -4.175670815994958485e-03 9.679874410458730316e-02 1.368249947066946248e-02 -1.224972611131143474e-02 5.632827575988735846e-03 -4.681182941749927051e-02 -7.921169880364536953e-03 1.018778512036594419e-01 1.544314703534943600e-02 -4.877995282100476560e-02 -1.019051115373923316e-01 1.026019227471424156e-01 1.030707082129422580e-01 -5.284857536422360447e-02 -1.075397330144177849e-01 9.782613035817594449e-02 1.168133627472163205e-01 -1.152675086716940245e-01 4.112302914124854603e-02 6.757175623820857457e-02 9.805754758975904206e-02 -7.701198499257838614e-02 6.854347508937277955e-02 4.674721822202412835e-02 -9.208099555345378162e-02 -5.538753041512978204e-02 3.664975749021792684e-02 2.241057806579599410e-02 -4.226451649691095880e-02 3.879261594739280561e-03 -2.827250337933931434e-02 6.205520523286961465e-03 9.073145313573999227e-02 -5.249582315743839267e-02 7.989680803386003949e-02 -2.903317769418638228e-02 -3.207261778578623934e-02 9.408675671599323054e-02 -7.620913947388313625e-04 -5.741129697167081380e-02 8.041053376535933772e-03 1.022557324065755946e-01 9.567092438050434078e-02 -6.646953313330597468e-02 -3.847679467247427931e-02 -9.271960640948002930e-02 2.348007360816325995e-02 5.886442356103507856e-02 -6.418750538233930492e-03 2.723231543062976101e-03 -6.536067033116038649e-02 5.082219415504826698e-02 -3.951982628844553924e-02 2.369830975423781183e-02 -6.621678656239030070e-02 8.057483808222282162e-02 3.103399413462160084e-05 -1.027469657421801880e-01 -1.704306761867066533e-02 1.085154246584214277e-01 -7.016244853021250116e-02 1.178003366878558611e-01 9.378551219677652706e-02 -4.497523783513486528e-02 -9.158040462628196099e-02 3.025110081433496356e-02 -7.968344064134674776e-02 6.928740973534791570e-02 -5.914994444350805958e-02 -1.129321903939736332e-01 5.582894372628843804e-02 9.199436688728115930e-02 1.060523629566142156e-01 6.468713492384015051e-02 -1.723472451520034754e-02 4.307006526002743474e-03 1.054853475642065774e-01 -5.282981141410555970e-02 -1.000186590249118879e-01 2.045929138124108482e-02 9.780742510083093033e-02 2.601565716721901400e-02 1.169610395724018648e-01 -6.868951977126439012e-02 6.831503556733387050e-02 -1.070650400926949908e-01 3.319969766056918292e-03 4.589239705816025583e-02 5.061458068708135638e-02 -1.620645516038866918e-02 -1.982087421922562598e-02 3.298446659171083706e-02 5.819282489866575703e-02 -1.425355769737728096e-02 8.688588132151489618e-02 3.662823138573853554e-02 -1.105580506734129970e-01 -8.017896620197997870e-02 -6.980378844183707243e-02 -1.809896782927727932e-03 9.647385861499799264e-02 -8.842721520136714863e-02 5.262142528469737623e-03 -3.093771867011695098e-02 -2.271381294130726813e-02 8.560554558267854941e-02 1.906788649974650030e-03 -3.523522239105464360e-02 -1.881779270344308141e-02 -1.100629789203803888e-01 -1.060707708542952266e-01 1.152554167087729842e-01 2.580822744131960889e-02 -7.127209345347654268e-02 7.467067851579994864e-03 -2.637877406932086222e-02 -8.959626735183928714e-02 5.487474283426913013e-03 -8.447327080299810165e-02 4.924154128603014380e-02 6.551230584843528715e-02 9.188641519319434847e-02 -9.929483088810311942e-02 -1.092801892859184693e-01 4.958152114713773595e-02 2.643794245371430818e-02 -1.113427491954759041e-01 7.902902411443099573e-02 2.697463567469304824e-02 4.750239188242194599e-02 7.087344550223315109e-02 4.084505471418545253e-02 1.932725352518852024e-02 1.523997462279894077e-02 -5.578000965935048239e-02 -1.411949761830848249e-02 -1.063811615410072131e-02 3.518888217228546833e-02 9.029691325868957619e-02 3.553539152449761152e-02 -3.423517715501879499e-02 5.567008426666919529e-02 6.406372041012189933e-02 2.472187921785534703e-02 -7.038317712029573681e-02 -6.153751411906638324e-02 3.026441655589401369e-02 -1.556342529082516135e-04 1.025167613140768874e-01 -4.948939977330540918e-02 -5.940046113613067780e-02 5.867113985256017239e-02 3.770253578363308433e-02 1.614227026722164782e-02 -9.153265051949700803e-02 1.733233205567250024e-02 3.353460433668589702e-02 -3.103674301044020978e-02 1.571286516070150019e-02 -3.059679036960537279e-02 8.513798251710730236e-02 -3.387944073749435403e-02 -4.841161399464956328e-02 -1.006453179978352708e-01 -2.452903693409681785e-02 7.007378513060466552e-02 3.613487112365468268e-02 1.176444139406138123e-01 8.762676757612580802e-03 7.192824280078710664e-02 6.316216829533868871e-02 -4.356618346578845780e-02 8.148393079689308927e-02 3.261121034589611889e-02 -7.175690109579441200e-02 1.846836754491015808e-02 -1.066277024070733104e-02 -7.003045248662419231e-02 -2.480165993198797658e-02 9.157746273001754478e-03 4.931458044654674078e-02 -9.408636604897362143e-02 1.143978926649297234e-01 2.967779378222926145e-02 3.720784239423285955e-02 4.241604763531250932e-02 2.745885113887044926e-02 7.205791648816722850e-02 6.629138295680719883e-02 -1.395553349875179594e-02 -7.958566096159733205e-02 8.957730568070923494e-02 -3.849995549714081700e-02 -1.608420408554800396e-04 5.643370645023021437e-02 -4.323300069710463156e-02 -9.615438978222158595e-02 4.436037394427821967e-02 4.907283887439528591e-02 -9.440972201528603780e-02 -2.309006768222660044e-02 6.900020053065081260e-02 9.020120952072252507e-02 -3.709757073733430111e-02 4.812219764521299958e-02 2.217964484157278204e-02 3.714437664482833634e-02 -5.482117130202204813e-03 -3.080867664227060487e-02 -8.232806735721109881e-02 -7.779335047292805505e-02 -1.025365505556515566e-01 6.076063638326228977e-02 2.691751502481451452e-02 -8.901304248919672535e-02 7.982666440138169728e-02 -5.389582360609480871e-02 -1.008724674493914619e-01 -7.467160371880966763e-02 2.689802389648907055e-02 2.953940087290485295e-02 1.094694727597494699e-01 7.095871623621630153e-03 3.917278705437399200e-03 3.216058087270312615e-02 -1.044519502787102511e-01 1.454505744414391621e-02 -1.093500145976253612e-01 -1.115795161843712857e-01 9.556025369110557333e-02 1.147346528899929607e-01 -6.507011946455071305e-02 -4.192313083588078415e-02 -3.229886913489013467e-02 -6.430157578298727195e-02 -7.725381049287088908e-02 8.615560746384096080e-02 3.462338349929078296e-02 -5.738189267383274339e-02 -1.073821601826323996e-01 7.723666731863343404e-02 9.754266542323805633e-02 -3.431754111506649108e-02 4.552670839836503447e-02 -4.932179218895443862e-02 -6.644541134959339179e-02 -1.117725474941611563e-01 2.071138180932374784e-02 -1.053155172308854609e-01 -2.535938488243405509e-02 -1.046357860252843108e-01 5.206664691646320509e-02 -6.912284499316516395e-02 2.870530735894691321e-02 8.577240964167398563e-02 7.933241235534438385e-02 9.884539979565265533e-02 1.964254849384247659e-02 -1.078514794139743271e-01 1.058750076223497760e-01 -5.723141847711571417e-02 -2.526850163579584529e-02 1.125163602328749235e-01 -9.359392301032415373e-02 -3.175609763931216967e-02 2.261567113407453311e-02 -7.131833407196780383e-03 5.959460839933061749e-02 -1.139686041752897422e-01 1.149768493409721593e-01 5.629695798849393418e-03 -3.853534833509669744e-02 7.107789180998358436e-03 -5.617703483294692046e-02 -9.487800653813203977e-02 -3.913125418600181538e-02 -5.984065069766440759e-02 -8.505906118079893663e-02 -1.344565923174606548e-02 7.025136926535974213e-03 8.152953594640860446e-02 -1.076829894616477129e-01 -1.080351966604487790e-01 -6.252080578876376138e-02 9.220991268648287553e-02 -1.767373896610079098e-02 -9.818077794007352976e-02 -1.626705379986097266e-02 -8.049932827901964960e-02 -2.354220208903340383e-02 1.027601946476289496e-01 1.033292253795507210e-01 -1.149723888471938793e-02 6.355192777736023979e-03 1.446615132582371177e-02 4.035633451890568990e-02 -8.365135199021975221e-03 4.063640815632180159e-03 1.073034367851578297e-01 -9.975459003319044060e-02 -9.745923994137987989e-02 4.787572679370705186e-02 -5.227998724609064785e-02 7.641711998309314025e-02 4.270734337708842476e-02 1.190617408797994825e-02 -2.464841014497845539e-02 7.819174270923484604e-02 4.268917219138712582e-02 7.758950538506734218e-02 1.170607552449140498e-01 3.985970765834795371e-02 -5.878067874449929842e-02 1.346018639972265674e-02 -8.630837328807663966e-02 -6.218535671563626271e-02 7.408755538376854410e-02 9.165949378027851702e-02 1.017904131370795107e-01 4.495743206787383706e-02 -6.496548365966542393e-02 1.645189883231237826e-02 -6.586906375671439107e-02 -1.091074686244363906e-01 9.610294065268198960e-03 1.080242825531508299e-01 -1.128879514828876468e-01 -4.382453095101823681e-03 1.143521144036034887e-01 1.105755346512968529e-01 6.745654164603986924e-03 7.818502855652731398e-02 -1.100738766200576452e-01 -1.188009481846126064e-01 -6.511044843497004742e-02 1.990222698067553586e-02 -1.265260136969537097e-02 -2.977713903790121797e-02 -8.492931800958591904e-02 -6.813069867078205832e-02 1.630947223697482018e-02 -5.361654541950575115e-02 7.763324908740820707e-03 1.168747234594552376e-01 -1.498795229808978779e-02 -5.904160720217230263e-02 8.586365483172511692e-02 -2.122626568094469757e-02 7.458196771939293312e-02 -9.109213520569198197e-02 -6.425377437570073402e-02 1.081450014476951216e-01 8.726364266577815720e-02 -1.121899113112698743e-01 -1.144595592045924426e-03 -4.283000460909884566e-02 -6.381874687915096989e-02 -1.118891475598609020e-01 -7.684902418024486259e-02 -7.256688289091460520e-02 -1.188359842447836434e-02 5.728364850963837962e-02 9.316971158381806561e-02 1.195014842483430040e-02 1.185894179991675568e-01 5.475355183840929785e-02 1.845410903366459521e-02 7.598400928919907260e-02 2.958426390591323285e-02 7.337234880889420552e-02 -3.574346755454174684e-02 6.836975864131658587e-02 5.433734140933349499e-02 5.553209309822879081e-02 -1.011184796849421003e-01 -5.550528860265510622e-03 5.311123663939085193e-02 -1.091323237271167867e-01 -9.462178264270935946e-02 1.327926311194069231e-02 -3.500146897472136698e-02 -3.146281414288776279e-02 8.443524132108376490e-02 6.558967020643932666e-02 -1.813163716246263268e-03 5.586943411188258213e-02 -7.729033180866497210e-02 -4.111108641745099546e-02 1.046512404131159091e-01 5.187152454118298950e-03 3.282075738198747539e-03 4.993747350599589407e-02 1.078638584082515506e-01 1.168598649420966584e-01 -2.525111945768158950e-02 -9.320266267945201411e-03 -1.130504252436766166e-01 -4.932599302863584223e-02 9.605683970214007328e-02 -1.013809633320143094e-01 1.034722857060509371e-01 -4.354450894667906413e-02 -5.431167093228797538e-02 -1.794079073084722808e-02 -1.167847235258200056e-01 8.929450243423947553e-02 2.270179482271372784e-03 -2.081726645734784109e-02 9.496318113726986976e-02 -1.310852958625510767e-02 8.374612215580026775e-02 -8.762450212091291157e-02 -7.502167510952878482e-02 3.593544841545084911e-02 -8.137312927338191670e-02 6.188267887162035574e-03 1.110739422136623744e-01 1.088510133541453762e-01 -1.055981023727514956e-01 -6.916737662777797113e-02 -6.130335619048045415e-02 -6.497174891441317990e-02 1.440593353815472488e-02 -8.256975923560978814e-02 -8.097896962870729243e-02 -8.298835363578145607e-02 7.749188189482694722e-02 -1.968064482409222216e-02 -4.298575293383215257e-02 -8.325526484448439457e-03 8.739744583164163472e-02 -1.029116415385204486e-01 -1.059446673379384196e-02 7.550702358708891171e-02 -5.401288662491565695e-03 7.065067052017492966e-02 1.419940443124487195e-02 2.393550451315190619e-02 -1.075562116995492090e-01
8.671121174739532256e-03 6.618123573380274571e-02 -7.319171030532031774e-02 -1.141193454341567631e-01 -4.886935017073329446e-02 3.696961684506019918e-03 6.983925990802580808e-02 -4.579920400517321910e-02 5.952170691107877554e-02 2.140617209624737227e-02 2.722764165586322171e-02 9.502515121631693873e-02 -8.067477009499829377e-02 -4.457054616054197116e-02 -3.938445198581946860e-02 -2.351601744787890080e-02 7.785302819981163025e-02 -9.003248549062707606e-02 4.047385385457735740e-03 -2.143963496284881365e-02 -5.319111476748532297e-02 -1.640249431019860649e-02 5.289720471701289672e-02 -7.333484716043825458e-02 8.400750295162720538e-02 3.773438800499559487e-03 2.927973554400301048e-02 1.175231036638806625e-01 -1.187670636495479909e-01 -1.189578446020449765e-01 -6.822278902008649393e-04 -4.608596538067187554e-02 -5.553513438211589437e-02 1.166274108392269249e-01 -9.288314807316205846e-03 -4.504532906961497551e-02 -1.069792633338911281e-01 -6.708522553569265523e-02 -3.453889227084533387e-02 -9.221608048633987698e-02 -1.002606370154610071e-01 -6.950651588861969654e-02 1.002847076866669462e-01 5.373077552353719422e-02 -4.528203311113185303e-03 -1.007597001558613453e-01 -6.939257731891278203e-02 4.299047080922685504e-02 2.459194211804935359e-02 -4.880619400532126839e-02 2.573404676213955633e-02 5.498983123514247784e-02 1.060071752709521586e-01 -1.927219992903773937e-02 2.806800420580068955e-02 -5.055276519303429639e-02 -1.037742498738203900e-01 -2.056027340276471438e-02 1.198139080946906965e-01 -4.116069684893668146e-02 -6.240848402753399610e-02 -7.239894904131087550e-02 -5.928109587188315488e-02 -8.261811048263040247e-02 -7.522886875691925379e-02 3.405014488693755559e-02 -2.556961844848856802e-02 -1.612533207194033480e-02 -3.577751452376840002e-02 -1.112744793969291240e-01 -9.952187480159416233e-02 -3.020222146688900100e-03 1.799453809463211207e-03 -4.351974912928953387e-02 3.441215962346852453e-02 1.076951874259320652e-01 9.618969401515303774e-02 -9.516406845301990380e-02 2.369807640878351940e-03 -3.878841350154940693e-03 -1.055414012274316637e-02 4.482422899223981183e-02 3.275567064867734857e-02 1.121033091791571179e-01 8.899806242038818538e-02 -4.052490772298071586e-02 -5.069143004329679236e-02 -9.804388468831477799e-02 6.609269598722988803e-03 1.061016613335278580e-01 4.186956015155382516e-02 1.114107302689573697e-01 -6.542566246833136923e-03 -6.090702913722252643e-02 -7.944650068678113519e-02 -1.873449431034883428e-02 5.335403550591397148e-02 -1.035998264780765288e-01 -3.378645939451524471e-02 -8.254734106572098051e-03 -1.046515736465604418e-01 -4.979075341519545450e-02 -3.756178271064238017e-02 8.358105475534005624e-03 8.882292216603723811e-02 9.461579617242571461e-02 -6.595379186584927889e-02 -6.538131599177571252e-03 -7.621541223656290442e-02 6.320245656543288515e-02 2.327845675735176756e-02 5.126896530847185884e-02 -5.108945794729072287e-02 3.119644883267458368e-02 -9.928592718206205592e-02 5.233108297288890931e-02 -2.645832204188268422e-02 1.005442533322025989e-01 5.256050894022618047e-03 -7.076714189425745150e-02 -4.194487022029304291e-02 1.144882011079897122e-01 -4.485426328456508516e-02 1.166980543786905189e-02 -3.897045059640821818e-02 2.074194243276469840e-02 -1.017202448874496845e-01 3.111797087096096481e-02 -6.580695491773039252e-02 -4.955177334575140702e-02 7.951476592005377042e-02 3.504058540279830769e-02 -1.174716119873453063e-01 5.350865396018228415e-02 4.551734108573124438e-03 7.198363337908580961e-02 -4.244669964923793171e-02 -1.268791595284116114e-02 -9.108275008467668632e-02 8.294364673798035326e-02 -3.293275218068328347e-02 1.138725488906421057e-01 -5.373621332577450949e-02 -9.136086055218356483e-02 -1.111684197146564496e-01 -4.929954623432833416e-03 -5.114684525824611527e-02 -9.702617718270176161e-03 3.043037290803679573e-02 3.911846745485642041e-03 -9.746968724067354983e-02 2.917001764283108645e-02 2.962415150781486095e-02 2.260440859777804179e-02 -7.493967715474658675e-02 -6.959009910505370433e-02 1.002080938584912762e-01 -6.610665807958709950e-02 -4.529308400776109467e-02 3.007484194519147169e-02 -3.707451928712190981e-03 6.353233613172934446e-02 1.086097422680732671e-01 -2.797581068603734178e-02 -5.267548815115831451e-02 1.004772153537632773e-01 -6.009790498131281633e-02 2.813920042756681839e-02 2.056216126616838835e-02 -6.143072341376682594e-02 -1.008097989802542588e-01 1.237617349997394145e-02 1.198594830692785440e-01 -5.946185776358289821e-03 5.326186909758562349e-02 -9.946830366621893516e-02 -5.448766483586389708e-02 4.290183584389292704e-02 -8.546671801998570461e-03 -5.134498773801547677e-02 -3.963094365231033256e-02 -8.120163745037545233e-02 -1.177968430471213329e-01 9.431456251908298949e-02 6.033496594168874516e-02 -3.087570314524989978e-02 -7.580796162896083490e-02 -5.515086286316796260e-02 6.329634076298956691e-02 2.900801927419258130e-02 -8.738466909273986949e-02 4.624613754310824554e-02 -9.018295666231426755e-03 1.330715154621295304e-02 3.626220568465085559e-02 4.761144833552943822e-02 1.137299923250346123e-01 9.886924747458689100e-02 8.528504116917798306e-02 -7.281929228774181029e-02 -1.237876231483511780e-03 -1.176694535060485713e-01 -7.348678183264054087e-02 -2.646613890849927597e-03 1.064423198107014024e-01 2.577815963841895153e-02 1.034588144153149591e-01 1.061849178636702085e-01 1.908168691733658218e-03 -6.049946528155498299e-02 1.011390848816751675e-01 5.914299685869831014e-02 8.739282890854410679e-02 8.830306522114250711e-03 -5.247474560670431498e-02 -1.236318361249280628e-03 2.417122876696589651e-02 2.335508809734271329e-02 5.762614184624020863e-02 4.854652171639045610e-02 9.778551518660691388e-02 -1.122501729188986469e-01 7.360592857613879048e-02 1.059720746021218518e-01 7.350069785075799556e-02 9.645369476048373802e-02 9.587083788463124367e-02 7.752605521925257093e-02 -3.018487139555124654e-02 5.643862142921729497e-03 1.342440029892835729e-02 5.253895288039212019e-03 -1.012171971535276854e-01 5.122626124306262074e-02 9.211199942359557524e-02 -7.519520634340494392e-02 1.105949965050306849e-01 2.024741784329628369e-02 1.063135067370994669e-01 9.575817911735978738e-02 -5.921139213615354835e-02 1.178981755426333489e-01 -9.245502341520765721e-02 8.301171492107362049e-02 5.429860794554242087e-02 -1.183190841916707120e-01 4.330918556983737178e-02 1.112534701570263851e-01 8.380089788007952234e-02 3.645933065535944539e-02 1.917686814464772405e-02 -6.040535131619052811e-02 6.635056026199098733e-02 -6.039235190346520232e-02 4.905365966155900148e-02 6.129611080062755124e-02 7.156488785203807268e-03 4.465533780747421577e-02 7.223407072893892056e-02 8.834425763278472288e-02 4.363934119091750219e-03 -2.214472997887541317e-02 -5.788502844882686266e-02 -7.765821251879118092e-02 1.576669567885985446e-02 1.163066381670602167e-02 -5.528651572076555276e-02 2.617858957158569755e-02 3.665509677828046597e-02 -7.470848155129734824e-02 -7.399930314832103839e-03 -1.016937989929322661e-01 -1.951755758105008787e-02 -1.134977021771639560e-01 -1.687490585270039201e-02 9.416326386958187578e-02 9.383759164435698241e-02 4.432060126496500940e-02 3.869057068147968570e-02 6.123017010753040168e-02 -8.752937346263792162e-02 1.610439359374771229e-03 -7.506281401122240349e-02 1.907492019280462858e-02 4.180827442931342453e-03 9.016713844118778853e-02 5.289054049367819532e-02 4.491760387904197849e-02 -7.396741181297888934e-02 -2.550449970115652165e-02 5.899521234294077821e-02 4.698747184333681992e-02 -1.179506313383944655e-01 -9.233802537567563362e-02 -8.733942596832396099e-02 -8.213275647876647212e-02 7.588933179017126607e-02 -3.284958739454856003e-02 -6.278121217366045004e-02 6.090253462360556425e-02 -2.294721406139622888e-02 1.094339987088084609e-01 4.169676832411822742e-02 -6.028836748127721495e-02 -5.434280421344175882e-02 4.943329545057401075e-02 1.042813632507349486e-01 6.323875009454360541e-02 1.742625265673850010e-02 -8.083452199256685455e-02 1.410431931268699146e-02 3.255516912940503715e-02 1.123972406043781402e-01 9.472469915761955184e-02 6.854654830625273032e-02 -1.827037336885049823e-02 1.058678930194738022e-01 5.908648886891426644e-02 1.635237936248237767e-02 3.366399661804564403e-02 -8.949642290446059578e-02 -5.774726935898016195e-02 -2.257082461111592497e-02 -7.367892910222827163e-02 -8.103686480255584135e-03 -1.120230379274124305e-01 -2.859728331933236722e-02 1.838089839502995981e-02 1.948700360079433369e-02 -1.210793633750885390e-02 4.864583727545210290e-02 -2.226458954087001674e-02 -9.499169494668233127e-02 -6.171336893023761372e-02 -1.154330834900529207e-01 9.825210810436102449e-02 -4.651939772079105584e-02 -4.089191638505748627e-02 -5.434805587885921385e-03 -1.179490247137826020e-01 7.012837596387427874e-02 1.065063743988451661e-01 3.917803035474065609e-02 -8.135790462686384727e-02 -4.517220343232962454e-02 5.488569947237595392e-02 -1.095876468827915312e-01 7.830318053217810714e-02 9.746797369102350173e-02 -2.973910053446314483e-02 5.992091006465544156e-02 -1.115169426862465396e-02 7.305572289994730073e-02 -1.062523112663102676e-01 -7.373752245649686787e-02 -8.325842337203387400e-02 1.079042452176875722e-01 -6.412465497070057863e-02 7.944863323494175122e-02 -8.642253739342903307e-02 2.906936723156461344e-02 -6.693417524720429723e-02 9.945388337136998325e-02 -4.990159837446919711e-02 -6.780752969269371322e-02 3.167328834425411910e-02 -4.673266265790584906e-02 1.018234963742108146e-01 7.756626117400450271e-02 7.743906142003792459e-03 6.927748190597007860e-02 1.047947848472782773e-02 -1.249809266530958751e-02 4.362546532694161483e-02 -7.059293980891773179e-02 1.753045031897432215e-02 5.621732252953293152e-02 -2.976160825271630117e-02 6.417903719731415935e-03 -5.764950574436574632e-02 -1.191351056921566287e-01 5.492093254265709157e-02 -3.197916615941989726e-02 2.255251069449518142e-02 -8.238062222097147780e-02 -6.523900273550153894e-03 1.120434169477308728e-01 -7.614545936530009440e-02 -8.224321798229713987e-02 9.800561554535219821e-02 -7.083307767375826569e-02 1.033463143656638550e-01 1.054281644190805112e-01 6.866731782552276675e-02 -3.852881879903465034e-02 -1.190148735829395232e-01 -9.681362743709062690e-02 -5.333785981023446421e-02 -3.041519998479454145e-02 4.152486572807964627e-03 8.709527992639065630e-02 -7.097820587222729294e-02 9.895140877619418296e-03 4.598486424124417771e-02 -6.055322616635132327e-02 8.023692877277779911e-02 8.682650861795890296e-02 -5.175761815643474539e-02 -8.218911579728001293e-02 -1.336147847056615157e-02 -7.091786063133664886e-02 -2.276914949185857018e-02 -9.238922631190493728e-02 -6.225553695452754055e-02 8.349179999531389229e-02 1.967707281387329199e-02 -9.671453993602097121e-02 -5.456546655104706212e-02 1.191443125614393139e-01 -3.439617344541338884e-02 5.294200032667967237e-02 8.976729329251026401e-02 -1.076896206163874270e-02 -5.789752690469291557e-02 -5.216797145831168769e-02 8.766867451599152927e-02 3.959000330255965650e-03 -7.353789910028289689e-02 -1.220479136991643732e-02 -1.168220832838382378e-01 -2.487238242966229029e-02 -1.027218729330713343e-01 -8.760519469983782392e-02 -7.032954957783638106e-02 6.212060067361124815e-02 1.018620666189468671e-01 4.890878062138823146e-03 -9.678470960356801156e-02 6.178838157671501241e-02 8.126628892417966932e-02 -6.450026868558178528e-02 4.952971493916819012e-02 -9.736084024437713369e-02 -8.350410523891196868e-02 1.125299726385999843e-01 2.223764583494847180e-02 4.488531564129666362e-02 5.332517559336011348e-02 6.101450629150612093e-02 6.374506566363058457e-02 5.501720661141915047e-02 1.186774101699992756e-01 -6.911739209891931690e-02 6.159191870860483697e-02 7.116699017664840365e-02 4.148609911985046139e-02 6.612420880057631734e-02 1.571769120117882945e-02 4.317486867665792927e-02 -7.996828463543936838e-02 -5.314479822450204893e-02 -1.143912892760015204e-01 -5.354940274410113776e-02 -7.591313460341714281e-02 1.434921718136214497e-02 1.083141069353252828e-01 -1.022629927102409048e-01 7.598345961492139478e-02 -9.613789954502989510e-02 -1.136636818242993396e-01 -2.108630866248491220e-02 6.603324423182313496e-02 -5.092138547475423549e-02 5.837975976869111405e-02 -1.098928133453629108e-01 1.122793651954854255e-01 -3.848242659579262370e-02 4.386236669349172224e-02 8.337948405440956390e-02 -7.441701524925747879e-02 2.985269913311633383e-04 1.031287647916593053e-01 -1.199923583487187695e-02 -7.711742525201212284e-02 6.608881022608084632e-02 1.286112539115094600e-02 4.914025037670111118e-02 -2.185022124709259939e-02 1.463407870739641403e-02 3.413249889199393428e-02 9.703712438177494737e-02 -6.746603161540699889e-02 -3.741433284571259177e-02 -1.131479681035154061e-01 -2.204866439059943728e-02 6.783526093039027316e-02 -1.007238639258521695e-01 -1.179042125459424384e-02 -9.710161807785112897e-02 -8.971746119741623449e-02 1.072443866587197148e-01 -6.469817907939770518e-02 6.970904695029650489e-02 4.240796082915962439e-02 6.586449095706561896e-02 -7.142031981935954843e-02 1.652222372476214174e-02 -1.094560222430058793e-01 -3.253458229984221295e-02 -2.601032858817534099e-02 6.104092403945585166e-02 9.310179465276158250e-02 -4.057090218850922803e-02 4.536850684626861363e-02 -5.816734180187299597e-02 -7.257015010237247155e-02 -5.728978435106615863e-02 -1.894288842499851355e-02 1.025134487705161856e-01 -8.239946292691291418e-02 8.760957306759911689e-02 -5.268531406773623027e-02 4.867779654281717550e-02 -9.773433170459790154e-02 -7.842338605472667923e-02 7.443505739366484963e-02 5.395412959405634923e-02 -3.714377763163623225e-02 -1.027518314299565305e-01 -4.391930470399624253e-03 7.413780213025336630e-02 9.336198169673906588e-02 4.013652161556993669e-02 -5.088460840144692909e-04 -3.852716693273244841e-02 -5.538737047249464585e-02 4.001224465415273435e-02 -2.601668754366337488e-02 -1.034295840711853265e-01 -1.015516189919045825e-01 1.144066077553798355e-01 -1.120548941282731026e-01 5.257424010364938893e-02 -9.895160649103980355e-02 7.585219701751411137e-02 -2.251504411179550136e-03 5.379965368306272033e-02 1.169455351356638029e-01 -7.615221711745615019e-02 3.352953832750499297e-04 1.039374433021686139e-01 9.593617927552303137e-02 8.967723932555787814e-02 -3.066853501494475054e-02 8.794507065205348084e-02 -2.506687232078710914e-03 -9.273362577611860003e-02 4.675663271068083993e-02 4.481251929240792631e-02 9.374422070109661442e-03 -9.339895547440091317e-02 1.055422457301603556e-01 -1.013079402485654035e-01 -7.745618096050901902e-02 6.215675060934031104e-02 1.019036138456219931e-01 -1.067311606979353678e-01 -1.886066719162342309e-02 -1.111209241155627775e-01 1.085077906928264002e-02 -9.927544883714446711e-02 2.114574447330758167e-02 8.573190348550749351e-02 -6.967504618283679174e-02 -1.029920073829859312e-01 -1.118420121440818205e-01 7.519140687822623015e-02 8.631149534704568582e-02 -1.143194716017432028e-01 3.083199215242332647e-03 1.022106116492649264e-02 -1.141777871910357733e-01 -2.504880751366592162e-02 6.788839433644777710e-02 1.070649936692050774e-01 -1.036269671382968327e-01 2.687293947487576218e-02 -3.668463068049789000e-02 -7.170522725811802334e-02 5.411053140196492306e-02 4.441717548202994692e-02 -1.023605288757453297e-01 -9.677851681372856563e-02 -1.923309320136912248e-02 -4.958964075025430740e-02 3.282322552664310167e-02 9.831767517781012100e-02 -6.529173718844255569e-02 9.588161414536611193e-03 3.296248043384605864e-02 -1.074359109474565255e-03 1.199251824736333183e-03 1.093131613107758693e-01 5.909343100399844229e-02 8.248897679265324023e-02 -4.935914888910863940e-02 -2.905181169401463426e-02 -8.210902678608475447e-02 8.934917033200803771e-02 1.571632149931986855e-02 -2.836528819179565120e-02 -6.165829517547874450e-02 9.395123537584681994e-02 -6.240565776272666287e-02 -1.005992991808281611e-01 4.481752646890288516e-02 -3.047837253050286743e-03 -1.122596746906840554e-01 -5.150455994046189423e-02 -6.337519915808313697e-02 -1.857174212822995663e-02 5.205008280901091133e-03 -1.727721730002131084e-02 1.164282804999791365e-01 9.897407701364518973e-03 -4.761968852112613559e-02 -7.079979545185730028e-03 -2.010064820226234450e-02 -2.122056661124795129e-02 -7.115640602056681752e-02 -8.170462306056722190e-02 -4.630105209817227119e-02 2.001747950840618295e-02 5.541723770606346577e-02 -5.242244261215073253e-02 -1.040947164253817891e-01 -1.140750764942496248e-01 -2.533460118069759404e-02 -9.094067286700227570e-02 4.875339357177180255e-02 -4.135697134436107369e-02 -4.965568185857055505e-02 -8.192232577284894179e-03 -8.585856568577024395e-02 6.500275229710672509e-02 -7.590589474297465555e-02 6.770256303387225949e-02 1.029971933759688263e-01 -7.988156535828634663e-02 4.537062060470989366e-02 5.126411589938237312e-02 -4.135944380064231207e-02 9.903112091387805682e-02 4.215048564657286612e-02 1.126920644070366073e-01 6.643571881399637502e-02 -4.745788203556351725e-02 1.004991918291552322e-01 -1.176291207558971125e-01 -4.748733374306711441e-02 -6.659794953054432032e-02 -9.819462538509923788e-02 1.210273110053258772e-02 -3.041481723094890954e-02 -9.516153117718446908e-02 -5.720953596349144521e-02 1.169697955738421002e-01 4.626804049601274116e-02 -5.605160411032950041e-02 -1.058709462447242483e-01 2.548821761219777216e-02 3.152157252909090768e-02 -1.146560578192219182e-01 -4.955748790965415485e-02 9.306685078116971876e-02 -7.798100762944683295e-02 6.453238161484853297e-03 -1.060392146980163319e-01 -1.061761320963798549e-01 7.949102411254208023e-02 -5.062814175445851106e-02 6.484154677068987294e-02 6.580441170006937068e-02 8.425783608807546621e-02 1.150799526359616021e-01 -6.821885658986351353e-02 9.440114882163239129e-02 -7.555751587819135862e-02 -3.176082143270872460e-02 -9.883564041713330250e-02 1.164842754650463053e-01 -5.325376629750569468e-02 -1.075993172786848945e-01 -9.508829251345952971e-02 4.836000513121538336e-02 -7.283598780035341336e-02 -1.593973999714091982e-02 -1.079727851806759065e-01 -7.164865855159388564e-02 -1.076043801287226293e-01 5.375624253947941522e-03 -1.061472535158218267e-01 -6.170707369883710047e-02 6.888742351610518955e-02 7.572183241070590265e-02 7.223222340110646567e-02 6.673716109049321332e-02 -9.339430464460125869e-02 3.466692362318221643e-02 -1.124565404920472578e-01 1.556903648286825370e-03 5.262490759787408212e-03 -1.164920970890364754e-01 -1.194656276579547094e-01 -1.011883948245321796e-01 8.616427313028748869e-02 8.447512167013643269e-03 -7.721097630139500678e-02 -1.033105985308370306e-01 -1.188477762734446858e-01 8.695013008489105300e-02 -6.647381588987769097e-02 6.547814373570590152e-02 -8.063697778972736541e-02 -5.835548776453048508e-02 1.178173347257522874e-01 -8.319131192592904567e-02 -9.539777508894667357e-02 -1.755796238349542626e-02 -2.247319984889685485e-02 1.195864820034089893e-02 1.095299519605507643e-01 5.581452190707414385e-02 9.311219398604506092e-02 -5.814575494864047955e-02 6.055338281215322249e-02 6.836058588764062915e-02 -2.211423326605782558e-02 5.910283822486356309e-02 -7.722776018345092752e-02 -4.291887850331214949e-02 1.035947167073724973e-01 -1.096903168922425537e-01 5.267932281946402506e-02 2.833234765901795904e-02 7.927270875966466179e-02 7.715110971608213353e-02 2.149098139877306246e-03 -5.577085479281922165e-02 -1.033205200376724475e-01 -8.545958183106736050e-02 -1.185177967671355026e-01 -6.754453593967610359e-02 -6.240924869377741796e-02 9.253694541652091043e-03 6.563789082575552380e-02 1.211997100735079380e-02 -1.190055748035349081e-01 1.094093861724560468e-01 -1.301291262296466744e-02 -2.477562795071852619e-02 -6.909730480541703690e-02 7.182565225152115485e-02 9.966716473279874089e-02 3.516774706601880074e-02 3.924132140401132007e-02 -1.319412063459940443e-02 8.522500172857427891e-02 4.845930713934390455e-02 7.486796403139117650e-02 5.798503867622700758e-02 -9.053896187284540820e-03 -1.048261672071288120e-01 -1.095254318865081927e-01 -2.857801330958784081e-02 3.721851892328378875e-02 -9.617851680526708080e-02 5.081769462621452127e-02 1.016625540762289004e-01 -3.132391598512924979e-02 -1.170328769911830324e-01 7.661285246801294302e-02 -1.352921036992990600e-02 -6.733455837948415512e-02 -1.187468674179775613e-01
8.821835683553450047e-02 -5.782799078511519780e-02 -4.641968302516008560e-02 -9.368589894374820815e-03 -8.527529586546125917e-02 -5.014255360126949890e-02 7.486188095333576320e-02 -9.396140101385135057e-02 1.100233517121153581e-01 5.122768370866809251e-03 5.037458658593652050e-02 1.068262260924545404e-01 -9.984134059517575654e-02 -1.024103111197342403e-01 -2.609550528515858225e-03 -7.019773267553736096e-02 7.418766742939778003e-02 4.843428470286834098e-02 -8.285655342901140918e-02 -2.013693297253921211e-02 -5.196491933110426731e-02 5.817601038102332422e-02 -3.755231273739303988e-02 -9.327162063243041312e-02 8.321214528533821264e-02 6.584323769774425017e-02 -2.189299094519388256e-02 -1.838840062049733326e-02 -9.203256481980184867e-03 -7.104053267722412746e-02 7.408005486634672287e-02 1.157398349037706275e-01 -8.716429923094376475e-02 8.502499586487266559e-02 -6.897237037412337624e-02 5.353266320571398174e-03 -6.474593602347827881e-02 6.030467706123859850e-02 -1.933550723855395614e-02 1.115968957721368282e-01 -1.117626171940794833e-01 -3.869097829552287093e-02 -4.271090081020714746e-02 2.740411486118851658e-02 6.920413005060765954e-02 -8.316569054295330776e-02 -3.779185209232040210e-02 -7.558115530587497521e-02 1.013108332597212335e-03 -2.272817149900119293e-02 5.756963551453694872e-02 -7.378878802718598362e-02 4.208180932315980227e-02 -1.167693161745165520e-01 1.066003162753405842e-01 7.482115949820278278e-02 6.130727205196231933e-02 5.006915957106292114e-02 8.120716305199893181e-03 -6.607620793524304759e-02 -6.637405518231997981e-03 -7.736725543391047288e-02 1.461784083976816473e-02 -9.117041466927759685e-02 1.557236798662367527e-02 -3.703517203786639567e-02 -5.967802831448863754e-02 -8.751193884253648247e-02 5.870611367016795312e-02 -6.006388827724555568e-02 -9.680822850540470037e-02 9.130820823457364011e-02 -1.097843327136480002e-01 4.078484809874161066e-02 -1.192966725541030198e-01 9.716917764900870336e-02 -6.428153790905241638e-02 5.193911443793236549e-02 -1.060130211237492737e-01 1.066975336477488934e-01 -9.539229775283816770e-02 -3.919934973464400674e-02 -9.607961672982243129e-02 8.862062072254056622e-02 4.556720537150754646e-03 4.352507076494852023e-02 -7.975811202121059484e-02 -4.525777582305430535e-02 -8.632370737502401137e-02 -4.956322410200214579e-02 8.989425878721091223e-02 6.906874011788599610e-02 -2.920860511706392659e-02 -1.106645777623137678e-01 9.929121251516639934e-02 -6.125277511842493194e-02 6.841747533313780050e-02 8.049252364054976239e-02 1.110390196992578626e-01 1.137324153452198838e-02 1.735257041571242054e-02 6.689622239398046455e-02 5.176265311122363322e-03 3.693520199856598074e-02 7.698946091927447166e-02 -2.252917001462907687e-02 -3.453707435046028673e-02 3.527676296275139567e-02 -1.668837388207010386e-02 -1.176707133604501243e-01 -7.391921464005821174e-02 -2.856007298610047096e-03 1.002637062468405005e-01 -1.169140123923867736e-01 -1.046210022593771494e-01 -6.330479747529303702e-02 -1.872710807187817628e-02 -1.012480890225736924e-01 -1.076460206128109637e-01 -9.941303748507493432e-02 5.406026372653610634e-02 -9.684444143662236659e-02 -1.017020164894891082e-01 7.365134587976446268e-02 -2.302778272415745286e-02 -5.682280447491006026e-02 4.536179486385394366e-02 -3.804809565975343644e-02 -5.549992482706930796e-02 8.410803568234037630e-02 -7.307348944699618154e-02 -3.416294723895074714e-02 -7.001714198878850048e-02 -7.484275496314057863e-04 1.184315200360244180e-01 9.282628866969092063e-02 -1.109937721607410360e-01 -5.537568729955286151e-02 3.031267345751603726e-02 4.650602412448051615e-02 8.434379002912609224e-02 -8.033840676168457762e-02 -1.062625122637129993e-01 6.780298831379372171e-02 2.160300618807153850e-02 1.923728553080483739e-02 -7.436542627427145113e-02 -9.474458132140547995e-02 4.714387186673865693e-02 2.041969305174365368e-02 -3.121257584229020221e-02 1.673140247098178768e-03 4.343941592900399384e-02 -1.380591721696601548e-02 1.774719812706793132e-02 4.427548040834383691e-02 -3.477957208097894048e-02 4.400441867183454980e-02 -1.026034793369809683e-01 -1.074480518529619677e-01 8.703925547203422708e-03 -3.913218960221111209e-02 -9.628227691250118569e-02 -4.653811009199530779e-02 9.579231769861815127e-02 7.497481786114104652e-02 -4.852814589504655940e-02 -2.351188440553077241e-02 -1.052965936425923760e-01 -1.030633299698087979e-01 7.694949759049066196e-02 1.075030321403167011e-01 -7.616927598463224536e-02 -1.690329875273753613e-02 2.652326299391266629e-02 -9.326451398542404125e-02 -5.642616240972916919e-02 -8.166068425832803679e-02 -6.812722244959736051e-02 7.911879396073517867e-03 -8.597817773178227652e-02 -1.091936109499203056e-01 2.071600022790751061e-02 1.136253414418653962e-01 9.714859503796449691e-02 5.052562658925266459e-02 -4.614905754007091188e-02 -2.989551980540759712e-02 7.765309548648174909e-02 -6.688745211617577735e-02 2.056421557498394614e-02 -7.076346472478345362e-02 4.972527512187918663e-02 1.880484115521968702e-03 7.345429028163619201e-02 -8.480271516206074056e-02 1.969042641732354770e-02 5.943315446639799160e-02 5.804683237422225695e-02 -9.919103671945597722e-02 7.915997908712887887e-02 1.003311178112769597e-01 5.892052770454936361e-02 -2.803822923696766556e-02 -1.132077258792441032e-02 6.717869093725986618e-03 -8.977076938072744983e-03 1.081837364724682615e-01 9.838364301083390995e-02 1.116756949826640810e-01 4.913311426061403586e-02 -1.017354023811748165e-01 -4.374592613682604103e-02 3.755652869917586179e-02 1.895784419175286506e-02 4.843310920985893775e-02 -7.098454929278233405e-02 7.909824910987542368e-02 -9.050478219302937610e-04 9.224060771749809096e-03 7.033455634726404337e-03 4.552408268557775473e-02 8.163112721091220214e-02 -5.506476107480920423e-02 8.109971618028150031e-02 -3.012457517500878590e-02 -8.786316423934120712e-02 -2.534999970388568391e-02 -5.103268254372492208e-02 -9.278228452851253194e-02 6.348298462943585685e-02 -4.957302948738905035e-02 5.440011883695725081e-02 -3.530664068315289561e-02 6.639830607600341605e-02 -2.047630640760761400e-02 6.383600622185292561e-02 6.103891413455797554e-02 7.531601250797551050e-02 -8.687719340897963327e-02 4.212908461128608839e-02 4.567271632074157428e-02 -7.830783263387666726e-02 -9.125848337375955244e-02 -1.041440627314517281e-01 -3.580421628396607270e-02 -2.929259622449763290e-02 -9.998015097667128925e-02 3.196466099510422709e-03 8.877868490438575733e-02 -9.374623903040435469e-02 -8.304926462655837227e-02 -9.667416881911888860e-02 7.549309740007864589e-03 -1.199358707967063120e-02 1.093685724010038107e-01 -9.016136760144620454e-02 -7.245437076992503056e-03 -3.942476455969103066e-02 -6.204344883721611692e-02 -1.317156908549073357e-02 7.073002948266568501e-02 -7.244256180207483964e-02 1.159675898414792850e-01 5.074174688305913006e-02 -8.088946075041253403e-02 1.030406007458053441e-01 2.758506417212078232e-02 -1.970206398872946518e-02 -1.489139857860949379e-03 4.836742300586124865e-02 4.423313966903516525e-02 -8.609928873678496242e-02 -3.039327408167673272e-02 -1.126227801950313440e-01 -5.636497696428210968e-04 -5.714363689277794645e-02 7.675077406029104377e-02 -7.398675802178279748e-02 3.753990242536170419e-03 7.160337224476412410e-02 1.056401651629460536e-01 2.846449617088367412e-02 -4.086607121631227746e-02 -8.278495446320785489e-02 5.667986616634482222e-02 1.195356855709791277e-01 -9.089749751906429920e-02 -1.673123358946437822e-02 -3.986975971523977480e-02 -3.680343059756611968e-02 -7.769150293211582459e-02 -1.104136216223316341e-01 -2.877235947988332487e-02 -4.487590023891102620e-02 -7.747954940612868102e-02 2.341839550195101705e-02 7.543710383433516187e-02 -3.164557170571528910e-02 4.651971774728147491e-03 1.008331652588090321e-02 -1.018482700822923859e-01 6.228320236503598339e-02 6.685211777860955440e-02 -7.353923502038897664e-02 9.654677328655478230e-02 4.665218167998230747e-02 -7.148311765406725748e-02 -3.205461969148865053e-02 -5.630560059251268901e-02 1.113961200994699752e-01 -3.670340080502858260e-02 -1.002359327484427520e-01 1.344502931284005665e-02 -6.693714032929348745e-02 1.053064581865357507e-01 -2.367928941307954893e-02 -2.386333673315921278e-03 -5.861078101770912652e-02 -7.572078064738099745e-03 4.245508033505315804e-02 -1.183426870942523024e-01 4.887920680876595148e-03 -9.086325884796633834e-02 -1.099438485938848686e-02 4.253097115094511826e-02 6.559925957124354556e-02 1.054181918040936472e-01 1.413667143691407779e-02 2.898509129341794721e-03 -3.882987822357866770e-03 -6.451547111886082875e-02 5.067297778368812233e-03 -1.079034893175055965e-01 -9.082092391273596799e-03 -4.967239080528092210e-02 -4.420459205382160084e-02 3.312416585275787528e-02 1.188906964526939558e-02 8.406706271083505544e-02 -7.369927401139900192e-02 -7.098484794928069941e-03 -4.239442291865638812e-03 -6.967489177450555959e-02 -8.432208205630237208e-02 -1.006909889707584826e-01 1.873208356266642394e-02 -5.307042409496613711e-02 1.806931019302024377e-02 -5.001540943899054903e-02 6.277573877639755495e-02 -8.138755552931471737e-02 1.019531116317754504e-01 -9.464686012021555905e-02 4.331051517454700961e-02 9.964297164734126078e-03 -1.027014372757577287e-01 -3.559918297084163630e-02 -6.592735921211653749e-02 8.676178341148149675e-02 -2.050358231684652754e-02 -1.066450030788332476e-01 1.001296302600718502e-01 -3.284570225972079094e-02 2.000179409043928436e-02 -9.686246123550110165e-02 -8.024319987631894913e-04 4.733742578493008168e-02 -5.198825253082078879e-02 -1.050491109592868733e-02 -2.201262649254423498e-03 -4.519628282210637338e-02 1.783721484074618502e-02 8.340273710252049666e-02 3.054125010583466637e-02 3.949700796716926199e-02 -1.065319577631537312e-01 3.673620246473832673e-02 -6.113179196483901207e-02 1.173811669447308581e-01 4.087545156426827808e-03 -6.096438591068599477e-02 -9.061196813235794512e-02 -2.751151677375658633e-02 -9.301889285910792948e-02 -7.894199973629667522e-02 -1.180917635509668162e-01 -5.617734190170776964e-02 -6.652411049050957481e-02 1.070218161897150411e-01 7.969715913078384562e-02 -1.161032486782985346e-01 1.161077425935684027e-01 1.152184311153451324e-01 -9.424775898055744172e-02 1.461946568242325495e-02 -7.833716648417313189e-02 3.124311690204550906e-03 -8.410858801289006204e-02 2.317397989647293488e-02 2.409175568054119920e-02 -5.412421644716379487e-02 3.128291890055193147e-02 1.122546937698409852e-01 2.688450171972248115e-02 -7.072417874260758519e-02 8.029188711767284992e-02 1.123871164115529953e-01 -3.127315562369206714e-02 -3.825914105668173915e-02 1.178463080793523132e-01 5.931646005534890742e-02 -1.914294349641201820e-02 8.628068906259128701e-02 -5.245139246438380864e-02 -1.066107223329457454e-01 -2.447109396587252017e-03 7.435568608472567509e-02 -8.446012663258131714e-02 1.158708562055474622e-01 9.848316000523882341e-02 -5.331010214371423306e-02 5.934410134697948314e-02 7.613498315120981186e-03 1.955995399726440098e-02 9.491554465220602976e-02 -1.176129678976876453e-01 -6.292440659631140520e-02 8.410398438045740832e-02 2.737702472362926742e-02 4.195809809529821299e-02 9.163065984741478043e-02 -5.354201608205014229e-02 9.486860010985126435e-02 -7.468633861110501870e-02 4.764328914475721155e-02 -7.481306604310902775e-02 -1.181496351076343210e-01 7.923655240641647168e-03 -2.578509990984342859e-02 1.065084457084100600e-03 -3.247488159879413638e-02 -8.994276005093990167e-02 -2.879692788226245748e-02 -7.809775083372494375e-02 -5.630744929904563101e-03 3.912623713511759194e-02 1.181237231717390257e-01 -1.024368355498919553e-01 -1.666438255180482941e-02 -1.037133427622686510e-01 -3.526872603217809377e-02 3.319107829756784422e-02 -9.811743341675063790e-02 3.424931024215113751e-02 6.957529431716860668e-02 3.453667873660978826e-02 -7.498812304951515961e-02 9.582774764683543722e-02 -5.555169165115976526e-02 1.057676604918144914e-01 2.181980575078529272e-02 -1.012805184112471335e-01 4.432900833632955062e-02 6.204454461484329442e-02 -2.596161290010796929e-02 -3.036376660538531169e-02 -7.420709278571704925e-02 -1.076309863746093415e-01 9.201293132031237998e-02 -3.962578425946879090e-02 3.240666826822574675e-02 8.049000541208489734e-02 -1.135455400570340445e-01 1.721869138331100224e-02 -9.999165128680162495e-02 -1.159960773763374503e-01 -2.879914735117146407e-02 1.077085107851284695e-01 -4.301647948394518584e-02 8.906095527758375874e-02 6.853396894171581710e-03 1.129191400980255611e-01 -1.020984613027114823e-01 -1.113112424480286050e-01 8.303139374440368647e-02 -6.163659953899477267e-02 4.985102849487837995e-02 1.053065133071645620e-01 2.652736953619230786e-02 -5.934805706398176700e-02 -4.486362743718584623e-02 -1.036447225013253093e-01 -7.670172492099572303e-02 -2.578554053212592234e-02 -6.049808673211254373e-03 -2.685753560758263880e-02 6.607792579306936975e-02 1.885525100486784567e-03 -4.391339756217856050e-02 -3.554274194039135082e-02 -1.116740597936693724e-01 5.263667963584214848e-02 -1.070277373663848924e-01 6.703813194085941896e-02 -1.027591582456397062e-01 7.064145349922343331e-02 -4.952327540767616221e-02 8.281561862770125959e-03 6.174938285870568144e-03 -6.098409678730057348e-02 8.571862240123981347e-02 6.454074349966193447e-02 -1.001700491441672725e-01 -6.476992495188656218e-02 -1.036064019130973624e-01 -9.787422586340570330e-02 -1.011176018523303466e-01 9.509934283790075216e-02 -2.244979330667890016e-03 -9.728994815619712577e-02 1.137416129688468280e-01 -3.161170937205393106e-02 6.533254684765205100e-02 -1.205625003459663558e-02 -2.927415753169806956e-03 -4.683050928337709196e-02 -8.710320943645824543e-02 9.391836954977139662e-02 -1.091573215995949031e-01 8.597300584183939498e-02 -5.005347190154919856e-02 -4.921973555399478117e-02 -5.302379799121088866e-02 6.533653569511888026e-02 3.023076745867439574e-02 7.205008665883838592e-02 -3.433206675632478888e-02 8.699549962647573631e-04 -3.925942939303868340e-02 8.945638005879658072e-02 1.117160266841718264e-01 3.146546639283751001e-02 8.837770833663483039e-02 -8.271423527992302627e-02 -2.127747009000709177e-02 4.766564985206039884e-02 -2.475825293352351686e-02 3.457175830320127763e-02 6.950398439751193091e-02 1.099439521404320108e-01 2.272283627349053203e-02 -3.282590781059700757e-02 5.653016630800056230e-02 -3.513249684749239488e-02 1.132153620973379016e-01 -6.346239193953825963e-02 4.202431016051696999e-02 3.279512467694467581e-02 -9.721299763290404405e-02 1.134584819634870123e-01 -1.155867234504177471e-01 2.449884898623391760e-02 1.116885442447561327e-01 3.610587435458048611e-02 -3.175643374348613435e-02 5.600573039898645855e-02 6.068971423832195122e-02 -1.178106450598529892e-01 -7.638265316357988055e-02 -1.194432306584445047e-01 2.225627839511315487e-02 4.349674248503523910e-02 -7.569323896727772616e-02 8.144800342332836340e-02 1.581460335321735466e-02 3.449075951490651604e-02 9.166447812508393689e-02 8.823183200786371971e-04 3.267038822587761682e-02 5.814842054016877704e-02 7.578582236742573142e-02 1.518787723085768260e-02 5.015325838863526897e-02 -2.520720978190466033e-02 6.148486066920125226e-02 -1.423426760365943677e-02 -5.300512607800979270e-02 8.758333983232310938e-02 -7.521205894746044174e-02 -7.940451830741002137e-02 2.181914250805591649e-02 1.091611355693836161e-01 6.905432028468688754e-02 8.685044666165506189e-02 -2.163004046160550697e-02 -7.468506143783912310e-02 7.358457229246295750e-02 6.035884651597994699e-02 1.145463679963147630e-01 -6.340984543001940144e-02 9.898759270965928891e-02 -6.176266758399955037e-02 1.581599576557635167e-02 -5.849840616099430401e-03 -5.163305143334795400e-02 -1.095287918860982090e-02 -6.138889268002726413e-02 5.177836302029964477e-02 2.140683897978021277e-02 -1.151546870876730272e-01 2.384313412397073839e-02 -7.076960475023000297e-03 -9.513069880102295595e-03 3.159518982060929848e-02 8.868701187370528483e-02 -2.850368107535605766e-02 1.503549861899006190e-02 -8.526560679083500238e-02 -4.524705523919982098e-02 5.401019174145013646e-02 -1.181832030591789956e-01 -3.049481069726719951e-02 -6.133434657634265902e-02 1.090773101530531919e-01 -4.061318544776376660e-02 -1.242713591639130200e-02 -1.282104297639719004e-02 4.691301475111350761e-02 -2.405855863127516481e-02 -9.746081740438627961e-02 -8.172140540656369634e-02 1.631857385552898387e-02 -2.404437163946415712e-02 6.406047261560579575e-02 -7.686409344730664450e-02 5.402825478726644426e-02 -1.187630189966662614e-01 4.796452695897365781e-02 2.808408326890624029e-02 6.401102296277802473e-02 1.621155075676927737e-02 -1.082917037123899834e-01 -1.032646288715851346e-01 -2.021936845853286591e-02 9.897703257207685068e-02 -5.361973743296423456e-02 -1.038398309089235416e-01 -4.500248002821963245e-03 1.036872676457260833e-01 -8.288822186085806343e-02 3.649966900953729998e-02 -9.348569867638212294e-03 -2.112423903049677476e-02 9.568235774909294999e-02 -6.406909343287496561e-02 -8.009695540743413944e-02 -6.188962138858328937e-02 -2.154771634596920615e-02 -1.003318776204222551e-01 6.090254651881757408e-02 1.513920518337114052e-02 4.727060532689333905e-02 2.661030171412051559e-02 5.297356087653587453e-02 -2.374022609074748213e-02 -7.534713979588343602e-02 -1.139790062136163823e-01 1.020870372926545866e-01 1.152854172775892305e-01 -4.658887603984002146e-03 1.502198204203253340e-02 8.175283673737826495e-02 1.009153322039348655e-01 -4.102760714479140869e-02 -7.746278214189952771e-02 -5.726334731997408112e-02 -9.560122971945417270e-03 -8.608440485775512019e-03 6.565086428934263640e-02 6.426179990546551646e-02 -7.298850613991172964e-03 3.032813093947522853e-02 1.038967741028642144e-01 8.744434588063015878e-02 -7.456102897715097266e-02 9.369644061741755348e-02 1.076651599288680483e-01 -2.739096903626392354e-03 4.753386904328993356e-02 -1.151926751605909238e-01 6.523544529148705973e-02 -3.351242738517083708e-02 9.521189430974541512e-02 -1.153883524730743987e-01 1.141373471217024260e-01 -8.802654087876643496e-02 -1.120282429870303326e-01 -1.157466230471686508e-01 6.329341749656891558e-02 -8.558489442846542450e-02 6.441815364121000753e-03 -3.093868530248038151e-02 -7.691349756607276933e-03 1.003014598584769934e-02 -9.757010792696185764e-02 1.126406384111497405e-02 -2.123057917922092919e-02 6.963838935060495672e-02 4.928475243927590843e-02 1.145161188870116309e-01 7.877752665891024630e-02 -1.559950540904078697e-02 1.022101669068651297e-01 2.834537548847390620e-02 -6.508907151387008372e-02 7.371621002470976625e-02 1.090060973179198256e-01 -4.616544667708237515e-02 -1.869908674101909696e-02 1.011723713064341112e-01 1.005220725312029051e-01 -6.978146347082223033e-02 6.906543649755891856e-02 -3.823847756804522879e-02 9.807414526417848610e-02 3.032937897474072275e-02 -1.451154227993550760e-02 1.186556947342810309e-01 -8.943797395801440786e-02 7.000772882875827552e-02 1.124536142467750799e-01 -8.326539295878743197e-02 2.336739097052889513e-02 5.087217466450957848e-02 5.474052314115734896e-02 -1.108046086451685841e-01 1.096880226389988777e-01 -3.293625086001797375e-02 1.523577300495423947e-02 -5.078138468550665030e-02 1.976545570891855008e-02 9.208935887409955279e-02 -5.063392331138673319e-02 1.248269700651433167e-02 -6.963357165589457998e-02 -5.168112925203761920e-02 -4.325146000908293431e-02 -5.716998002471022911e-02 -3.543780746920231761e-02 7.055774775658527065e-02 3.518229646489601237e-02 -2.568301339612244494e-02 6.343542641752700217e-02 8.442043236109644799e-02 7.847670937783052247e-02 -7.468810578654494492e-02 -9.907635437601472472e-02 1.020951939692490429e-01 4.146982935830459405e-02 9.663734176679084076e-02 6.828787562236043884e-02 2.194805996784099378e-02 -8.869707988847728986e-02 -7.039573552115387101e-02 6.933206246517600868e-02 -6.514996616018643716e-02 5.486157413416084538e-02 7.541009161100042935e-02 6.060108963371038659e-02 4.265740843730878029e-02 2.179635798226095544e-02 1.553293400493299670e-02 -1.023122381702810391e-01 4.407618603986557249e-03 5.416304675392358270e-02 2.915023571604735686e-02 7.062695998966417310e-02 -1.706215709261342528e-02 -2.168099744512978766e-02 1.028442681877625720e-01 4.020209767492663455e-02 -2.532946547610076538e-02 -3.277496389061494708e-02 -4.486629283034122839e-02
